FANN_FLO_2.1
num_layers=3
learning_rate=0.200000
connection_rate=1.000000
network_type=0
learning_momentum=0.600000
training_algorithm=0
train_error_function=1
train_stop_function=0
cascade_output_change_fraction=0.010000
quickprop_decay=-0.000100
quickprop_mu=1.750000
rprop_increase_factor=1.200000
rprop_decrease_factor=0.500000
rprop_delta_min=0.000000
rprop_delta_max=50.000000
rprop_delta_zero=0.100000
cascade_output_stagnation_epochs=12
cascade_candidate_change_fraction=0.010000
cascade_candidate_stagnation_epochs=12
cascade_max_out_epochs=150
cascade_min_out_epochs=50
cascade_max_cand_epochs=150
cascade_min_cand_epochs=50
cascade_num_candidate_groups=2
bit_fail_limit=3.49999994039535522461e-01
cascade_candidate_limit=1.00000000000000000000e+03
cascade_weight_multiplier=4.00000005960464477539e-01
cascade_activation_functions_count=10
cascade_activation_functions=3 5 7 8 10 11 14 15 16 17 
cascade_activation_steepnesses_count=4
cascade_activation_steepnesses=2.50000000000000000000e-01 5.00000000000000000000e-01 7.50000000000000000000e-01 1.00000000000000000000e+00 
layer_sizes=14 26 7 
scale_included=0
neurons (num_inputs, activation_function, activation_steepness)=(0, 0, 0.00000000000000000000e+00) (0, 0, 0.00000000000000000000e+00) (0, 0, 0.00000000000000000000e+00) (0, 0, 0.00000000000000000000e+00) (0, 0, 0.00000000000000000000e+00) (0, 0, 0.00000000000000000000e+00) (0, 0, 0.00000000000000000000e+00) (0, 0, 0.00000000000000000000e+00) (0, 0, 0.00000000000000000000e+00) (0, 0, 0.00000000000000000000e+00) (0, 0, 0.00000000000000000000e+00) (0, 0, 0.00000000000000000000e+00) (0, 0, 0.00000000000000000000e+00) (0, 0, 0.00000000000000000000e+00) (14, 5, 5.00000000000000000000e-01) (14, 5, 5.00000000000000000000e-01) (14, 5, 5.00000000000000000000e-01) (14, 5, 5.00000000000000000000e-01) (14, 5, 5.00000000000000000000e-01) (14, 5, 5.00000000000000000000e-01) (14, 5, 5.00000000000000000000e-01) (14, 5, 5.00000000000000000000e-01) (14, 5, 5.00000000000000000000e-01) (14, 5, 5.00000000000000000000e-01) (14, 5, 5.00000000000000000000e-01) (14, 5, 5.00000000000000000000e-01) (14, 5, 5.00000000000000000000e-01) (14, 5, 5.00000000000000000000e-01) (14, 5, 5.00000000000000000000e-01) (14, 5, 5.00000000000000000000e-01) (14, 5, 5.00000000000000000000e-01) (14, 5, 5.00000000000000000000e-01) (14, 5, 5.00000000000000000000e-01) (14, 5, 5.00000000000000000000e-01) (14, 5, 5.00000000000000000000e-01) (14, 5, 5.00000000000000000000e-01) (14, 5, 5.00000000000000000000e-01) (14, 5, 5.00000000000000000000e-01) (14, 5, 5.00000000000000000000e-01) (0, 5, 0.00000000000000000000e+00) (26, 5, 5.00000000000000000000e-01) (26, 5, 5.00000000000000000000e-01) (26, 5, 5.00000000000000000000e-01) (26, 5, 5.00000000000000000000e-01) (26, 5, 5.00000000000000000000e-01) (26, 5, 5.00000000000000000000e-01) (0, 5, 0.00000000000000000000e+00) 
connections (connected_to_neuron, weight)=(0, -1.15470588207244873047e-03) (1, 5.13431504368782043457e-02) (2, -4.80766855180263519287e-02) (3, -9.40291807055473327637e-02) (4, 3.09120938181877136230e-02) (5, 4.07032668590545654297e-03) (6, -7.63865411281585693359e-02) (7, -7.10901618003845214844e-02) (8, -7.41922259330749511719e-02) (9, -2.57647410035133361816e-02) (10, 4.91699948906898498535e-02) (11, 9.21603366732597351074e-02) (12, -1.38998329639434814453e-02) (13, -9.30776447057723999023e-03) (0, 8.22771564126014709473e-02) (1, -8.75385776162147521973e-02) (2, 3.60534861683845520020e-02) (3, -6.14316724240779876709e-02) (4, -6.31788671016693115234e-02) (5, -9.25021618604660034180e-03) (6, -9.55673009157180786133e-02) (7, -6.17657899856567382812e-02) (8, 5.37186190485954284668e-02) (9, 5.56763187050819396973e-02) (10, -5.78781925141811370850e-02) (11, -2.09982171654701232910e-02) (12, -4.92609217762947082520e-02) (13, 1.85850113630294799805e-02) (0, 7.93473422527313232422e-03) (1, -4.38010804355144500732e-02) (2, -2.36609950661659240723e-02) (3, -9.32199656963348388672e-02) (4, -9.24579203128814697266e-02) (5, 2.82623246312141418457e-02) (6, -8.72491523623466491699e-02) (7, 3.84541824460029602051e-02) (8, -6.76673501729965209961e-02) (9, -6.36356920003890991211e-02) (10, 6.73640146851539611816e-02) (11, -4.18595671653747558594e-02) (12, 1.05995684862136840820e-02) (13, 1.65339931845664978027e-02) (0, -4.96992357075214385986e-02) (1, 9.66997370123863220215e-02) (2, -9.27737727761268615723e-02) (3, -6.74220770597457885742e-02) (4, -9.08388420939445495605e-02) (5, 4.32797148823738098145e-02) (6, -2.88537517189979553223e-02) (7, -5.40177114307880401611e-02) (8, -6.59705102443695068359e-02) (9, -2.44210511445999145508e-02) (10, -1.57835036516189575195e-02) (11, 8.77481177449226379395e-02) (12, -6.87447339296340942383e-02) (13, 2.63383015990257263184e-02) (0, -3.32501009106636047363e-02) (1, -1.80056542158126831055e-02) (2, -5.50766736268997192383e-02) (3, 7.46846422553062438965e-02) (4, 3.81932631134986877441e-02) (5, 2.12623327970504760742e-02) (6, 8.14646705985069274902e-02) (7, 4.57353517413139343262e-02) (8, -5.04753515124320983887e-02) (9, 9.42155197262763977051e-02) (10, -1.58104896545410156250e-02) (11, -1.81426927447319030762e-02) (12, -6.94201663136482238770e-02) (13, -4.84464764595031738281e-02) (0, 3.99977341294288635254e-02) (1, 4.11793962121009826660e-02) (2, 6.80875256657600402832e-02) (3, 9.02984961867332458496e-02) (4, 3.78791317343711853027e-02) (5, 7.53137543797492980957e-02) (6, -7.71235823631286621094e-02) (7, 4.70402911305427551270e-02) (8, 1.85934677720069885254e-02) (9, -5.97732514142990112305e-03) (10, 9.30225923657417297363e-02) (11, 5.26229664683341979980e-02) (12, 6.96016177535057067871e-02) (13, -2.27609127759933471680e-02) (0, 4.03710678219795227051e-02) (1, -9.91431102156639099121e-02) (2, -9.64226126670837402344e-02) (3, -9.28790271282196044922e-02) (4, -1.71487703919410705566e-02) (5, -5.14992848038673400879e-02) (6, 8.18056240677833557129e-02) (7, -7.89555013179779052734e-02) (8, 6.97630569338798522949e-02) (9, 6.32702931761741638184e-02) (10, 6.67798444628715515137e-02) (11, -8.07123035192489624023e-02) (12, 5.74858263134956359863e-02) (13, -4.90306504070758819580e-02) (0, 1.14500522613525390625e-03) (1, 8.80656465888023376465e-02) (2, 2.52287089824676513672e-03) (3, -5.88572584092617034912e-02) (4, 2.92450562119483947754e-02) (5, -2.93896049261093139648e-02) (6, -6.85587525367736816406e-02) (7, -3.28758135437965393066e-02) (8, -5.40758557617664337158e-02) (9, -4.56823371350765228271e-02) (10, -8.58355239033699035645e-02) (11, 6.45176097750663757324e-02) (12, 4.83403280377388000488e-02) (13, -9.28129404783248901367e-02) (0, 1.71405673027038574219e-02) (1, 1.79419666528701782227e-02) (2, -1.55738517642021179199e-02) (3, -4.24883551895618438721e-02) (4, 1.87988504767417907715e-02) (5, -1.19964629411697387695e-02) (6, -3.53673771023750305176e-02) (7, -9.83499214053153991699e-02) (8, 3.65042611956596374512e-02) (9, -5.35617582499980926514e-02) (10, -7.73054212331771850586e-02) (11, 6.26730918884277343750e-03) (12, -9.02914628386497497559e-02) (13, 8.94744172692298889160e-02) (0, 2.55550071597099304199e-02) (1, 6.71943500638008117676e-02) (2, -5.95562271773815155029e-02) (3, -7.32999891042709350586e-02) (4, 5.52600100636482238770e-02) (5, 4.29666563868522644043e-02) (6, -3.21572497487068176270e-02) (7, -1.54949352145195007324e-02) (8, -8.64229574799537658691e-02) (9, -7.16008245944976806641e-04) (10, 5.16292527318000793457e-02) (11, -4.04988117516040802002e-02) (12, 5.36016598343849182129e-02) (13, 6.57937303185462951660e-02) (0, -7.59811997413635253906e-02) (1, 1.94200128316879272461e-03) (2, 7.29807987809181213379e-02) (3, 4.11593690514564514160e-02) (4, -8.01160410046577453613e-02) (5, -4.25930581986904144287e-02) (6, 9.86710116267204284668e-02) (7, 3.86828109622001647949e-02) (8, 4.54104766249656677246e-02) (9, -3.66963595151901245117e-02) (10, 4.03328910470008850098e-02) (11, -1.80852636694908142090e-02) (12, 9.74187999963760375977e-03) (13, 6.30274787545204162598e-02) (0, 8.81820395588874816895e-02) (1, 1.94504112005233764648e-02) (2, 5.25018945336341857910e-02) (3, 1.37370452284812927246e-02) (4, -1.33552253246307373047e-02) (5, 9.29456725716590881348e-02) (6, 4.04370650649070739746e-02) (7, -5.80952130258083343506e-02) (8, 3.59123274683952331543e-02) (9, -9.17201861739158630371e-02) (10, 2.64098569750785827637e-02) (11, 4.94893714785575866699e-02) (12, 7.56380707025527954102e-03) (13, -2.19608992338180541992e-02) (0, -9.10094529390335083008e-02) (1, -3.88345308601856231689e-02) (2, -5.61671704053878784180e-02) (3, -6.69906586408615112305e-02) (4, 6.31074681878089904785e-02) (5, -8.31863805651664733887e-02) (6, 7.41687193512916564941e-02) (7, 8.29914286732673645020e-02) (8, -2.57794409990310668945e-02) (9, 7.28397294878959655762e-02) (10, 2.16742381453514099121e-02) (11, -8.03689584136009216309e-02) (12, -6.38566389679908752441e-02) (13, -3.79928648471832275391e-02) (0, 1.54577195644378662109e-03) (1, 4.58852425217628479004e-02) (2, -7.49653875827789306641e-02) (3, -1.02721750736236572266e-02) (4, -3.46643477678298950195e-02) (5, 7.75365009903907775879e-02) (6, -9.65351313352584838867e-02) (7, 5.19804432988166809082e-02) (8, 7.04821720719337463379e-02) (9, 4.39019277691841125488e-02) (10, 9.38852205872535705566e-02) (11, 6.39449059963226318359e-03) (12, 5.21817430853843688965e-02) (13, 2.02950611710548400879e-02) (0, -4.41161468625068664551e-02) (1, -4.02544438838958740234e-02) (2, 9.83341559767723083496e-02) (3, -3.51255983114242553711e-02) (4, 2.09110230207443237305e-02) (5, -5.78330121934413909912e-02) (6, -2.11624801158905029297e-03) (7, -1.59815028309822082520e-02) (8, -4.10193875432014465332e-02) (9, -2.79475301504135131836e-02) (10, -3.29900681972503662109e-02) (11, 3.32011803984642028809e-02) (12, -5.51078096032142639160e-02) (13, 8.86841788887977600098e-02) (0, 5.28322234749794006348e-02) (1, -1.89644470810890197754e-02) (2, -4.93086948990821838379e-02) (3, -4.56219986081123352051e-02) (4, -7.30792060494422912598e-02) (5, -2.42740884423255920410e-02) (6, 4.41058352589607238770e-02) (7, -7.74355232715606689453e-03) (8, -4.67375814914703369141e-02) (9, 4.75706979632377624512e-02) (10, -5.57631216943264007568e-02) (11, -7.62554109096527099609e-02) (12, -8.52737575769424438477e-03) (13, -6.18779025971889495850e-02) (0, 3.01390960812568664551e-02) (1, -5.63456229865550994873e-02) (2, 5.84171637892723083496e-02) (3, 8.60229358077049255371e-02) (4, 3.39993089437484741211e-03) (5, 5.67513182759284973145e-02) (6, -4.91026528179645538330e-02) (7, -7.56890401244163513184e-02) (8, 9.89183261990547180176e-02) (9, 4.87811043858528137207e-02) (10, 8.32946598529815673828e-03) (11, -4.21010740101337432861e-02) (12, -7.91664347052574157715e-02) (13, 7.53393843770027160645e-02) (0, 9.11001041531562805176e-02) (1, -3.42742353677749633789e-02) (2, 6.40235617756843566895e-02) (3, 4.39323261380195617676e-02) (4, 4.67613115906715393066e-02) (5, -8.52851346135139465332e-02) (6, 9.83103290200233459473e-02) (7, 7.36821070313453674316e-02) (8, -9.55922156572341918945e-03) (9, 4.24161478877067565918e-02) (10, -3.40614467859268188477e-02) (11, 4.37032058835029602051e-02) (12, -1.00131556391716003418e-02) (13, 1.01754441857337951660e-02) (0, 6.74477890133857727051e-02) (1, 8.14594700932502746582e-02) (2, 4.82975319027900695801e-02) (3, -2.41312384605407714844e-03) (4, -7.48861581087112426758e-02) (5, 6.71470165252685546875e-03) (6, -1.63901820778846740723e-02) (7, 2.85137817263603210449e-02) (8, -3.65339741110801696777e-02) (9, 3.45071628689765930176e-02) (10, 5.28247430920600891113e-02) (11, -3.76156643033027648926e-02) (12, -1.67117342352867126465e-02) (13, -3.88458073139190673828e-02) (0, 2.02832669019699096680e-02) (1, 4.12182509899139404297e-03) (2, -6.35064244270324707031e-02) (3, 1.13833695650100708008e-02) (4, 6.98475912213325500488e-02) (5, -9.94828566908836364746e-02) (6, -4.46843020617961883545e-02) (7, 1.66089087724685668945e-02) (8, -8.47679972648620605469e-02) (9, -4.63739745318889617920e-02) (10, -9.70898568630218505859e-03) (11, 5.67279011011123657227e-03) (12, 9.60421636700630187988e-02) (13, 5.62295690178871154785e-02) (0, -5.06240166723728179932e-02) (1, -1.39709860086441040039e-02) (2, -3.35949882864952087402e-02) (3, -8.31762254238128662109e-02) (4, -3.25115174055099487305e-02) (5, -8.52974578738212585449e-02) (6, 1.44106522202491760254e-02) (7, -7.39766657352447509766e-03) (8, 2.14172452688217163086e-02) (9, 9.80204716324806213379e-02) (10, -7.88838937878608703613e-02) (11, 8.48832651972770690918e-02) (12, 3.25276330113410949707e-02) (13, 7.39408507943153381348e-02) (0, -5.27323968708515167236e-02) (1, -8.41841027140617370605e-02) (2, -6.49049580097198486328e-02) (3, 6.75508752465248107910e-02) (4, 1.99377313256263732910e-02) (5, -2.84113734960556030273e-02) (6, -2.10657566785812377930e-02) (7, -1.02146863937377929688e-02) (8, -2.78942435979843139648e-02) (9, 3.42499390244483947754e-02) (10, -9.36057865619659423828e-02) (11, -1.26622319221496582031e-02) (12, 8.78759697079658508301e-02) (13, -3.31477075815200805664e-03) (0, 9.30105522274971008301e-02) (1, 8.39181318879127502441e-02) (2, -4.70852032303810119629e-02) (3, -5.76134622097015380859e-02) (4, -3.00528556108474731445e-02) (5, 1.93198099732398986816e-02) (6, -4.07896898686885833740e-02) (7, 3.74356284737586975098e-02) (8, 3.40223535895347595215e-02) (9, 7.36209675669670104980e-02) (10, -6.99620395898818969727e-02) (11, -4.45604100823402404785e-02) (12, 7.16414377093315124512e-02) (13, -4.88459356129169464111e-02) (0, -5.96771426498889923096e-02) (1, 4.16906923055648803711e-03) (2, -7.49050900340080261230e-02) (3, -1.24095380306243896484e-02) (4, 1.99849754571914672852e-02) (5, -3.98100502789020538330e-02) (6, -4.48586717247962951660e-02) (7, -6.00773021578788757324e-02) (8, 3.17785814404487609863e-02) (9, 3.40755656361579895020e-02) (10, 2.97080203890800476074e-02) (11, -9.61156710982322692871e-02) (12, -3.16744968295097351074e-02) (13, 3.61022427678108215332e-02) (0, -8.77790153026580810547e-03) (1, -4.37985435128211975098e-02) (2, -6.72125369310379028320e-02) (3, -1.57673433423042297363e-02) (4, -5.98804131150245666504e-02) (5, -1.42977386713027954102e-02) (6, 2.66192033886909484863e-02) (7, 1.00667327642440795898e-02) (8, -9.49779376387596130371e-02) (9, 8.58295038342475891113e-02) (10, -5.24976402521133422852e-02) (11, 3.90444174408912658691e-02) (12, 5.94504848122596740723e-02) (13, -2.24596783518791198730e-02) (14, 9.44840088486671447754e-02) (15, 3.10919210314750671387e-02) (16, 2.86943987011909484863e-02) (17, -6.51931315660476684570e-02) (18, -6.47390112280845642090e-02) (19, 5.37892952561378479004e-02) (20, 2.23973244428634643555e-02) (21, 5.52459582686424255371e-02) (22, -8.60207527875900268555e-02) (23, 7.75386616587638854980e-02) (24, 9.51686576008796691895e-02) (25, 4.57578226923942565918e-02) (26, 1.16142258048057556152e-02) (27, 2.48766764998435974121e-02) (28, 4.96421530842781066895e-02) (29, 7.99397304654121398926e-02) (30, -3.90210822224617004395e-02) (31, -5.91357462108135223389e-02) (32, -6.38588070869445800781e-02) (33, -6.23361766338348388672e-03) (34, 2.50969007611274719238e-02) (35, -2.37392187118530273438e-02) (36, 7.94686451554298400879e-02) (37, -4.82838936150074005127e-02) (38, 8.63275155425071716309e-02) (39, 8.44907090067863464355e-02) (14, -6.24543838202953338623e-02) (15, -6.61701261997222900391e-02) (16, 2.35351324081420898438e-02) (17, 9.69960913062095642090e-02) (18, 1.13701969385147094727e-02) (19, 1.80191397666931152344e-02) (20, 2.80880108475685119629e-02) (21, -5.99354244768619537354e-02) (22, 5.28259947896003723145e-02) (23, 6.33490011096000671387e-02) (24, 9.38538834452629089355e-02) (25, -2.47766673564910888672e-02) (26, 1.85949653387069702148e-02) (27, -9.21668782830238342285e-02) (28, -4.72380109131336212158e-02) (29, 1.37636289000511169434e-02) (30, 5.35909458994865417480e-02) (31, 6.43762126564979553223e-02) (32, -6.13596886396408081055e-02) (33, 3.23309749364852905273e-03) (34, 4.43159416317939758301e-02) (35, -3.80769371986389160156e-04) (36, 4.40973564982414245605e-02) (37, 8.04571434855461120605e-02) (38, 9.33856144547462463379e-02) (39, -3.08057442307472229004e-02) (14, -4.32820878922939300537e-02) (15, 7.28542581200599670410e-02) (16, 2.09103599190711975098e-02) (17, -5.69545738399028778076e-02) (18, 5.73449656367301940918e-02) (19, 5.84559813141822814941e-02) (20, -2.31247097253799438477e-02) (21, -1.91199108958244323730e-02) (22, 5.54520711302757263184e-02) (23, 8.82454887032508850098e-02) (24, 9.88992229104042053223e-02) (25, -1.64599269628524780273e-02) (26, -7.16899335384368896484e-02) (27, 5.17252311110496520996e-02) (28, -5.31109236180782318115e-02) (29, -7.78360590338706970215e-02) (30, -7.30514377355575561523e-02) (31, 6.54840543866157531738e-02) (32, -7.00029358267784118652e-02) (33, -2.02894434332847595215e-02) (34, -2.07523256540298461914e-02) (35, 8.35880115628242492676e-02) (36, -5.59132322669029235840e-02) (37, 1.78879871964454650879e-02) (38, -1.31788998842239379883e-02) (39, 8.84027108550071716309e-02) (14, -8.24927911162376403809e-02) (15, -6.90815597772598266602e-02) (16, 6.88598528504371643066e-02) (17, -8.91071781516075134277e-02) (18, 1.12697482109069824219e-04) (19, -7.44222402572631835938e-02) (20, 8.37470814585685729980e-02) (21, -7.89769366383552551270e-02) (22, -3.13768163323402404785e-02) (23, 4.10920456051826477051e-02) (24, 7.94790461659431457520e-02) (25, 4.54984828829765319824e-02) (26, -7.80278742313385009766e-02) (27, 3.49311158061027526855e-02) (28, 3.37439700961112976074e-02) (29, -7.91286453604698181152e-02) (30, -8.15288200974464416504e-02) (31, 6.20540305972099304199e-02) (32, 7.25965872406959533691e-02) (33, -3.46397385001182556152e-02) (34, 8.42179730534553527832e-02) (35, 9.95451435446739196777e-02) (36, -6.91556930541992187500e-02) (37, -8.57849717140197753906e-02) (38, -2.07442939281463623047e-02) (39, 1.00919753313064575195e-02) (14, 9.78030338883399963379e-02) (15, 2.33424678444862365723e-02) (16, -7.20200389623641967773e-02) (17, -1.53758674860000610352e-02) (18, 1.17451921105384826660e-02) (19, -5.45128248631954193115e-02) (20, 1.55425816774368286133e-02) (21, -1.93949714303016662598e-02) (22, -4.36200015246868133545e-02) (23, -8.43447223305702209473e-02) (24, 6.18278980255126953125e-03) (25, -5.98729290068149566650e-02) (26, -6.33216649293899536133e-02) (27, 7.48059824109077453613e-02) (28, 8.12191143631935119629e-02) (29, -8.38426202535629272461e-02) (30, 2.03044563531875610352e-02) (31, -9.68087613582611083984e-02) (32, 5.10884895920753479004e-02) (33, -4.59515750408172607422e-02) (34, -7.59374052286148071289e-02) (35, 6.95596709847450256348e-02) (36, -8.38975459337234497070e-02) (37, 9.66591909527778625488e-02) (38, -6.50800764560699462891e-02) (39, -9.96795743703842163086e-02) (14, 9.62043330073356628418e-02) (15, -3.42357680201530456543e-02) (16, -8.54645445942878723145e-02) (17, -2.45399624109268188477e-02) (18, 7.58562162518501281738e-02) (19, -8.76615121960639953613e-02) (20, 9.88025143742561340332e-02) (21, -9.61638316512107849121e-02) (22, -3.03737819194793701172e-03) (23, 1.05476975440979003906e-02) (24, -5.06766587495803833008e-02) (25, -8.74947980046272277832e-02) (26, 9.11527350544929504395e-02) (27, 5.70334494113922119141e-03) (28, -7.18395188450813293457e-02) (29, -2.66448408365249633789e-03) (30, 4.58304062485694885254e-02) (31, -3.51611822843551635742e-02) (32, -2.78585031628608703613e-02) (33, 2.70495191216468811035e-02) (34, -1.90038010478019714355e-02) (35, 9.24459621310234069824e-02) (36, 3.02407518029212951660e-02) (37, -6.79153203964233398438e-02) (38, -5.35056218504905700684e-02) (39, 5.43033555150032043457e-02) 
