FANN_FLO_2.1
num_layers=3
learning_rate=0.700000
connection_rate=1.000000
network_type=0
learning_momentum=0.600000
training_algorithm=0
train_error_function=1
train_stop_function=0
cascade_output_change_fraction=0.010000
quickprop_decay=-0.000100
quickprop_mu=1.750000
rprop_increase_factor=1.200000
rprop_decrease_factor=0.500000
rprop_delta_min=0.000000
rprop_delta_max=50.000000
rprop_delta_zero=0.100000
cascade_output_stagnation_epochs=12
cascade_candidate_change_fraction=0.010000
cascade_candidate_stagnation_epochs=12
cascade_max_out_epochs=150
cascade_min_out_epochs=50
cascade_max_cand_epochs=150
cascade_min_cand_epochs=50
cascade_num_candidate_groups=2
bit_fail_limit=3.49999994039535522461e-01
cascade_candidate_limit=1.00000000000000000000e+03
cascade_weight_multiplier=4.00000005960464477539e-01
cascade_activation_functions_count=10
cascade_activation_functions=3 5 7 8 10 11 14 15 16 17 
cascade_activation_steepnesses_count=4
cascade_activation_steepnesses=2.50000000000000000000e-01 5.00000000000000000000e-01 7.50000000000000000000e-01 1.00000000000000000000e+00 
layer_sizes=14 51 7 
scale_included=0
neurons (num_inputs, activation_function, activation_steepness)=(0, 0, 0.00000000000000000000e+00) (0, 0, 0.00000000000000000000e+00) (0, 0, 0.00000000000000000000e+00) (0, 0, 0.00000000000000000000e+00) (0, 0, 0.00000000000000000000e+00) (0, 0, 0.00000000000000000000e+00) (0, 0, 0.00000000000000000000e+00) (0, 0, 0.00000000000000000000e+00) (0, 0, 0.00000000000000000000e+00) (0, 0, 0.00000000000000000000e+00) (0, 0, 0.00000000000000000000e+00) (0, 0, 0.00000000000000000000e+00) (0, 0, 0.00000000000000000000e+00) (0, 0, 0.00000000000000000000e+00) (14, 5, 5.00000000000000000000e-01) (14, 5, 5.00000000000000000000e-01) (14, 5, 5.00000000000000000000e-01) (14, 5, 5.00000000000000000000e-01) (14, 5, 5.00000000000000000000e-01) (14, 5, 5.00000000000000000000e-01) (14, 5, 5.00000000000000000000e-01) (14, 5, 5.00000000000000000000e-01) (14, 5, 5.00000000000000000000e-01) (14, 5, 5.00000000000000000000e-01) (14, 5, 5.00000000000000000000e-01) (14, 5, 5.00000000000000000000e-01) (14, 5, 5.00000000000000000000e-01) (14, 5, 5.00000000000000000000e-01) (14, 5, 5.00000000000000000000e-01) (14, 5, 5.00000000000000000000e-01) (14, 5, 5.00000000000000000000e-01) (14, 5, 5.00000000000000000000e-01) (14, 5, 5.00000000000000000000e-01) (14, 5, 5.00000000000000000000e-01) (14, 5, 5.00000000000000000000e-01) (14, 5, 5.00000000000000000000e-01) (14, 5, 5.00000000000000000000e-01) (14, 5, 5.00000000000000000000e-01) (14, 5, 5.00000000000000000000e-01) (14, 5, 5.00000000000000000000e-01) (14, 5, 5.00000000000000000000e-01) (14, 5, 5.00000000000000000000e-01) (14, 5, 5.00000000000000000000e-01) (14, 5, 5.00000000000000000000e-01) (14, 5, 5.00000000000000000000e-01) (14, 5, 5.00000000000000000000e-01) (14, 5, 5.00000000000000000000e-01) (14, 5, 5.00000000000000000000e-01) (14, 5, 5.00000000000000000000e-01) (14, 5, 5.00000000000000000000e-01) (14, 5, 5.00000000000000000000e-01) (14, 5, 5.00000000000000000000e-01) (14, 5, 5.00000000000000000000e-01) (14, 5, 5.00000000000000000000e-01) (14, 5, 5.00000000000000000000e-01) (14, 5, 5.00000000000000000000e-01) (14, 5, 5.00000000000000000000e-01) (14, 5, 5.00000000000000000000e-01) (14, 5, 5.00000000000000000000e-01) (14, 5, 5.00000000000000000000e-01) (14, 5, 5.00000000000000000000e-01) (14, 5, 5.00000000000000000000e-01) (14, 5, 5.00000000000000000000e-01) (14, 5, 5.00000000000000000000e-01) (0, 5, 0.00000000000000000000e+00) (51, 5, 5.00000000000000000000e-01) (51, 5, 5.00000000000000000000e-01) (51, 5, 5.00000000000000000000e-01) (51, 5, 5.00000000000000000000e-01) (51, 5, 5.00000000000000000000e-01) (51, 5, 5.00000000000000000000e-01) (0, 5, 0.00000000000000000000e+00) 
connections (connected_to_neuron, weight)=(0, -7.45371282100677490234e-02) (1, 4.19562235474586486816e-02) (2, -9.89977270364761352539e-02) (3, -7.89749771356582641602e-02) (4, -9.93970856070518493652e-02) (5, 8.73896703124046325684e-02) (6, 6.97625353932380676270e-02) (7, -3.02705913782119750977e-02) (8, 5.18722832202911376953e-03) (9, 1.56957656145095825195e-02) (10, 3.61777022480964660645e-02) (11, -1.05672329664230346680e-02) (12, -8.40131863951683044434e-02) (13, -9.50173586606979370117e-02) (0, -9.79771465063095092773e-03) (1, -7.63197839260101318359e-02) (2, -9.07768234610557556152e-02) (3, -8.00010710954666137695e-02) (4, 3.62187623977661132812e-03) (5, 8.46584066748619079590e-02) (6, -1.43082588911056518555e-02) (7, 8.56816843152046203613e-02) (8, -8.92880633473396301270e-02) (9, 9.46870073676109313965e-02) (10, 7.79529139399528503418e-02) (11, -6.88937157392501831055e-02) (12, 3.63377407193183898926e-02) (13, -1.97885036468505859375e-02) (0, -9.39971506595611572266e-02) (1, 1.73621624708175659180e-02) (2, 7.27007314562797546387e-02) (3, -6.85342848300933837891e-02) (4, -4.06816191971302032471e-02) (5, 7.37029984593391418457e-02) (6, -4.75092604756355285645e-02) (7, -4.00786995887756347656e-02) (8, 6.10926821827888488770e-02) (9, -7.77467265725135803223e-02) (10, 2.96507105231285095215e-02) (11, -3.37201133370399475098e-02) (12, 3.79490330815315246582e-02) (13, -3.41715887188911437988e-02) (0, 5.57126626372337341309e-02) (1, 5.39358481764793395996e-02) (2, -2.91889458894729614258e-02) (3, -5.40850572288036346436e-02) (4, 7.76160731911659240723e-02) (5, -1.99657678604125976562e-02) (6, -3.40861231088638305664e-02) (7, -1.87620520591735839844e-02) (8, -3.53073626756668090820e-02) (9, 5.16056045889854431152e-02) (10, -3.30803766846656799316e-02) (11, -2.45954245328903198242e-02) (12, 4.62926104664802551270e-02) (13, -5.51274642348289489746e-02) (0, 6.51085376739501953125e-03) (1, -1.73696503043174743652e-02) (2, 2.50840261578559875488e-02) (3, 1.25137120485305786133e-02) (4, 9.99925211071968078613e-02) (5, -2.21525132656097412109e-03) (6, 4.39794287085533142090e-02) (7, -4.06891107559204101562e-02) (8, -2.85122469067573547363e-02) (9, 9.64701846241950988770e-02) (10, 1.92321911454200744629e-02) (11, -6.74195736646652221680e-02) (12, -8.12765508890151977539e-02) (13, -5.11171035468578338623e-02) (0, -1.13968551158905029297e-03) (1, 5.66724911332130432129e-02) (2, 1.47113054990768432617e-02) (3, -4.54270243644714355469e-02) (4, 1.06083378195762634277e-02) (5, 8.55223610997200012207e-02) (6, 4.87908720970153808594e-04) (7, -1.17755979299545288086e-02) (8, -3.44434082508087158203e-02) (9, 6.64017871022224426270e-02) (10, 6.94623515009880065918e-02) (11, 3.02492454648017883301e-02) (12, 1.80073976516723632812e-02) (13, -6.36180266737937927246e-02) (0, -9.43461954593658447266e-02) (1, -3.56999784708023071289e-02) (2, -1.87454894185066223145e-02) (3, 1.21646672487258911133e-02) (4, 4.69303801655769348145e-02) (5, -9.36614573001861572266e-02) (6, -7.53216221928596496582e-02) (7, 4.69228699803352355957e-02) (8, 4.12329286336898803711e-03) (9, 6.86578229069709777832e-02) (10, -9.37662273645401000977e-02) (11, 7.56110623478889465332e-02) (12, 6.51279762387275695801e-02) (13, 2.54659727215766906738e-02) (0, -9.18085277080535888672e-02) (1, 8.38514342904090881348e-02) (2, 7.43488594889640808105e-02) (3, 7.05178827047348022461e-03) (4, 4.05239239335060119629e-02) (5, -1.09398290514945983887e-02) (6, 6.16247728466987609863e-02) (7, -4.88677434623241424561e-02) (8, -2.54174619913101196289e-02) (9, -3.78873236477375030518e-02) (10, 3.93566563725471496582e-02) (11, 4.01391312479972839355e-02) (12, -7.14855343103408813477e-02) (13, 8.81900638341903686523e-03) (0, -2.96116396784782409668e-02) (1, 4.65218648314476013184e-02) (2, 4.52009811997413635254e-02) (3, -2.39578336477279663086e-02) (4, -8.91781151294708251953e-02) (5, -7.35445022583007812500e-02) (6, 8.82068350911140441895e-02) (7, 5.77522590756416320801e-02) (8, -6.72059655189514160156e-02) (9, -8.71147885918617248535e-02) (10, 4.67513501644134521484e-03) (11, 3.69173362851142883301e-02) (12, 8.15430358052253723145e-02) (13, 1.09089016914367675781e-02) (0, 1.25283822417259216309e-02) (1, 4.66710105538368225098e-02) (2, -6.36251419782638549805e-02) (3, 2.07198634743690490723e-02) (4, 3.05224433541297912598e-02) (5, -8.92762839794158935547e-02) (6, -7.22283497452735900879e-02) (7, -2.89536416530609130859e-02) (8, -2.16111540794372558594e-04) (9, 8.93964096903800964355e-02) (10, 2.21786126494407653809e-02) (11, 7.43664279580116271973e-02) (12, -4.84909117221832275391e-02) (13, -3.84647324681282043457e-02) (0, 1.45055502653121948242e-02) (1, -1.99764445424079895020e-02) (2, 7.03542903065681457520e-02) (3, 8.48939195275306701660e-02) (4, -7.34545737504959106445e-02) (5, 1.55552625656127929688e-02) (6, -3.90639193356037139893e-02) (7, -6.26326948404312133789e-02) (8, 4.20107617974281311035e-02) (9, -5.08570820093154907227e-02) (10, 9.51195731759071350098e-02) (11, 7.48048052191734313965e-02) (12, -3.79718653857707977295e-02) (13, -2.05300748348236083984e-04) (0, 1.17221325635910034180e-02) (1, -5.64288459718227386475e-02) (2, -8.92964005470275878906e-02) (3, -7.57494717836380004883e-02) (4, 9.02421548962593078613e-02) (5, -5.29215298593044281006e-02) (6, 4.49704006314277648926e-02) (7, 2.07646042108535766602e-02) (8, -4.21978123486042022705e-02) (9, 7.27420523762702941895e-02) (10, 9.18109640479087829590e-02) (11, 5.75860813260078430176e-02) (12, 6.21384456753730773926e-02) (13, 1.39895677566528320312e-02) (0, 3.19525077939033508301e-02) (1, -8.63524600863456726074e-02) (2, 7.55248442292213439941e-02) (3, -5.35419434309005737305e-02) (4, -6.32890313863754272461e-03) (5, 4.58791330456733703613e-02) (6, -6.86480328440666198730e-02) (7, 2.02165246009826660156e-02) (8, -3.85656133294105529785e-02) (9, -7.71194696426391601562e-03) (10, 5.75838312506675720215e-02) (11, -9.65548530220985412598e-02) (12, 4.14309725165367126465e-02) (13, 5.27033880352973937988e-02) (0, 7.82499536871910095215e-02) (1, -9.65408980846405029297e-02) (2, -4.75019030272960662842e-02) (3, -1.00279077887535095215e-02) (4, -5.29697462916374206543e-02) (5, -3.67982983589172363281e-02) (6, 1.42226219177246093750e-02) (7, -6.27275854349136352539e-02) (8, 1.02801695466041564941e-02) (9, -4.08069901168346405029e-02) (10, 5.80370202660560607910e-02) (11, 6.80823549628257751465e-02) (12, -6.80649578571319580078e-02) (13, 4.98479828238487243652e-02) (0, 2.56684496998786926270e-02) (1, 9.40734967589378356934e-02) (2, -3.61624509096145629883e-02) (3, -4.23790588974952697754e-02) (4, -9.22789648175239562988e-02) (5, -6.06376081705093383789e-02) (6, 4.07899916172027587891e-03) (7, 1.39214098453521728516e-03) (8, 8.52415189146995544434e-02) (9, 3.54309752583503723145e-02) (10, -7.83913508057594299316e-02) (11, -5.33240996301174163818e-02) (12, -7.22809806466102600098e-02) (13, 7.91924819350242614746e-02) (0, -4.98789511620998382568e-02) (1, 6.91499784588813781738e-02) (2, 3.18958833813667297363e-02) (3, -7.16290026903152465820e-02) (4, 7.26090893149375915527e-02) (5, 8.43939855694770812988e-02) (6, 1.83430910110473632812e-02) (7, -8.03606584668159484863e-02) (8, -5.24043180048465728760e-02) (9, -6.74342960119247436523e-02) (10, -4.30882386863231658936e-02) (11, 5.78758493065834045410e-02) (12, -8.24128091335296630859e-03) (13, -8.50512236356735229492e-02) (0, 2.59582176804542541504e-02) (1, 2.36937627196311950684e-02) (2, 6.47967532277107238770e-02) (3, -4.83733490109443664551e-02) (4, 1.77672654390335083008e-02) (5, -7.13656917214393615723e-02) (6, 9.24760103225708007812e-03) (7, 2.54883095622062683105e-02) (8, -3.20032984018325805664e-02) (9, -8.66734012961387634277e-02) (10, -7.31195583939552307129e-02) (11, -4.67617809772491455078e-02) (12, 4.87575605511665344238e-02) (13, -5.15109114348888397217e-02) (0, -8.58828425407409667969e-05) (1, 7.64765813946723937988e-02) (2, -7.23184272646903991699e-02) (3, 5.00351712107658386230e-02) (4, 4.56265732645988464355e-02) (5, 5.95774576067924499512e-02) (6, 7.84061625599861145020e-02) (7, 1.82356610894203186035e-02) (8, 4.39714267849922180176e-02) (9, -3.25074791908264160156e-03) (10, 3.78750041127204895020e-02) (11, 9.15671065449714660645e-02) (12, 2.93149575591087341309e-02) (13, 9.47867706418037414551e-02) (0, 4.94429692625999450684e-02) (1, -7.89263173937797546387e-02) (2, -9.02644693851470947266e-02) (3, -2.45988219976425170898e-02) (4, 4.47674468159675598145e-02) (5, 7.45322927832603454590e-02) (6, 2.70278379321098327637e-02) (7, -3.74652817845344543457e-02) (8, -9.68334004282951354980e-02) (9, -6.37245774269104003906e-02) (10, 8.80230143666267395020e-02) (11, -2.88366973400115966797e-02) (12, -5.03979735076427459717e-02) (13, -8.50965380668640136719e-02) (0, 2.44015231728553771973e-02) (1, 9.83595922589302062988e-02) (2, -3.66074442863464355469e-02) (3, -7.56843611598014831543e-02) (4, 7.48361721634864807129e-02) (5, -8.92587006092071533203e-03) (6, 7.43508115410804748535e-02) (7, 2.04627364873886108398e-02) (8, -4.93484139442443847656e-02) (9, 5.27569726109504699707e-02) (10, -6.13016001880168914795e-02) (11, 9.46230217814445495605e-02) (12, -5.04937767982482910156e-02) (13, 7.65733942389488220215e-02) (0, 8.61901417374610900879e-02) (1, 7.88211897015571594238e-02) (2, 7.13601633906364440918e-02) (3, 3.56330946087837219238e-02) (4, 9.98948737978935241699e-02) (5, 8.10957029461860656738e-02) (6, -8.89657214283943176270e-02) (7, 4.46623191237449645996e-02) (8, 5.56279942393302917480e-02) (9, 3.80621179938316345215e-02) (10, -9.28029641509056091309e-02) (11, 5.87945953011512756348e-02) (12, 7.43375495076179504395e-02) (13, 9.52200666069984436035e-02) (0, -7.00421035289764404297e-02) (1, -7.60604366660118103027e-02) (2, -8.98764729499816894531e-02) (3, 5.43594136834144592285e-02) (4, -7.77008458971977233887e-02) (5, -2.64839157462120056152e-02) (6, 7.86750540137290954590e-02) (7, 9.71353277564048767090e-02) (8, 6.45902082324028015137e-02) (9, 5.30258491635322570801e-02) (10, 1.75980776548385620117e-02) (11, -8.47582072019577026367e-02) (12, 5.78282773494720458984e-03) (13, 5.62964752316474914551e-02) (0, -9.01351869106292724609e-02) (1, 5.52890524268150329590e-02) (2, 3.28698828816413879395e-02) (3, 9.60549488663673400879e-02) (4, 3.41102406382560729980e-02) (5, 4.23003733158111572266e-03) (6, 3.16880419850349426270e-02) (7, 3.40051129460334777832e-02) (8, -1.46742686629295349121e-02) (9, 4.27223369479179382324e-02) (10, -2.13325768709182739258e-02) (11, -5.90462796390056610107e-02) (12, -1.92155539989471435547e-02) (13, -1.41355395317077636719e-02) (0, 9.97483208775520324707e-02) (1, -4.48780134320259094238e-02) (2, -1.89154744148254394531e-02) (3, -7.02937915921211242676e-02) (4, -2.09384411573410034180e-02) (5, -8.79194587469100952148e-03) (6, 8.40656235814094543457e-02) (7, 1.36071443557739257812e-03) (8, 6.47241398692131042480e-02) (9, 6.27406761050224304199e-02) (10, -1.50395929813385009766e-03) (11, 2.93143466114997863770e-02) (12, 1.57665386795997619629e-02) (13, -8.39058831334114074707e-02) (0, 4.45561334490776062012e-02) (1, -7.84506350755691528320e-02) (2, 7.23905935883522033691e-02) (3, 5.44209554791450500488e-02) (4, 7.68384113907814025879e-02) (5, 5.26048243045806884766e-03) (6, 5.04759028553962707520e-02) (7, 1.09486430883407592773e-02) (8, -9.05094891786575317383e-02) (9, -1.78360566496849060059e-02) (10, -5.50462491810321807861e-02) (11, -5.18375635147094726562e-03) (12, -7.51137211918830871582e-02) (13, 2.36211791634559631348e-02) (0, 3.57699617743492126465e-02) (1, 5.67072629928588867188e-03) (2, -9.05143618583679199219e-02) (3, 3.55182811617851257324e-02) (4, 6.07927069067955017090e-02) (5, -9.42983478307723999023e-03) (6, 6.52244910597801208496e-02) (7, -6.01457320153713226318e-02) (8, 8.17782208323478698730e-02) (9, 4.92901131510734558105e-02) (10, 4.12149801850318908691e-02) (11, 4.65023443102836608887e-02) (12, 1.20307952165603637695e-02) (13, -6.02889768779277801514e-02) (0, -2.41833180189132690430e-02) (1, -7.22026750445365905762e-02) (2, -4.41948547959327697754e-02) (3, -7.96271860599517822266e-02) (4, -5.06533160805702209473e-02) (5, -7.18042552471160888672e-02) (6, 7.47937634587287902832e-02) (7, -7.38148987293243408203e-02) (8, 3.34562137722969055176e-02) (9, 2.52696499228477478027e-02) (10, 3.71337458491325378418e-02) (11, 4.29467335343360900879e-02) (12, -9.25664082169532775879e-02) (13, 8.20874944329261779785e-02) (0, -6.22370243072509765625e-02) (1, -6.76801353693008422852e-02) (2, 5.70867210626602172852e-03) (3, 7.35329464077949523926e-02) (4, 3.79905924201011657715e-02) (5, 1.51943117380142211914e-02) (6, 9.05122607946395874023e-03) (7, -1.21669471263885498047e-03) (8, -9.42355319857597351074e-02) (9, -2.57242918014526367188e-02) (10, 3.86375859379768371582e-02) (11, 8.75426754355430603027e-02) (12, -7.64341801404953002930e-02) (13, -2.01474428176879882812e-02) (0, 3.40450182557106018066e-02) (1, 3.55966165661811828613e-02) (2, 1.95635780692100524902e-02) (3, -9.01383012533187866211e-02) (4, 6.33939281105995178223e-02) (5, 7.53687247633934020996e-02) (6, -6.97654932737350463867e-02) (7, -8.72593820095062255859e-02) (8, -9.64355319738388061523e-02) (9, -9.49717313051223754883e-02) (10, -6.10742829740047454834e-02) (11, 3.70206907391548156738e-02) (12, 3.02979126572608947754e-02) (13, 7.60594680905342102051e-02) (0, -2.00325846672058105469e-02) (1, 3.77315059304237365723e-02) (2, 5.81469610333442687988e-02) (3, 1.77303925156593322754e-02) (4, 7.00513795018196105957e-02) (5, -3.61443683505058288574e-02) (6, -8.73666256666183471680e-03) (7, 8.04196298122406005859e-03) (8, 7.90499374270439147949e-02) (9, -9.96854454278945922852e-02) (10, -9.31747257709503173828e-02) (11, 8.48144069314002990723e-02) (12, -2.54097357392311096191e-02) (13, 4.54628542065620422363e-02) (0, 7.23570808768272399902e-02) (1, -1.84391438961029052734e-03) (2, -7.46845901012420654297e-02) (3, 6.40211254358291625977e-03) (4, -6.62473067641258239746e-02) (5, 4.48789969086647033691e-02) (6, 1.62638053297996520996e-02) (7, 9.71466377377510070801e-02) (8, 2.02477201819419860840e-02) (9, 4.64983209967613220215e-02) (10, -9.01127606630325317383e-02) (11, 2.38121896982192993164e-02) (12, 5.15265837311744689941e-02) (13, -5.11870421469211578369e-02) (0, -3.91671173274517059326e-02) (1, -1.81754976511001586914e-02) (2, -7.51275867223739624023e-02) (3, 4.08002957701683044434e-02) (4, -8.04439932107925415039e-02) (5, 8.30193832516670227051e-02) (6, -4.14693132042884826660e-02) (7, 8.96073803305625915527e-02) (8, -5.31249977648258209229e-02) (9, 4.97940257191658020020e-02) (10, -2.35064327716827392578e-03) (11, -7.40750581026077270508e-02) (12, 5.01085743308067321777e-02) (13, 4.47462499141693115234e-03) (0, -8.92606526613235473633e-02) (1, -7.53011554479598999023e-02) (2, -5.00625260174274444580e-02) (3, 8.30964371562004089355e-02) (4, 2.28549391031265258789e-02) (5, -2.47471183538436889648e-02) (6, -1.05014592409133911133e-02) (7, 5.66076263785362243652e-02) (8, -7.98681229352951049805e-02) (9, -9.42376479506492614746e-02) (10, 5.37542626261711120605e-02) (11, 4.03795912861824035645e-02) (12, 5.22606745362281799316e-02) (13, 6.36414960026741027832e-02) (0, -3.58082130551338195801e-02) (1, 3.78725677728652954102e-03) (2, -8.75455439090728759766e-02) (3, 2.50246599316596984863e-02) (4, 8.56117680668830871582e-02) (5, -6.26731216907501220703e-02) (6, -3.41750383377075195312e-02) (7, -9.48322340846061706543e-02) (8, -7.96537548303604125977e-02) (9, 2.43556499481201171875e-02) (10, 9.47751477360725402832e-02) (11, -3.27787473797798156738e-02) (12, -2.58503258228302001953e-02) (13, -7.57549703121185302734e-03) (0, -6.85380399227142333984e-03) (1, -7.57417455315589904785e-02) (2, 9.68991294503211975098e-02) (3, 3.88554483652114868164e-03) (4, -5.10428957641124725342e-02) (5, -5.31634055078029632568e-02) (6, -1.30180269479751586914e-02) (7, 7.18120411038398742676e-02) (8, 2.20894813537597656250e-02) (9, 7.64805153012275695801e-02) (10, 2.84196808934211730957e-02) (11, 4.22213599085807800293e-02) (12, 8.22428688406944274902e-02) (13, -1.78260728716850280762e-02) (0, -1.73990502953529357910e-02) (1, 3.45035269856452941895e-02) (2, -5.41845746338367462158e-02) (3, 4.67927530407905578613e-02) (4, -6.17092102766036987305e-02) (5, -4.17301170527935028076e-02) (6, -2.81825885176658630371e-02) (7, -7.60974511504173278809e-02) (8, -4.40324097871780395508e-03) (9, 3.76423671841621398926e-02) (10, -7.09296911954879760742e-02) (11, 1.59430056810379028320e-02) (12, -3.80019731819629669189e-02) (13, -7.61545374989509582520e-02) (0, 8.31642672419548034668e-02) (1, 3.61477062106132507324e-02) (2, 1.62699595093727111816e-02) (3, -2.36895456910133361816e-02) (4, 6.04059621691703796387e-02) (5, 1.31690874695777893066e-02) (6, 8.01960006356239318848e-02) (7, -9.06369388103485107422e-02) (8, 6.00056722760200500488e-02) (9, -3.28220278024673461914e-02) (10, 8.11751112341880798340e-02) (11, -1.79048329591751098633e-02) (12, -5.63415139913558959961e-02) (13, 9.59477573633193969727e-03) (0, -7.56834819912910461426e-02) (1, -7.40986466407775878906e-02) (2, 9.17687043547630310059e-02) (3, 6.91746175289154052734e-03) (4, 6.04048892855644226074e-02) (5, -6.24158680438995361328e-02) (6, -4.62897904217243194580e-02) (7, 9.86956730484962463379e-02) (8, -4.14598733186721801758e-03) (9, 2.55276188254356384277e-02) (10, -7.74017721414566040039e-02) (11, 9.14507731795310974121e-02) (12, -3.68300080299377441406e-02) (13, -4.83314655721187591553e-02) (0, 7.39377737045288085938e-03) (1, 2.51680240035057067871e-02) (2, -2.44860053062438964844e-02) (3, -9.44195687770843505859e-03) (4, -3.86842787265777587891e-02) (5, 9.17839482426643371582e-02) (6, 6.68684914708137512207e-02) (7, -7.82783180475234985352e-02) (8, 4.95304167270660400391e-03) (9, 4.70644906163215637207e-02) (10, -6.89152479171752929688e-02) (11, -3.50412800908088684082e-02) (12, -8.57575386762619018555e-02) (13, -8.77401456236839294434e-02) (0, 4.70538809895515441895e-02) (1, -4.20990549027919769287e-02) (2, 2.18546390533447265625e-02) (3, 7.13704004883766174316e-02) (4, -1.61977037787437438965e-02) (5, 1.36233419179916381836e-02) (6, -2.17121317982673645020e-02) (7, -5.57928197085857391357e-02) (8, 5.12074753642082214355e-02) (9, 3.19980904459953308105e-02) (10, -5.70971406996250152588e-02) (11, -5.29385134577751159668e-02) (12, -4.24742959439754486084e-02) (13, -3.44989150762557983398e-02) (0, -6.14877417683601379395e-02) (1, 2.06957012414932250977e-02) (2, 1.71696171164512634277e-02) (3, 4.59060445427894592285e-02) (4, -5.41362799704074859619e-02) (5, 9.26836207509040832520e-02) (6, -6.35359138250350952148e-02) (7, 7.17943906784057617188e-03) (8, 8.44675824046134948730e-02) (9, -9.66674238443374633789e-02) (10, 2.89011225104331970215e-02) (11, -1.05793848633766174316e-02) (12, 5.03970757126808166504e-02) (13, 5.99858835339546203613e-02) (0, 5.43793365359306335449e-02) (1, 6.46395310759544372559e-02) (2, 7.22457244992256164551e-02) (3, 1.43321603536605834961e-03) (4, -7.74595215916633605957e-02) (5, -5.89963048696517944336e-03) (6, -2.71963775157928466797e-02) (7, 6.34276866912841796875e-03) (8, -9.22762900590896606445e-02) (9, 5.10914996266365051270e-02) (10, 5.05499616265296936035e-02) (11, 5.89311793446540832520e-02) (12, -1.69104188680648803711e-02) (13, 9.34528186917304992676e-02) (0, -9.40073207020759582520e-02) (1, 4.06152829527854919434e-02) (2, -4.10460941493511199951e-02) (3, -5.54950647056102752686e-02) (4, -3.86890172958374023438e-02) (5, 7.61235281825065612793e-02) (6, 9.04109850525856018066e-02) (7, 7.17470794916152954102e-03) (8, 6.88071474432945251465e-02) (9, -7.31249377131462097168e-02) (10, -8.56458544731140136719e-02) (11, 5.32747134566307067871e-02) (12, -6.97923600673675537109e-02) (13, 4.32552769780158996582e-02) (0, -5.73046617209911346436e-02) (1, 8.06047096848487854004e-02) (2, 3.24114412069320678711e-03) (3, 9.70746800303459167480e-02) (4, 4.52442392706871032715e-02) (5, -2.45131179690361022949e-02) (6, -1.49210542440414428711e-03) (7, 6.77847191691398620605e-02) (8, 6.95872530341148376465e-02) (9, 7.13115260004997253418e-02) (10, -2.58725062012672424316e-02) (11, 7.73109719157218933105e-02) (12, 2.24030166864395141602e-02) (13, -7.53225535154342651367e-02) (0, 3.62421497702598571777e-02) (1, -9.45074111223220825195e-02) (2, -8.18697363138198852539e-02) (3, 4.22348305583000183105e-02) (4, 4.61078807711601257324e-02) (5, -2.29158252477645874023e-02) (6, 8.67397710680961608887e-02) (7, -9.25811380147933959961e-02) (8, -4.67923060059547424316e-02) (9, 7.71507546305656433105e-02) (10, 1.45935639739036560059e-02) (11, -7.79851600527763366699e-02) (12, -9.59741920232772827148e-02) (13, 2.89477184414863586426e-02) (0, 7.52895548939704895020e-02) (1, -6.57665431499481201172e-02) (2, -2.77970060706138610840e-02) (3, -8.20151045918464660645e-02) (4, -8.51618349552154541016e-02) (5, 7.54441544413566589355e-02) (6, -8.49404335021972656250e-02) (7, 6.00824132561683654785e-02) (8, -4.90689687430858612061e-02) (9, 1.35674700140953063965e-02) (10, 2.78671309351921081543e-02) (11, -7.94817209243774414062e-02) (12, -1.51210203766822814941e-02) (13, -9.80053767561912536621e-02) (0, 9.78292450308799743652e-02) (1, -9.27180051803588867188e-02) (2, -7.33279287815093994141e-02) (3, 3.40713933110237121582e-02) (4, -8.72254148125648498535e-02) (5, -5.51976598799228668213e-02) (6, -2.36937701702117919922e-02) (7, 5.88824674487113952637e-02) (8, 2.18865126371383666992e-02) (9, -3.69540005922317504883e-02) (10, 6.63013234734535217285e-02) (11, 7.50942155718803405762e-02) (12, -5.98032549023628234863e-02) (13, -1.91051065921783447266e-02) (0, 9.71090421080589294434e-02) (1, -5.57774417102336883545e-02) (2, -9.01573896408081054688e-02) (3, 7.23986104130744934082e-02) (4, -2.15439945459365844727e-02) (5, -1.79543942213058471680e-02) (6, 9.03835073113441467285e-02) (7, -6.70582801103591918945e-03) (8, -4.25102487206459045410e-02) (9, -9.45569276809692382812e-02) (10, -4.66234162449836730957e-02) (11, 8.42078030109405517578e-03) (12, 1.90105438232421875000e-02) (13, 8.12437012791633605957e-02) (0, 2.89390608668327331543e-02) (1, -9.61104780435562133789e-02) (2, 8.32383260130882263184e-02) (3, 2.67683044075965881348e-02) (4, -8.88284817337989807129e-02) (5, -9.00895968079566955566e-02) (6, -3.91602925956249237061e-02) (7, -7.60538950562477111816e-02) (8, -4.52872514724731445312e-02) (9, 3.71459349989891052246e-02) (10, 8.28285738825798034668e-02) (11, 7.65992477536201477051e-02) (12, -9.98080670833587646484e-02) (13, 4.91298958659172058105e-02) (0, 5.16934618353843688965e-02) (1, -5.96113204956054687500e-02) (2, -6.99752122163772583008e-02) (3, 4.88025024533271789551e-02) (4, -1.53887644410133361816e-02) (5, -6.01326003670692443848e-02) (6, 2.12011113762855529785e-02) (7, 6.30672499537467956543e-02) (8, 2.19130069017410278320e-02) (9, 1.15846171975135803223e-02) (10, -4.36385758221149444580e-02) (11, 7.94027671217918395996e-02) (12, 1.70276910066604614258e-02) (13, 9.73800569772720336914e-03) (14, -1.21764540672302246094e-02) (15, -6.39617741107940673828e-02) (16, -9.01828706264495849609e-03) (17, -8.32373946905136108398e-02) (18, -6.00722543895244598389e-02) (19, -2.57799476385116577148e-02) (20, 4.35309186577796936035e-02) (21, -4.89007346332073211670e-02) (22, -1.58695429563522338867e-02) (23, -9.56293791532516479492e-02) (24, -2.49546319246292114258e-02) (25, 3.88432070612907409668e-02) (26, 4.15165498852729797363e-02) (27, -4.21260669827461242676e-02) (28, 1.54424533247947692871e-02) (29, 4.17084917426109313965e-02) (30, -9.29961726069450378418e-02) (31, -3.28640788793563842773e-02) (32, 8.20971801877021789551e-02) (33, -6.29713833332061767578e-02) (34, -8.40615704655647277832e-02) (35, -3.32915931940078735352e-02) (36, -2.31039822101593017578e-02) (37, 3.71395424008369445801e-02) (38, -7.02243447303771972656e-02) (39, 9.88090261816978454590e-02) (40, -5.12758456170558929443e-02) (41, -1.38629227876663208008e-02) (42, 7.82117918133735656738e-02) (43, 6.57518431544303894043e-02) (44, 9.58750918507575988770e-02) (45, -3.39646637439727783203e-02) (46, -9.82099324464797973633e-02) (47, -1.31431967020034790039e-02) (48, -1.72020569443702697754e-02) (49, -5.82821853458881378174e-02) (50, 6.10768422484397888184e-02) (51, -7.36711397767066955566e-02) (52, -7.18291848897933959961e-03) (53, -5.47926984727382659912e-02) (54, -6.93005174398422241211e-02) (55, 6.78624585270881652832e-02) (56, 8.40504989027976989746e-02) (57, 7.22160413861274719238e-02) (58, -7.42636173963546752930e-02) (59, -5.07041811943054199219e-04) (60, 1.39245241880416870117e-02) (61, -6.72597885131835937500e-02) (62, 6.66288807988166809082e-02) (63, -3.97830456495285034180e-03) (64, -3.02311629056930541992e-02) (14, 8.25673118233680725098e-02) (15, 6.27300962805747985840e-02) (16, 4.66648563742637634277e-02) (17, 1.97068452835083007812e-02) (18, 9.25057604908943176270e-02) (19, 4.54738810658454895020e-02) (20, 6.84310123324394226074e-02) (21, -2.13571637868881225586e-02) (22, 2.36856713891029357910e-02) (23, 3.41828539967536926270e-02) (24, -2.54820883274078369141e-02) (25, 8.97210165858268737793e-02) (26, 3.59729155898094177246e-02) (27, 6.13747164607048034668e-02) (28, -2.74810492992401123047e-02) (29, 7.76907280087471008301e-02) (30, 2.24515572190284729004e-02) (31, -1.15218758583068847656e-03) (32, -2.94921919703483581543e-02) (33, 6.76588490605354309082e-02) (34, 2.95472815632820129395e-02) (35, -6.16297461092472076416e-02) (36, 5.17093613743782043457e-02) (37, 1.76332890987396240234e-03) (38, -3.58933657407760620117e-02) (39, -4.87976856529712677002e-02) (40, -8.43121483922004699707e-02) (41, -3.15314531326293945312e-03) (42, -8.21688100695610046387e-02) (43, 1.17095485329627990723e-02) (44, 6.66156932711601257324e-02) (45, -9.96014997363090515137e-02) (46, -2.55603566765785217285e-02) (47, 1.32805332541465759277e-02) (48, 2.01053470373153686523e-02) (49, -3.30546051263809204102e-02) (50, -4.12455797195434570312e-02) (51, -1.14636495709419250488e-02) (52, 4.55882325768470764160e-02) (53, 8.24401006102561950684e-02) (54, -7.72808045148849487305e-02) (55, -7.98938572406768798828e-02) (56, 7.21611008048057556152e-02) (57, 5.86921051144599914551e-02) (58, 8.14808681607246398926e-02) (59, -5.53199388086795806885e-02) (60, 3.63828465342521667480e-02) (61, 3.93241643905639648438e-03) (62, 4.35278788208961486816e-02) (63, -9.31093543767929077148e-02) (64, -2.84087210893630981445e-02) (14, -2.69248336553573608398e-02) (15, -5.47390989959239959717e-02) (16, -7.66993612051010131836e-02) (17, 7.48384967446327209473e-02) (18, 9.36754047870635986328e-03) (19, -2.54970490932464599609e-02) (20, 9.05263498425483703613e-02) (21, -9.37856063246726989746e-02) (22, -7.66585767269134521484e-03) (23, 2.23588943481445312500e-03) (24, 7.28300884366035461426e-02) (25, -7.26735591888427734375e-03) (26, 7.66755416989326477051e-02) (27, -1.38893797993659973145e-02) (28, -8.71620103716850280762e-02) (29, -5.63790686428546905518e-02) (30, 4.48650494217872619629e-02) (31, 1.37434154748916625977e-03) (32, 8.92091616988182067871e-02) (33, 2.73051336407661437988e-02) (34, 2.40935310721397399902e-02) (35, -9.06846895813941955566e-02) (36, -5.33752143383026123047e-04) (37, -1.72143504023551940918e-02) (38, 9.07961800694465637207e-02) (39, 4.41463068127632141113e-02) (40, -8.08315128087997436523e-02) (41, -5.27141243219375610352e-03) (42, -1.23258158564567565918e-02) (43, -7.39408731460571289062e-02) (44, 6.63198754191398620605e-02) (45, 6.07493445277214050293e-02) (46, -2.86799743771553039551e-02) (47, 8.96205082535743713379e-02) (48, 3.55878397822380065918e-02) (49, 8.06875750422477722168e-02) (50, -3.58765423297882080078e-02) (51, 2.61141732335090637207e-02) (52, 8.69019702076911926270e-02) (53, 5.64576014876365661621e-02) (54, -7.16499388217926025391e-02) (55, 5.97320422530174255371e-02) (56, -5.08097559213638305664e-02) (57, -9.49744135141372680664e-02) (58, -5.41573427617549896240e-02) (59, -3.79717648029327392578e-02) (60, -5.13534769415855407715e-02) (61, 9.07077118754386901855e-02) (62, 6.34025707840919494629e-02) (63, -6.21443130075931549072e-02) (64, 1.80128440260887145996e-02) (14, -1.25038847327232360840e-02) (15, -5.28289973735809326172e-02) (16, -8.25209096074104309082e-02) (17, 7.02817514538764953613e-02) (18, -6.20328262448310852051e-02) (19, 6.16253986954689025879e-02) (20, 8.94502475857734680176e-02) (21, 3.26957777142524719238e-02) (22, -5.07004223763942718506e-02) (23, -8.44906270503997802734e-02) (24, -9.84363257884979248047e-04) (25, -8.99510830640792846680e-02) (26, -1.31705999374389648438e-02) (27, -1.13638639450073242188e-02) (28, 4.56367656588554382324e-02) (29, -3.24830263853073120117e-02) (30, 5.27595952153205871582e-02) (31, -2.82490700483322143555e-02) (32, -4.55810725688934326172e-02) (33, 9.21718776226043701172e-03) (34, 1.00992619991302490234e-04) (35, -8.58490318059921264648e-02) (36, 5.84074333310127258301e-02) (37, 5.12658059597015380859e-03) (38, -4.00063693523406982422e-02) (39, -7.95643255114555358887e-02) (40, 5.37731125950813293457e-02) (41, -4.92986701428890228271e-02) (42, 8.38382467627525329590e-02) (43, 9.16287973523139953613e-02) (44, 6.87141790986061096191e-02) (45, -2.86656394600868225098e-02) (46, -6.12002089619636535645e-02) (47, 8.61932709813117980957e-02) (48, -5.83838820457458496094e-02) (49, -2.32330337166786193848e-02) (50, 4.78186681866645812988e-02) (51, -6.89336359500885009766e-02) (52, -9.05372649431228637695e-02) (53, 9.71182361245155334473e-02) (54, -5.34242689609527587891e-02) (55, 8.47836583852767944336e-03) (56, -9.28328409790992736816e-02) (57, 3.34051325917243957520e-02) (58, 9.71145108342170715332e-02) (59, 5.28039112687110900879e-02) (60, -9.90778952836990356445e-02) (61, 4.98740896582603454590e-02) (62, -7.54451528191566467285e-02) (63, -4.46589663624763488770e-02) (64, -4.09087054431438446045e-02) (14, 2.46558338403701782227e-02) (15, -3.05079966783523559570e-02) (16, -8.25012698769569396973e-02) (17, -7.02175870537757873535e-02) (18, 2.94856354594230651855e-02) (19, -6.20655938982963562012e-02) (20, 8.35555270314216613770e-02) (21, 8.01869705319404602051e-02) (22, -7.82273411750793457031e-02) (23, 7.51843079924583435059e-02) (24, 4.89011481404304504395e-02) (25, -6.89297914505004882812e-03) (26, -8.60158950090408325195e-02) (27, 3.50944027304649353027e-02) (28, 3.47231402993202209473e-02) (29, -9.24892723560333251953e-03) (30, -1.70869380235671997070e-02) (31, 6.57894983887672424316e-02) (32, 2.13801860809326171875e-04) (33, -1.99687033891677856445e-02) (34, -8.76347720623016357422e-02) (35, -9.13078263401985168457e-02) (36, -1.28015428781509399414e-02) (37, 4.57703545689582824707e-02) (38, -9.41933244466781616211e-02) (39, -5.99976293742656707764e-02) (40, 4.66924682259559631348e-02) (41, 5.56807741522789001465e-02) (42, -3.54427844285964965820e-02) (43, -9.79664996266365051270e-02) (44, -8.52279365062713623047e-02) (45, 8.92130509018898010254e-02) (46, -2.84744948148727416992e-02) (47, -6.77292048931121826172e-02) (48, -8.10045301914215087891e-02) (49, -9.89888682961463928223e-02) (50, -2.97947973012924194336e-02) (51, -9.74490121006965637207e-02) (52, 8.11981037259101867676e-02) (53, -8.02214443683624267578e-03) (54, 7.77353122830390930176e-02) (55, 3.00992354750633239746e-02) (56, 8.50848779082298278809e-02) (57, 9.17193964123725891113e-02) (58, -3.48063707351684570312e-02) (59, 1.98080167174339294434e-02) (60, -1.75295248627662658691e-02) (61, 4.81066927313804626465e-02) (62, -1.44024938344955444336e-02) (63, 8.26842859387397766113e-02) (64, -7.18620121479034423828e-02) (14, -2.03726440668106079102e-03) (15, 9.13764610886573791504e-02) (16, 1.53364390134811401367e-02) (17, -5.62669001519680023193e-02) (18, 9.71831306815147399902e-02) (19, 5.53388074040412902832e-02) (20, 9.04255583882331848145e-02) (21, 5.28639033436775207520e-02) (22, -8.01039636135101318359e-02) (23, 9.24590751528739929199e-02) (24, 6.76359608769416809082e-02) (25, -9.08909142017364501953e-02) (26, -3.60154360532760620117e-02) (27, 9.99067649245262145996e-02) (28, -7.18954429030418395996e-02) (29, -3.50043028593063354492e-02) (30, -2.98880338668823242188e-02) (31, -6.93444609642028808594e-02) (32, -5.38062080740928649902e-02) (33, 6.20898231863975524902e-02) (34, -9.16091576218605041504e-02) (35, 7.62930288910865783691e-02) (36, 4.71746996045112609863e-02) (37, -9.98897552490234375000e-02) (38, -5.85133433341979980469e-02) (39, -3.30172926187515258789e-02) (40, -1.74192711710929870605e-02) (41, 8.95933434367179870605e-02) (42, 5.25802299380302429199e-02) (43, -3.47349867224693298340e-02) (44, -8.22686702013015747070e-02) (45, -4.94570396840572357178e-02) (46, -4.33585345745086669922e-02) (47, 3.30677703022956848145e-02) (48, -5.72393834590911865234e-03) (49, -4.61754016578197479248e-02) (50, -1.15934088826179504395e-02) (51, -1.52983665466308593750e-02) (52, -9.33114960789680480957e-02) (53, 8.30262899398803710938e-03) (54, -2.28393003344535827637e-02) (55, 7.43244811892509460449e-02) (56, 1.74117237329483032227e-02) (57, 4.11452725529670715332e-02) (58, 7.42312297224998474121e-02) (59, 4.55162748694419860840e-02) (60, -9.38590392470359802246e-02) (61, -5.56568019092082977295e-02) (62, 7.61718228459358215332e-02) (63, -4.76652458310127258301e-02) (64, -9.35669839382171630859e-02) 
