FANN_FLO_2.1
num_layers=3
learning_rate=0.700000
connection_rate=1.000000
network_type=0
learning_momentum=0.600000
training_algorithm=0
train_error_function=1
train_stop_function=0
cascade_output_change_fraction=0.010000
quickprop_decay=-0.000100
quickprop_mu=1.750000
rprop_increase_factor=1.200000
rprop_decrease_factor=0.500000
rprop_delta_min=0.000000
rprop_delta_max=50.000000
rprop_delta_zero=0.100000
cascade_output_stagnation_epochs=12
cascade_candidate_change_fraction=0.010000
cascade_candidate_stagnation_epochs=12
cascade_max_out_epochs=150
cascade_min_out_epochs=50
cascade_max_cand_epochs=150
cascade_min_cand_epochs=50
cascade_num_candidate_groups=2
bit_fail_limit=3.49999994039535522461e-01
cascade_candidate_limit=1.00000000000000000000e+03
cascade_weight_multiplier=4.00000005960464477539e-01
cascade_activation_functions_count=10
cascade_activation_functions=3 5 7 8 10 11 14 15 16 17 
cascade_activation_steepnesses_count=4
cascade_activation_steepnesses=2.50000000000000000000e-01 5.00000000000000000000e-01 7.50000000000000000000e-01 1.00000000000000000000e+00 
layer_sizes=7 91 7 
scale_included=0
neurons (num_inputs, activation_function, activation_steepness)=(0, 0, 0.00000000000000000000e+00) (0, 0, 0.00000000000000000000e+00) (0, 0, 0.00000000000000000000e+00) (0, 0, 0.00000000000000000000e+00) (0, 0, 0.00000000000000000000e+00) (0, 0, 0.00000000000000000000e+00) (0, 0, 0.00000000000000000000e+00) (7, 5, 5.00000000000000000000e-01) (7, 5, 5.00000000000000000000e-01) (7, 5, 5.00000000000000000000e-01) (7, 5, 5.00000000000000000000e-01) (7, 5, 5.00000000000000000000e-01) (7, 5, 5.00000000000000000000e-01) (7, 5, 5.00000000000000000000e-01) (7, 5, 5.00000000000000000000e-01) (7, 5, 5.00000000000000000000e-01) (7, 5, 5.00000000000000000000e-01) (7, 5, 5.00000000000000000000e-01) (7, 5, 5.00000000000000000000e-01) (7, 5, 5.00000000000000000000e-01) (7, 5, 5.00000000000000000000e-01) (7, 5, 5.00000000000000000000e-01) (7, 5, 5.00000000000000000000e-01) (7, 5, 5.00000000000000000000e-01) (7, 5, 5.00000000000000000000e-01) (7, 5, 5.00000000000000000000e-01) (7, 5, 5.00000000000000000000e-01) (7, 5, 5.00000000000000000000e-01) (7, 5, 5.00000000000000000000e-01) (7, 5, 5.00000000000000000000e-01) (7, 5, 5.00000000000000000000e-01) (7, 5, 5.00000000000000000000e-01) (7, 5, 5.00000000000000000000e-01) (7, 5, 5.00000000000000000000e-01) (7, 5, 5.00000000000000000000e-01) (7, 5, 5.00000000000000000000e-01) (7, 5, 5.00000000000000000000e-01) (7, 5, 5.00000000000000000000e-01) (7, 5, 5.00000000000000000000e-01) (7, 5, 5.00000000000000000000e-01) (7, 5, 5.00000000000000000000e-01) (7, 5, 5.00000000000000000000e-01) (7, 5, 5.00000000000000000000e-01) (7, 5, 5.00000000000000000000e-01) (7, 5, 5.00000000000000000000e-01) (7, 5, 5.00000000000000000000e-01) (7, 5, 5.00000000000000000000e-01) (7, 5, 5.00000000000000000000e-01) (7, 5, 5.00000000000000000000e-01) (7, 5, 5.00000000000000000000e-01) (7, 5, 5.00000000000000000000e-01) (7, 5, 5.00000000000000000000e-01) (7, 5, 5.00000000000000000000e-01) (7, 5, 5.00000000000000000000e-01) (7, 5, 5.00000000000000000000e-01) (7, 5, 5.00000000000000000000e-01) (7, 5, 5.00000000000000000000e-01) (7, 5, 5.00000000000000000000e-01) (7, 5, 5.00000000000000000000e-01) (7, 5, 5.00000000000000000000e-01) (7, 5, 5.00000000000000000000e-01) (7, 5, 5.00000000000000000000e-01) (7, 5, 5.00000000000000000000e-01) (7, 5, 5.00000000000000000000e-01) (7, 5, 5.00000000000000000000e-01) (7, 5, 5.00000000000000000000e-01) (7, 5, 5.00000000000000000000e-01) (7, 5, 5.00000000000000000000e-01) (7, 5, 5.00000000000000000000e-01) (7, 5, 5.00000000000000000000e-01) (7, 5, 5.00000000000000000000e-01) (7, 5, 5.00000000000000000000e-01) (7, 5, 5.00000000000000000000e-01) (7, 5, 5.00000000000000000000e-01) (7, 5, 5.00000000000000000000e-01) (7, 5, 5.00000000000000000000e-01) (7, 5, 5.00000000000000000000e-01) (7, 5, 5.00000000000000000000e-01) (7, 5, 5.00000000000000000000e-01) (7, 5, 5.00000000000000000000e-01) (7, 5, 5.00000000000000000000e-01) (7, 5, 5.00000000000000000000e-01) (7, 5, 5.00000000000000000000e-01) (7, 5, 5.00000000000000000000e-01) (7, 5, 5.00000000000000000000e-01) (7, 5, 5.00000000000000000000e-01) (7, 5, 5.00000000000000000000e-01) (7, 5, 5.00000000000000000000e-01) (7, 5, 5.00000000000000000000e-01) (7, 5, 5.00000000000000000000e-01) (7, 5, 5.00000000000000000000e-01) (7, 5, 5.00000000000000000000e-01) (7, 5, 5.00000000000000000000e-01) (7, 5, 5.00000000000000000000e-01) (7, 5, 5.00000000000000000000e-01) (7, 5, 5.00000000000000000000e-01) (7, 5, 5.00000000000000000000e-01) (0, 5, 0.00000000000000000000e+00) (91, 5, 5.00000000000000000000e-01) (91, 5, 5.00000000000000000000e-01) (91, 5, 5.00000000000000000000e-01) (91, 5, 5.00000000000000000000e-01) (91, 5, 5.00000000000000000000e-01) (91, 5, 5.00000000000000000000e-01) (0, 5, 0.00000000000000000000e+00) 
connections (connected_to_neuron, weight)=(0, 5.54099753499031066895e-02) (1, 6.17776066064834594727e-03) (2, 2.68476679921150207520e-02) (3, 8.23755636811256408691e-02) (4, -3.41819971799850463867e-02) (5, -7.62671753764152526855e-02) (6, 1.46749466657638549805e-02) (0, 2.59408280253410339355e-02) (1, 2.01623886823654174805e-02) (2, -5.58205693960189819336e-02) (3, 9.09978970885276794434e-02) (4, 8.03041458129882812500e-03) (5, -1.03931576013565063477e-02) (6, -3.18308249115943908691e-02) (0, -1.63751393556594848633e-02) (1, -1.60390585660934448242e-02) (2, -6.71454370021820068359e-02) (3, 4.03903946280479431152e-02) (4, 1.83418542146682739258e-02) (5, 7.83771201968193054199e-02) (6, 4.57544401288032531738e-02) (0, 8.46794322133064270020e-02) (1, -1.85268521308898925781e-02) (2, -8.18351581692695617676e-02) (3, 6.53606131672859191895e-02) (4, 7.39736929535865783691e-02) (5, -1.82384401559829711914e-02) (6, -6.90622925758361816406e-02) (0, 8.49588587880134582520e-02) (1, -7.48377442359924316406e-02) (2, -2.35518962144851684570e-02) (3, 4.03688326478004455566e-02) (4, 3.13400104641914367676e-02) (5, -9.67042446136474609375e-02) (6, 2.27443948388099670410e-02) (0, 9.71580222249031066895e-02) (1, -7.29714184999465942383e-02) (2, -6.25806599855422973633e-02) (3, 2.30988413095474243164e-02) (4, 4.71909716725349426270e-02) (5, -1.84012204408645629883e-02) (6, 1.40967220067977905273e-02) (0, -4.47786040604114532471e-02) (1, 7.12056234478950500488e-02) (2, 8.22659060359001159668e-02) (3, 3.88462617993354797363e-02) (4, -4.48334515094757080078e-02) (5, -8.48795324563980102539e-02) (6, -2.07633525133132934570e-02) (0, 7.35083892941474914551e-02) (1, 9.34975817799568176270e-02) (2, -7.50088989734649658203e-02) (3, 5.81878200173377990723e-02) (4, -2.50292643904685974121e-02) (5, -5.68440556526184082031e-02) (6, 2.35484242439270019531e-02) (0, -5.10555729269981384277e-02) (1, 2.49175056815147399902e-02) (2, 5.44861331582069396973e-02) (3, -6.60967081785202026367e-02) (4, 5.00797703862190246582e-02) (5, -6.90657645463943481445e-02) (6, 7.42721185088157653809e-02) (0, -1.85802206397056579590e-02) (1, -6.57700151205062866211e-02) (2, -2.98348069190979003906e-03) (3, -2.14222148060798645020e-02) (4, -3.87414284050464630127e-02) (5, 3.44358757138252258301e-02) (6, -9.83233824372291564941e-02) (0, -9.15504544973373413086e-02) (1, -8.39653536677360534668e-02) (2, 1.57733410596847534180e-02) (3, -3.63290607929229736328e-02) (4, 8.72402563691139221191e-02) (5, -1.96074694395065307617e-03) (6, -9.74828079342842102051e-02) (0, -5.75931891798973083496e-02) (1, 1.31597146391868591309e-02) (2, -1.82461515069007873535e-02) (3, -8.40847939252853393555e-02) (4, 6.65730237960815429688e-03) (5, 6.74494355916976928711e-03) (6, 7.41030350327491760254e-02) (0, 8.16280320286750793457e-02) (1, 4.99008968472480773926e-02) (2, -2.34854221343994140625e-03) (3, -6.94275349378585815430e-02) (4, -2.51816064119338989258e-02) (5, -4.78624068200588226318e-02) (6, -3.55242416262626647949e-02) (0, -7.51018375158309936523e-02) (1, -1.69281736016273498535e-02) (2, -6.12521208822727203369e-02) (3, 6.31793588399887084961e-03) (4, 1.73018127679824829102e-02) (5, 3.57644036412239074707e-02) (6, 8.48957225680351257324e-02) (0, 7.85603895783424377441e-02) (1, -2.97997295856475830078e-02) (2, 8.65723416209220886230e-02) (3, 8.70099291205406188965e-02) (4, -1.37650817632675170898e-02) (5, 2.34569609165191650391e-03) (6, -4.93191294372081756592e-02) (0, -2.65248268842697143555e-02) (1, -9.96150597929954528809e-02) (2, -4.68019358813762664795e-02) (3, 1.58819928765296936035e-02) (4, 1.35446563363075256348e-02) (5, 3.49519178271293640137e-02) (6, 3.17971929907798767090e-02) (0, -7.97980427742004394531e-02) (1, -5.83031438291072845459e-02) (2, 5.90022653341293334961e-03) (3, -9.81700122356414794922e-02) (4, 9.15977433323860168457e-02) (5, -9.64483171701431274414e-02) (6, -6.75975531339645385742e-02) (0, -3.35838571190834045410e-02) (1, -4.43107187747955322266e-02) (2, -3.12179327011108398438e-03) (3, -8.68569314479827880859e-03) (4, 3.87611016631126403809e-02) (5, 3.56260910630226135254e-02) (6, 9.76322367787361145020e-02) (0, -4.39370758831501007080e-02) (1, -2.86095142364501953125e-02) (2, 8.25279727578163146973e-02) (3, -6.53766989707946777344e-02) (4, 4.15907576680183410645e-02) (5, 6.91003128886222839355e-02) (6, -7.83667713403701782227e-02) (0, -7.21743255853652954102e-02) (1, -2.85540074110031127930e-02) (2, -2.76858955621719360352e-02) (3, 1.30084902048110961914e-03) (4, -2.81690657138824462891e-02) (5, 2.55121663212776184082e-02) (6, -8.28171595931053161621e-02) (0, 8.53755995631217956543e-02) (1, -3.95359285175800323486e-02) (2, 4.89800348877906799316e-02) (3, -9.44224521517753601074e-02) (4, 2.16092914342880249023e-03) (5, -4.51197400689125061035e-02) (6, -9.25924628973007202148e-02) (0, -6.24132156372070312500e-03) (1, -4.15680520236492156982e-02) (2, -6.01900145411491394043e-02) (3, 6.01748302578926086426e-02) (4, 1.41212344169616699219e-02) (5, 3.66882011294364929199e-02) (6, -4.85108681023120880127e-02) (0, -4.71176616847515106201e-02) (1, -2.76857167482376098633e-02) (2, -5.08786253631114959717e-02) (3, 8.94526392221450805664e-03) (4, 4.37047705054283142090e-02) (5, -6.83506578207015991211e-02) (6, 4.35685589909553527832e-02) (0, -1.47044733166694641113e-02) (1, -9.92503538727760314941e-02) (2, 6.52018114924430847168e-02) (3, 1.31212025880813598633e-02) (4, -2.78043523430824279785e-02) (5, -6.24840967357158660889e-02) (6, -8.55779498815536499023e-02) (0, 4.40265759825706481934e-02) (1, 6.30280598998069763184e-02) (2, -6.83951079845428466797e-02) (3, 2.94021740555763244629e-02) (4, -7.65078589320182800293e-02) (5, 8.05849358439445495605e-02) (6, 3.49797233939170837402e-02) (0, 2.56530717015266418457e-02) (1, -6.45348131656646728516e-02) (2, 4.23872545361518859863e-02) (3, -8.05882513523101806641e-02) (4, -6.10285997390747070312e-03) (5, 8.21972563862800598145e-02) (6, 7.95865729451179504395e-02) (0, -9.19816344976425170898e-02) (1, 1.88854336738586425781e-02) (2, -6.89242929220199584961e-02) (3, -3.90992872416973114014e-02) (4, 9.11997184157371520996e-02) (5, -1.98029130697250366211e-02) (6, 6.98459818959236145020e-02) (0, 3.49044874310493469238e-02) (1, 1.18464380502700805664e-02) (2, 1.34145393967628479004e-02) (3, -7.97999799251556396484e-02) (4, 1.25960856676101684570e-02) (5, -2.13836580514907836914e-02) (6, 3.33212092518806457520e-02) (0, 8.47917273640632629395e-02) (1, 1.61322504281997680664e-02) (2, 4.77432683110237121582e-02) (3, 2.88183167576789855957e-02) (4, -2.08396837115287780762e-02) (5, 7.93481692671775817871e-02) (6, -4.17795181274414062500e-02) (0, 2.65245139598846435547e-03) (1, 5.99330887198448181152e-02) (2, 9.32002142071723937988e-02) (3, -7.16944783926010131836e-02) (4, 9.53982844948768615723e-02) (5, 3.55874523520469665527e-02) (6, -5.22827282547950744629e-02) (0, -1.07045769691467285156e-02) (1, 1.77846997976303100586e-02) (2, -7.26961493492126464844e-02) (3, -2.68620252609252929688e-03) (4, -6.33298605680465698242e-02) (5, -4.16204407811164855957e-02) (6, 5.82145079970359802246e-02) (0, -7.21301436424255371094e-02) (1, 3.85766550898551940918e-02) (2, 2.80604884028434753418e-02) (3, 6.27743527293205261230e-02) (4, -4.95769195258617401123e-02) (5, -5.85249774158000946045e-02) (6, 8.29743668437004089355e-02) (0, 6.30191639065742492676e-02) (1, 2.00913697481155395508e-02) (2, 1.62955746054649353027e-02) (3, 4.78108897805213928223e-02) (4, -6.37763887643814086914e-02) (5, -3.59611436724662780762e-02) (6, -2.33707949519157409668e-02) (0, 1.53839215636253356934e-02) (1, -5.66129796206951141357e-02) (2, 3.48496958613395690918e-02) (3, -8.19636210799217224121e-02) (4, -9.66798886656761169434e-02) (5, 2.80498936772346496582e-02) (6, -5.36580942571163177490e-02) (0, 9.87184122204780578613e-02) (1, -3.63626480102539062500e-02) (2, -5.94081729650497436523e-03) (3, -1.19861811399459838867e-02) (4, 8.14220532774925231934e-02) (5, 2.13630348443984985352e-02) (6, 8.53276178240776062012e-02) (0, -8.19078087806701660156e-02) (1, 7.97425881028175354004e-02) (2, 4.35421243309974670410e-02) (3, -5.40379546582698822021e-02) (4, 1.83192342519760131836e-02) (5, -2.83973962068557739258e-02) (6, -9.12636071443557739258e-02) (0, 6.87423273921012878418e-02) (1, 1.30776315927505493164e-02) (2, 9.17107537388801574707e-02) (3, 3.17614749073982238770e-02) (4, -6.68310075998306274414e-02) (5, 8.00633430480957031250e-03) (6, -2.04276293516159057617e-02) (0, -3.06074023246765136719e-02) (1, 7.20451995730400085449e-02) (2, 5.62015846371650695801e-02) (3, 8.47765281796455383301e-02) (4, -8.45677852630615234375e-02) (5, -8.94872844219207763672e-03) (6, -9.71870943903923034668e-02) (0, -8.12476724386215209961e-02) (1, -8.08988437056541442871e-02) (2, -5.08451871573925018311e-02) (3, -8.25292766094207763672e-02) (4, -1.72614902257919311523e-02) (5, 4.32139858603477478027e-02) (6, 5.48455864191055297852e-03) (0, -3.58394458889961242676e-02) (1, -3.54229733347892761230e-02) (2, -9.18783247470855712891e-03) (3, -1.77472531795501708984e-02) (4, -5.56803867220878601074e-02) (5, -6.56457096338272094727e-02) (6, 2.82148048281669616699e-02) (0, 6.26388564705848693848e-02) (1, 5.95690310001373291016e-03) (2, 3.69511917233467102051e-02) (3, 3.13811823725700378418e-02) (4, -8.09654816985130310059e-02) (5, 2.86619439721107482910e-02) (6, -3.68573442101478576660e-02) (0, -4.77964952588081359863e-02) (1, -6.33317232131958007812e-02) (2, 4.27150353789329528809e-02) (3, 2.15961113572120666504e-02) (4, -9.12865251302719116211e-02) (5, -1.08338892459869384766e-03) (6, 6.37263059616088867188e-03) (0, -7.58543163537979125977e-02) (1, 8.99678841233253479004e-02) (2, 9.18553769588470458984e-03) (3, -5.71019873023033142090e-02) (4, -9.09309685230255126953e-02) (5, 5.83403632044792175293e-02) (6, -3.96312586963176727295e-02) (0, -8.19246470928192138672e-03) (1, 1.55434757471084594727e-03) (2, 6.58533051609992980957e-02) (3, 5.59680983424186706543e-02) (4, 6.61313757300376892090e-02) (5, -4.33345399796962738037e-02) (6, -6.17791526019573211670e-02) (0, -8.95490124821662902832e-02) (1, -8.98024439811706542969e-03) (2, 6.64356425404548645020e-02) (3, 7.30898454785346984863e-02) (4, 9.69766452908515930176e-02) (5, 3.38683277368545532227e-03) (6, 4.47101891040802001953e-03) (0, -8.39888304471969604492e-02) (1, -6.79512247443199157715e-02) (2, 6.76136687397956848145e-02) (3, -3.17853167653083801270e-02) (4, -3.12829464673995971680e-02) (5, 1.03287100791931152344e-02) (6, 8.98107960820198059082e-02) (0, -2.25694701075553894043e-02) (1, -9.07546803355216979980e-02) (2, -3.81656736135482788086e-03) (3, 1.57620757818222045898e-03) (4, 9.92131903767585754395e-02) (5, -9.46310311555862426758e-02) (6, 4.44742366671562194824e-02) (0, -9.17177647352218627930e-02) (1, 6.37093260884284973145e-02) (2, -9.51570346951484680176e-02) (3, 8.97794961929321289062e-05) (4, -3.47363203763961791992e-02) (5, 7.06962570548057556152e-02) (6, -4.39421236515045166016e-02) (0, -6.86049461364746093750e-02) (1, -7.26382732391357421875e-02) (2, -5.72128593921661376953e-03) (3, -5.81539571285247802734e-02) (4, 1.83814913034439086914e-02) (5, -3.92856374382972717285e-02) (6, -8.50641131401062011719e-02) (0, 1.53581351041793823242e-02) (1, 6.41011968255043029785e-02) (2, 1.94068998098373413086e-02) (3, 3.13693210482597351074e-02) (4, 9.61499735713005065918e-02) (5, -1.29794180393218994141e-02) (6, 9.95839908719062805176e-02) (0, -3.51329743862152099609e-02) (1, 9.73492935299873352051e-02) (2, 8.93947854638099670410e-02) (3, 4.22975495457649230957e-02) (4, -9.34053808450698852539e-02) (5, -1.44217833876609802246e-02) (6, -5.61262331902980804443e-02) (0, -9.41921845078468322754e-02) (1, -9.05281305313110351562e-03) (2, 8.83479937911033630371e-02) (3, -8.59099477529525756836e-02) (4, -4.53434847295284271240e-02) (5, 9.31909754872322082520e-02) (6, 1.41798257827758789062e-02) (0, 1.99201926589012145996e-02) (1, 6.38872310519218444824e-02) (2, 7.02377036213874816895e-02) (3, 5.13152554631233215332e-02) (4, 9.12489518523216247559e-02) (5, -3.54835838079452514648e-02) (6, 9.31612923741340637207e-02) (0, 9.63044166564941406250e-03) (1, 2.52307727932929992676e-02) (2, -9.19028222560882568359e-02) (3, -7.50114172697067260742e-02) (4, -1.06680244207382202148e-02) (5, 2.75040939450263977051e-02) (6, 5.63578978180885314941e-02) (0, -1.45180523395538330078e-02) (1, -8.54753330349922180176e-02) (2, 5.59418871998786926270e-02) (3, 5.03489747643470764160e-02) (4, -8.81260335445404052734e-02) (5, 4.53366711735725402832e-02) (6, -7.35346972942352294922e-03) (0, -8.15314128994941711426e-02) (1, -6.90851062536239624023e-02) (2, 3.65202948451042175293e-02) (3, -7.57235959172248840332e-02) (4, 2.18620896339416503906e-02) (5, 2.48682945966720581055e-02) (6, -6.16335421800613403320e-02) (0, 7.65186026692390441895e-02) (1, 1.80592685937881469727e-02) (2, 5.25462850928306579590e-02) (3, -3.56119871139526367188e-03) (4, -1.80535092949867248535e-02) (5, 2.27839797735214233398e-02) (6, -5.22459447383880615234e-02) (0, -2.68045514822006225586e-02) (1, 8.73004123568534851074e-02) (2, -5.90846501290798187256e-02) (3, 8.28259065747261047363e-02) (4, 1.25311836600303649902e-02) (5, -5.09874708950519561768e-02) (6, -9.21855270862579345703e-02) (0, -9.81368348002433776855e-02) (1, 7.65166208148002624512e-02) (2, 6.41723796725273132324e-02) (3, -1.26548856496810913086e-02) (4, 9.10412743687629699707e-02) (5, 2.01142653822898864746e-02) (6, -6.23059198260307312012e-02) (0, -9.70847532153129577637e-02) (1, -3.45490574836730957031e-02) (2, 3.03406193852424621582e-02) (3, -7.86161646246910095215e-02) (4, -3.63416224718093872070e-03) (5, -3.31390947103500366211e-02) (6, -5.43397627770900726318e-02) (0, -8.17720741033554077148e-02) (1, 9.17292013764381408691e-02) (2, -1.59732997417449951172e-02) (3, 9.47465375065803527832e-02) (4, 9.78846848011016845703e-03) (5, -6.34270161390304565430e-02) (6, -8.81467014551162719727e-03) (0, 9.17349532246589660645e-02) (1, 5.93569651246070861816e-02) (2, 3.89393791556358337402e-02) (3, -3.50695922970771789551e-02) (4, 4.66573759913444519043e-02) (5, 7.98547342419624328613e-02) (6, -5.22436983883380889893e-02) (0, -4.08114381134510040283e-02) (1, -7.11327344179153442383e-02) (2, -4.44292202591896057129e-02) (3, -3.89482676982879638672e-02) (4, -9.46161225438117980957e-02) (5, -8.02568495273590087891e-02) (6, 4.83968332409858703613e-02) (0, 9.64251682162284851074e-02) (1, 3.98574098944664001465e-02) (2, 8.60909298062324523926e-02) (3, 9.93404164910316467285e-02) (4, -9.46916416287422180176e-02) (5, 1.64315328001976013184e-02) (6, -7.92757496237754821777e-02) (0, 1.67419761419296264648e-03) (1, 8.32924321293830871582e-02) (2, -3.36155146360397338867e-02) (3, 1.99021250009536743164e-02) (4, 7.50216320157051086426e-02) (5, 5.04111871123313903809e-02) (6, 1.46486535668373107910e-02) (0, -1.51899009943008422852e-02) (1, 8.69841650128364562988e-02) (2, -9.41660255193710327148e-02) (3, -2.34549492597579956055e-02) (4, 4.63411286473274230957e-02) (5, 4.47733625769615173340e-02) (6, 4.14754673838615417480e-02) (0, -7.00148940086364746094e-03) (1, 2.46280878782272338867e-02) (2, 8.92317667603492736816e-02) (3, 5.21870777010917663574e-02) (4, 5.34953549504280090332e-02) (5, -5.51974587142467498779e-02) (6, -8.67611989378929138184e-02) (0, 5.88792338967323303223e-02) (1, -3.54543030261993408203e-02) (2, 6.16356506943702697754e-02) (3, 5.53044006228446960449e-02) (4, -9.55968871712684631348e-02) (5, 4.77265790104866027832e-02) (6, 5.46448156237602233887e-02) (0, -9.02885273098945617676e-02) (1, -3.58418971300125122070e-02) (2, 7.53690674901008605957e-02) (3, 1.13856643438339233398e-02) (4, -5.25494627654552459717e-02) (5, -5.82464560866355895996e-02) (6, -6.87122046947479248047e-02) (0, -7.75278210639953613281e-02) (1, 9.21647325158119201660e-02) (2, 4.59364429116249084473e-02) (3, 7.28227943181991577148e-03) (4, 7.91488960385322570801e-02) (5, 5.17704114317893981934e-02) (6, 8.38273242115974426270e-02) (0, 2.54900380969047546387e-02) (1, -3.45622003078460693359e-03) (2, 2.53027901053428649902e-02) (3, -8.15114527940750122070e-02) (4, -7.88281336426734924316e-02) (5, 1.45345553755760192871e-02) (6, 7.06756189465522766113e-02) (0, 7.46672227978706359863e-02) (1, 5.93370869755744934082e-02) (2, 8.39144214987754821777e-02) (3, 3.35464552044868469238e-02) (4, -7.61172100901603698730e-02) (5, 4.55500707030296325684e-02) (6, -1.11491531133651733398e-02) (0, -7.17140957713127136230e-02) (1, -6.72335922718048095703e-03) (2, -5.65043427050113677979e-02) (3, -6.20026215910911560059e-02) (4, 5.74347451329231262207e-02) (5, -8.11352878808975219727e-02) (6, 4.93830516934394836426e-02) (0, -9.51147153973579406738e-02) (1, -3.93817424774169921875e-02) (2, 8.06708410382270812988e-02) (3, -7.26425424218177795410e-02) (4, -4.72170114517211914062e-02) (5, 2.66072824597358703613e-02) (6, 3.46397385001182556152e-02) (0, -6.80681020021438598633e-02) (1, -2.16223075985908508301e-02) (2, 1.84670686721801757812e-02) (3, 5.74219301342964172363e-02) (4, 7.49214813113212585449e-02) (5, -5.62301427125930786133e-02) (6, 7.59104862809181213379e-02) (0, 9.60933491587638854980e-02) (1, 5.83044067025184631348e-02) (2, 4.65861037373542785645e-02) (3, 7.07605555653572082520e-02) (4, 1.76415070891380310059e-02) (5, 3.05005386471748352051e-02) (6, 4.30701673030853271484e-03) (0, 4.15242984890937805176e-02) (1, -2.39493921399116516113e-02) (2, 9.31578800082206726074e-02) (3, 6.98102042078971862793e-02) (4, 6.93272426724433898926e-02) (5, -6.33464753627777099609e-02) (6, -9.21924114227294921875e-02) (0, 2.67620012164115905762e-02) (1, -4.44817543029785156250e-02) (2, 5.71906343102455139160e-02) (3, 3.16472724080085754395e-02) (4, 1.61365047097206115723e-02) (5, 3.78614738583564758301e-02) (6, 5.90047314763069152832e-02) (0, 6.89194872975349426270e-02) (1, -3.55312377214431762695e-02) (2, -6.35553151369094848633e-03) (3, -9.91486161947250366211e-02) (4, 4.28464487195014953613e-02) (5, -8.78884643316268920898e-02) (6, 5.82733228802680969238e-02) (0, 1.77679285407066345215e-02) (1, -4.41186018288135528564e-02) (2, 3.41838076710700988770e-02) (3, 1.38612762093544006348e-02) (4, -8.58141928911209106445e-02) (5, -1.92300900816917419434e-02) (6, -1.53781622648239135742e-02) (0, 3.18273082375526428223e-02) (1, -8.87295529246330261230e-02) (2, 8.89288559556007385254e-02) (3, -2.66483873128890991211e-02) (4, -1.26789435744285583496e-02) (5, 8.20867344737052917480e-02) (6, -5.68381845951080322266e-02) (0, -4.33516986668109893799e-02) (1, -8.12597349286079406738e-02) (2, -4.90305982530117034912e-02) (3, 8.34103003144264221191e-02) (4, -2.57414877414703369141e-02) (5, -9.18399617075920104980e-02) (6, 1.50575637817382812500e-02) (0, 9.03950110077857971191e-02) (1, 4.60215285420417785645e-02) (2, -2.59376987814903259277e-02) (3, 5.93144968152046203613e-02) (4, -8.95097181200981140137e-02) (5, 6.77067711949348449707e-02) (6, 6.01658895611763000488e-02) (0, 5.33367469906806945801e-02) (1, 7.98183158040046691895e-02) (2, 1.84392109513282775879e-02) (3, -2.88953259587287902832e-02) (4, -6.43002912402153015137e-02) (5, -4.73769865930080413818e-02) (6, 8.49659517407417297363e-02) (0, -5.01144826412200927734e-02) (1, 3.33929285407066345215e-02) (2, -3.04122120141983032227e-02) (3, 8.17128345370292663574e-02) (4, 4.46633771061897277832e-02) (5, -4.14833612740039825439e-02) (6, -4.49355617165565490723e-02) (0, -6.80155754089355468750e-02) (1, -5.93966208398342132568e-02) (2, -1.77374482154846191406e-03) (3, -1.13672688603401184082e-02) (4, -4.06563580036163330078e-02) (5, 4.91956546902656555176e-02) (6, -2.79569774866104125977e-02) (0, 3.36021557450294494629e-02) (1, 5.73557093739509582520e-02) (2, 8.71005877852439880371e-02) (3, 2.39971652626991271973e-02) (4, 3.37722152471542358398e-03) (5, -3.88371050357818603516e-02) (6, -1.66883245110511779785e-02) (0, 1.38675123453140258789e-02) (1, -7.11303278803825378418e-02) (2, -5.65224289894104003906e-02) (3, -3.27957496047019958496e-02) (4, -9.13120135664939880371e-02) (5, 6.19167760014533996582e-02) (6, 3.83089259266853332520e-02) (0, -5.56123070418834686279e-02) (1, -8.54602009057998657227e-02) (2, 2.32748761773109436035e-02) (3, -5.72679191827774047852e-03) (4, 4.79327365756034851074e-02) (5, 9.28626582026481628418e-02) (6, -2.40139588713645935059e-02) (0, -7.40389525890350341797e-03) (1, -4.86207008361816406250e-02) (2, 3.10504809021949768066e-02) (3, 2.45805382728576660156e-02) (4, -8.01732391119003295898e-03) (5, -7.07232728600502014160e-02) (6, -8.67867320775985717773e-02) (7, 5.13263270258903503418e-02) (8, 7.84723833203315734863e-02) (9, -1.47437006235122680664e-02) (10, -1.50715261697769165039e-02) (11, 3.58280763030052185059e-02) (12, -2.76431068778038024902e-02) (13, -9.10743623971939086914e-02) (14, -6.07946999371051788330e-02) (15, 3.35197821259498596191e-02) (16, -7.76268541812896728516e-03) (17, 5.30728176236152648926e-02) (18, 6.23894557356834411621e-02) (19, 3.57148870825767517090e-02) (20, -7.97229409217834472656e-02) (21, 7.10774436593055725098e-02) (22, -2.36832350492477416992e-03) (23, 5.85859790444374084473e-02) (24, -8.45348611474037170410e-02) (25, 1.21714696288108825684e-02) (26, -1.81391462683677673340e-02) (27, 9.73834842443466186523e-03) (28, -3.98957915604114532471e-02) (29, -2.52764895558357238770e-02) (30, 8.57243910431861877441e-02) (31, 5.27003183960914611816e-02) (32, 2.61028036475181579590e-02) (33, 1.67748704552650451660e-02) (34, -2.27191522717475891113e-02) (35, -8.19145217537879943848e-02) (36, 4.60515990853309631348e-02) (37, -9.50588285923004150391e-03) (38, 6.94118067622184753418e-02) (39, 2.45239883661270141602e-02) (40, 7.57504180073738098145e-02) (41, -4.56597320735454559326e-02) (42, -3.96479368209838867188e-02) (43, -5.18926940858364105225e-02) (44, -3.67340892553329467773e-02) (45, -4.42638993263244628906e-04) (46, 8.16270932555198669434e-02) (47, 5.55032268166542053223e-02) (48, -4.73698340356349945068e-02) (49, 4.40165475010871887207e-02) (50, -8.78188014030456542969e-03) (51, -2.70927697420120239258e-02) (52, 1.50939971208572387695e-02) (53, 8.88497903943061828613e-02) (54, -6.85067921876907348633e-02) (55, 3.05591300129890441895e-02) (56, 1.02126598358154296875e-03) (57, 1.33540630340576171875e-02) (58, -5.97025230526924133301e-02) (59, 6.11254647374153137207e-02) (60, 8.80775675177574157715e-02) (61, -7.39781334996223449707e-02) (62, 1.38257890939712524414e-02) (63, 1.41803771257400512695e-02) (64, 4.27967384457588195801e-02) (65, 9.11066457629203796387e-02) (66, 3.22658494114875793457e-02) (67, -1.11516714096069335938e-02) (68, -1.83992385864257812500e-02) (69, 1.67765468358993530273e-03) (70, -8.66276919841766357422e-02) (71, -4.26488220691680908203e-02) (72, 5.60179278254508972168e-02) (73, -2.62756198644638061523e-02) (74, 5.45847415924072265625e-03) (75, -8.07161629199981689453e-02) (76, 7.32817426323890686035e-02) (77, -1.29144340753555297852e-02) (78, 7.47870728373527526855e-02) (79, -7.40880891680717468262e-02) (80, -6.88978806138038635254e-02) (81, -3.39948162436485290527e-02) (82, -1.18086487054824829102e-03) (83, 4.61961105465888977051e-02) (84, -4.51450310647487640381e-02) (85, 3.03123518824577331543e-02) (86, -2.32447609305381774902e-02) (87, 5.58762475848197937012e-02) (88, -5.63335902988910675049e-02) (89, 1.70527100563049316406e-02) (90, 1.70017108321189880371e-02) (91, -6.82560205459594726562e-02) (92, 4.30745854973793029785e-02) (93, -6.91725015640258789062e-02) (94, 4.59243729710578918457e-02) (95, -1.41286849975585937500e-02) (96, -7.80658572912216186523e-02) (97, -2.18097791075706481934e-02) (7, 7.47196450829505920410e-02) (8, 3.53489816188812255859e-03) (9, 7.98678770661354064941e-02) (10, 8.80919620394706726074e-02) (11, 6.08860775828361511230e-02) (12, 3.58858034014701843262e-02) (13, -3.81836704909801483154e-02) (14, -3.36554422974586486816e-02) (15, 5.51696494221687316895e-02) (16, -6.49019330739974975586e-02) (17, 5.34301325678825378418e-02) (18, 2.99567058682441711426e-02) (19, -3.89900207519531250000e-02) (20, 8.45322534441947937012e-02) (21, 9.59618762135505676270e-02) (22, 5.98291233181953430176e-02) (23, 3.07283475995063781738e-02) (24, -4.91831488907337188721e-02) (25, -9.85854119062423706055e-03) (26, -9.25164148211479187012e-02) (27, -9.33069065213203430176e-02) (28, 3.38078811764717102051e-02) (29, 2.45362967252731323242e-02) (30, 2.36947983503341674805e-02) (31, 6.55518546700477600098e-02) (32, -3.23891192674636840820e-02) (33, 5.45222982764244079590e-02) (34, 1.14762187004089355469e-02) (35, 5.34821972250938415527e-02) (36, 7.64564499258995056152e-02) (37, 8.96664336323738098145e-02) (38, 2.82018408179283142090e-02) (39, -2.00086534023284912109e-02) (40, 6.95343092083930969238e-02) (41, 1.62938013672828674316e-02) (42, -5.91225735843181610107e-02) (43, 5.42011111974716186523e-03) (44, 7.81101360917091369629e-02) (45, 7.22198188304901123047e-03) (46, -3.94102446734905242920e-02) (47, -8.67917984724044799805e-02) (48, -3.93478944897651672363e-02) (49, 9.05464515089988708496e-02) (50, -2.57818177342414855957e-02) (51, -5.48156462609767913818e-02) (52, 8.65083411335945129395e-02) (53, -6.59527033567428588867e-02) (54, 7.59127065539360046387e-02) (55, -6.26748055219650268555e-02) (56, 2.41887569427490234375e-02) (57, 8.33962932229042053223e-02) (58, -5.59817142784595489502e-02) (59, -4.20033745467662811279e-02) (60, 7.93258845806121826172e-03) (61, 6.77130892872810363770e-02) (62, -7.64515250921249389648e-02) (63, 7.55434706807136535645e-02) (64, 2.22353935241699218750e-02) (65, 3.50246950984001159668e-02) (66, 2.90256813168525695801e-02) (67, -1.30815804004669189453e-03) (68, 2.46911272406578063965e-02) (69, -4.27724793553352355957e-02) (70, 7.86831900477409362793e-02) (71, -5.77455013990402221680e-03) (72, 7.35213235020637512207e-02) (73, -8.04393887519836425781e-02) (74, 9.96455624699592590332e-02) (75, 5.16314581036567687988e-02) (76, 2.67825946211814880371e-02) (77, -3.97646799683570861816e-02) (78, 6.48396685719490051270e-02) (79, 8.74347165226936340332e-02) (80, -4.92182187736034393311e-02) (81, -6.09421543776988983154e-02) (82, -6.73809424042701721191e-02) (83, -6.27098828554153442383e-02) (84, -2.68948525190353393555e-02) (85, -9.14682373404502868652e-02) (86, -2.53846868872642517090e-02) (87, 9.72939059138298034668e-02) (88, 9.19280573725700378418e-02) (89, 1.86335891485214233398e-02) (90, -4.47094738483428955078e-02) (91, -1.39348208904266357422e-04) (92, -1.36533156037330627441e-02) (93, -2.11609974503517150879e-02) (94, -2.45958715677261352539e-02) (95, -9.14179235696792602539e-02) (96, -8.61363038420677185059e-02) (97, -9.55701991915702819824e-02) (7, 7.27392733097076416016e-03) (8, 3.85548397898674011230e-02) (9, -3.83426807820796966553e-02) (10, -1.40428915619850158691e-02) (11, -6.72197192907333374023e-02) (12, -6.48213550448417663574e-02) (13, 5.51772117614746093750e-03) (14, -6.75741434097290039062e-02) (15, 8.68101194500923156738e-02) (16, -6.76996707916259765625e-02) (17, -7.33882933855056762695e-03) (18, 5.16497716307640075684e-02) (19, -8.02649706602096557617e-02) (20, 4.34429571032524108887e-02) (21, 9.07076075673103332520e-02) (22, -4.76459078490734100342e-02) (23, 8.07330682873725891113e-02) (24, -3.61872464418411254883e-02) (25, -3.91141436994075775146e-02) (26, -4.46516238152980804443e-02) (27, -3.88933420181274414062e-02) (28, -4.71860878169536590576e-02) (29, 7.39819779992103576660e-02) (30, 1.63971781730651855469e-02) (31, 5.26745542883872985840e-02) (32, -3.96713390946388244629e-02) (33, 9.52361896634101867676e-02) (34, -7.19213113188743591309e-02) (35, -3.10892611742019653320e-02) (36, -9.09001082181930541992e-02) (37, -6.74915164709091186523e-02) (38, 7.61846676468849182129e-02) (39, 4.76547256112098693848e-02) (40, -5.83419203758239746094e-03) (41, -3.78582254052162170410e-02) (42, 8.04350152611732482910e-02) (43, 2.93444618582725524902e-02) (44, 6.76595047116279602051e-02) (45, -8.71391370892524719238e-02) (46, 1.61545649170875549316e-02) (47, 9.99598279595375061035e-02) (48, 5.52203506231307983398e-03) (49, -3.21956723928451538086e-02) (50, -8.03051367402076721191e-02) (51, -5.10350130498409271240e-02) (52, -4.14880514144897460938e-02) (53, -2.79510468244552612305e-02) (54, -7.03019425272941589355e-02) (55, 2.23247036337852478027e-02) (56, 3.29348072409629821777e-02) (57, -1.49535685777664184570e-02) (58, 8.34313705563545227051e-02) (59, 8.57487246394157409668e-02) (60, -4.09715883433818817139e-02) (61, -1.71460211277008056641e-04) (62, 3.84232923388481140137e-02) (63, 1.93570703268051147461e-02) (64, -4.93527203798294067383e-03) (65, 6.65019825100898742676e-02) (66, 8.82678106427192687988e-02) (67, 4.16462123394012451172e-03) (68, 9.90104600787162780762e-02) (69, 6.44524767994880676270e-02) (70, -4.81806509196758270264e-02) (71, -6.82373344898223876953e-03) (72, -7.34057426452636718750e-02) (73, -6.77456408739089965820e-02) (74, -7.74792730808258056641e-02) (75, 9.42537561058998107910e-02) (76, -5.48847801983356475830e-02) (77, 3.86753007769584655762e-02) (78, 9.42135974764823913574e-02) (79, 5.06372526288032531738e-02) (80, -9.35203731060028076172e-02) (81, -8.60915556550025939941e-02) (82, 9.96022447943687438965e-02) (83, -3.50084230303764343262e-02) (84, -1.40426009893417358398e-02) (85, -7.06996917724609375000e-02) (86, 8.73162820935249328613e-02) (87, -8.11077877879142761230e-02) (88, 1.43467411398887634277e-02) (89, 7.07476362586021423340e-02) (90, -9.53590646386146545410e-02) (91, 7.33751580119132995605e-02) (92, -2.94238179922103881836e-02) (93, 4.30642291903495788574e-02) (94, -7.26777315139770507812e-03) (95, 6.56409189105033874512e-02) (96, 9.56620275974273681641e-03) (97, -1.89999565482139587402e-02) (7, -3.01944613456726074219e-02) (8, 8.57665389776229858398e-03) (9, -5.45474812388420104980e-02) (10, 2.16248854994773864746e-02) (11, -9.82470735907554626465e-02) (12, -2.79532223939895629883e-02) (13, 5.38792535662651062012e-02) (14, -7.57263377308845520020e-02) (15, -3.36994677782058715820e-02) (16, 9.89944711327552795410e-02) (17, 6.29489496350288391113e-02) (18, -3.94858792424201965332e-02) (19, 4.96317222714424133301e-02) (20, 6.94285705685615539551e-02) (21, -2.55774334073066711426e-02) (22, 4.92339804768562316895e-02) (23, -6.55798465013504028320e-02) (24, 6.03799745440483093262e-02) (25, 7.85342827439308166504e-02) (26, -7.82635658979415893555e-02) (27, 7.92721882462501525879e-02) (28, -7.11898505687713623047e-03) (29, 9.24840644001960754395e-02) (30, 8.39131250977516174316e-02) (31, -3.37438285350799560547e-02) (32, -3.69397476315498352051e-02) (33, 2.69773527979850769043e-02) (34, 5.89883998036384582520e-02) (35, -7.12988302111625671387e-02) (36, -6.34564459323883056641e-02) (37, -6.00115619599819183350e-02) (38, -1.49329006671905517578e-03) (39, 4.51202169060707092285e-02) (40, -1.45590454339981079102e-02) (41, -7.98684060573577880859e-02) (42, 4.68731448054313659668e-02) (43, 5.74877336621284484863e-02) (44, 7.40108415484428405762e-02) (45, 7.11468085646629333496e-02) (46, -7.62117356061935424805e-02) (47, 7.30052962899208068848e-02) (48, 3.40957716107368469238e-02) (49, -1.56976133584976196289e-02) (50, 2.26370245218276977539e-02) (51, 3.52434068918228149414e-03) (52, 5.87249472737312316895e-02) (53, -2.81290039420127868652e-02) (54, 3.79445031285285949707e-02) (55, 1.91049203276634216309e-02) (56, -4.95947301387786865234e-02) (57, 5.96809312701225280762e-02) (58, -1.62288546562194824219e-03) (59, 4.32862862944602966309e-02) (60, 5.21649941802024841309e-02) (61, -1.77097618579864501953e-02) (62, -9.04575437307357788086e-02) (63, -8.47747549414634704590e-02) (64, -9.07324105501174926758e-02) (65, 6.85308650135993957520e-02) (66, -5.60735873878002166748e-02) (67, -5.41888587176799774170e-02) (68, -9.14807021617889404297e-02) (69, 4.24331203103065490723e-02) (70, 9.09313634037971496582e-02) (71, -6.03974610567092895508e-03) (72, 6.25647082924842834473e-02) (73, 3.78044918179512023926e-02) (74, -4.85520139336585998535e-02) (75, 3.65755483508110046387e-02) (76, 8.95130634307861328125e-03) (77, -2.47637480497360229492e-02) (78, 9.58085060119628906250e-03) (79, -5.69529347121715545654e-02) (80, 5.95386400818824768066e-02) (81, -6.77821338176727294922e-02) (82, 4.65713962912559509277e-02) (83, 1.82635933160781860352e-02) (84, 4.08886373043060302734e-03) (85, -1.54841095209121704102e-02) (86, -6.26314803957939147949e-02) (87, 5.44941350817680358887e-02) (88, -5.58031834661960601807e-02) (89, 3.57456281781196594238e-02) (90, -2.21958011388778686523e-03) (91, 9.63618084788322448730e-02) (92, -8.19641277194023132324e-02) (93, 7.32288509607315063477e-03) (94, -8.84129479527473449707e-02) (95, -7.26965367794036865234e-02) (96, -2.41462588310241699219e-02) (97, -4.44865338504314422607e-02) (7, -2.68853902816772460938e-02) (8, -1.56269595026969909668e-02) (9, 9.79465916752815246582e-02) (10, -3.59540358185768127441e-02) (11, 7.83332958817481994629e-02) (12, 6.05112984776496887207e-02) (13, -9.81495305895805358887e-02) (14, -7.02187120914459228516e-02) (15, -2.91315466165542602539e-03) (16, 1.08017772436141967773e-02) (17, 5.01754134893417358398e-03) (18, -9.33323130011558532715e-02) (19, 5.38488402962684631348e-02) (20, -3.54438200592994689941e-02) (21, -6.11144416034221649170e-02) (22, 4.20235097408294677734e-04) (23, 8.28197821974754333496e-02) (24, 4.29744198918342590332e-02) (25, 8.49361345171928405762e-02) (26, -7.98116996884346008301e-02) (27, -2.53144651651382446289e-03) (28, -7.08670467138290405273e-02) (29, 5.59339448809623718262e-02) (30, 9.52489748597145080566e-02) (31, -7.45052397251129150391e-02) (32, 7.39698037505149841309e-02) (33, 2.57185846567153930664e-03) (34, -6.29181861877441406250e-02) (35, -9.87267270684242248535e-02) (36, 7.84255936741828918457e-02) (37, -7.40471482276916503906e-03) (38, -2.56121158599853515625e-02) (39, -3.72013598680496215820e-02) (40, -9.45813208818435668945e-03) (41, 3.84338572621345520020e-02) (42, -5.88680692017078399658e-02) (43, -4.89468276500701904297e-02) (44, 4.02843281626701354980e-02) (45, -2.90867835283279418945e-02) (46, 4.81400117278099060059e-02) (47, -4.89139072597026824951e-02) (48, 7.59307667613029479980e-02) (49, 5.48077151179313659668e-02) (50, -9.50650647282600402832e-02) (51, -5.95130510628223419189e-02) (52, 9.36932638287544250488e-02) (53, 5.35517930984497070312e-03) (54, -7.66932740807533264160e-02) (55, 3.66676971316337585449e-02) (56, -9.70868766307830810547e-03) (57, -5.65049722790718078613e-02) (58, -6.58637583255767822266e-02) (59, 1.94242596626281738281e-02) (60, 9.94289591908454895020e-02) (61, -7.06147849559783935547e-02) (62, 4.49190214276313781738e-02) (63, 7.33987763524055480957e-02) (64, 3.19570675492286682129e-02) (65, 8.20008441805839538574e-02) (66, 7.46720507740974426270e-02) (67, 1.03826671838760375977e-02) (68, -2.54038795828819274902e-02) (69, -5.09400665760040283203e-02) (70, 7.31812939047813415527e-02) (71, 6.51379898190498352051e-02) (72, 8.74937847256660461426e-02) (73, -8.56867730617523193359e-02) (74, -8.38088393211364746094e-02) (75, 2.77780964970588684082e-02) (76, -1.47735476493835449219e-02) (77, 6.43311813473701477051e-02) (78, 7.88641944527626037598e-02) (79, -3.88427861034870147705e-02) (80, 1.91388875246047973633e-02) (81, 8.37991312146186828613e-02) (82, 1.64415687322616577148e-03) (83, 1.28321498632431030273e-02) (84, -1.08456984162330627441e-02) (85, 2.49508991837501525879e-02) (86, -5.05001544952392578125e-02) (87, 7.94456079602241516113e-02) (88, 6.84459283947944641113e-02) (89, -1.63639113306999206543e-02) (90, -1.13011896610260009766e-03) (91, 6.78748860955238342285e-02) (92, 1.30213052034378051758e-02) (93, -5.62110953032970428467e-02) (94, 4.12736609578132629395e-02) (95, -5.50216324627399444580e-02) (96, -7.42102563381195068359e-02) (97, 1.59457102417945861816e-02) (7, 5.53610399365425109863e-02) (8, 3.85858118534088134766e-04) (9, 6.50056526064872741699e-02) (10, 2.85423323512077331543e-02) (11, -3.44761461019515991211e-02) (12, 5.24994209408760070801e-02) (13, 4.28555682301521301270e-02) (14, -1.82849839329719543457e-02) (15, -1.97224691510200500488e-02) (16, -7.19179883599281311035e-02) (17, -5.39538040757179260254e-02) (18, -4.08582687377929687500e-02) (19, -1.07607766985893249512e-02) (20, 6.51850774884223937988e-02) (21, -5.70591390132904052734e-02) (22, 9.08833816647529602051e-02) (23, -2.19827517867088317871e-02) (24, 3.20951715111732482910e-02) (25, 1.58342868089675903320e-02) (26, 2.75170877575874328613e-02) (27, 1.15407854318618774414e-02) (28, -1.57197937369346618652e-02) (29, -8.88468176126480102539e-02) (30, -8.95893350243568420410e-02) (31, -4.78449128568172454834e-02) (32, 2.41744890809059143066e-02) (33, -4.58004362881183624268e-02) (34, 9.34287533164024353027e-02) (35, 6.91528543829917907715e-02) (36, -2.00106948614120483398e-02) (37, 9.37447696924209594727e-03) (38, 2.45138779282569885254e-02) (39, 8.03751721978187561035e-02) (40, -2.56198793649673461914e-02) (41, -4.69437912106513977051e-02) (42, -5.41009791195392608643e-02) (43, -7.31204524636268615723e-02) (44, 9.59117636084556579590e-02) (45, 2.76140496134757995605e-02) (46, 7.15708732604980468750e-03) (47, -7.60062262415885925293e-02) (48, 7.36602470278739929199e-02) (49, 6.62988200783729553223e-02) (50, 1.32330060005187988281e-02) (51, 3.88453230261802673340e-02) (52, -9.07603278756141662598e-02) (53, 4.11639362573623657227e-03) (54, -8.31374302506446838379e-02) (55, 4.13348451256752014160e-02) (56, -8.00493359565734863281e-02) (57, 4.43796589970588684082e-02) (58, -4.71243746578693389893e-02) (59, 4.23087179660797119141e-03) (60, 5.55328503251075744629e-02) (61, -3.67137044668197631836e-02) (62, 5.63859567046165466309e-02) (63, -2.02926769852638244629e-02) (64, 1.74858570098876953125e-02) (65, 4.98147085309028625488e-02) (66, -5.11398240923881530762e-02) (67, 9.74751785397529602051e-02) (68, -4.08108122646808624268e-02) (69, 7.33740553259849548340e-02) (70, 7.78503343462944030762e-02) (71, 3.35692986845970153809e-02) (72, -7.35697299242019653320e-02) (73, -7.62506425380706787109e-02) (74, 6.04488477110862731934e-02) (75, -7.76579603552818298340e-02) (76, 5.13634011149406433105e-02) (77, -3.23940664529800415039e-02) (78, -5.36641888320446014404e-02) (79, 2.50236466526985168457e-02) (80, -6.60952553153038024902e-02) (81, 5.95688149333000183105e-02) (82, -3.61310392618179321289e-02) (83, -5.68555817008018493652e-02) (84, -3.63148003816604614258e-02) (85, -1.92684680223464965820e-02) (86, 8.44792649149894714355e-02) (87, -1.63641273975372314453e-02) (88, -7.48888030648231506348e-02) (89, -6.26451149582862854004e-02) (90, 8.78667458891868591309e-02) (91, 8.06440338492393493652e-02) (92, 6.41182065010070800781e-04) (93, 4.42527011036872863770e-02) (94, -3.96486334502696990967e-02) (95, -8.18729624152183532715e-02) (96, -5.93258440494537353516e-03) (97, 9.21154022216796875000e-03) 
