FANN_FLO_2.1
num_layers=3
learning_rate=0.700000
connection_rate=1.000000
network_type=0
learning_momentum=0.600000
training_algorithm=0
train_error_function=1
train_stop_function=0
cascade_output_change_fraction=0.010000
quickprop_decay=-0.000100
quickprop_mu=1.750000
rprop_increase_factor=1.200000
rprop_decrease_factor=0.500000
rprop_delta_min=0.000000
rprop_delta_max=50.000000
rprop_delta_zero=0.100000
cascade_output_stagnation_epochs=12
cascade_candidate_change_fraction=0.010000
cascade_candidate_stagnation_epochs=12
cascade_max_out_epochs=150
cascade_min_out_epochs=50
cascade_max_cand_epochs=150
cascade_min_cand_epochs=50
cascade_num_candidate_groups=2
bit_fail_limit=3.49999994039535522461e-01
cascade_candidate_limit=1.00000000000000000000e+03
cascade_weight_multiplier=4.00000005960464477539e-01
cascade_activation_functions_count=10
cascade_activation_functions=3 5 7 8 10 11 14 15 16 17 
cascade_activation_steepnesses_count=4
cascade_activation_steepnesses=2.50000000000000000000e-01 5.00000000000000000000e-01 7.50000000000000000000e-01 1.00000000000000000000e+00 
layer_sizes=7 51 7 
scale_included=0
neurons (num_inputs, activation_function, activation_steepness)=(0, 0, 0.00000000000000000000e+00) (0, 0, 0.00000000000000000000e+00) (0, 0, 0.00000000000000000000e+00) (0, 0, 0.00000000000000000000e+00) (0, 0, 0.00000000000000000000e+00) (0, 0, 0.00000000000000000000e+00) (0, 0, 0.00000000000000000000e+00) (7, 5, 5.00000000000000000000e-01) (7, 5, 5.00000000000000000000e-01) (7, 5, 5.00000000000000000000e-01) (7, 5, 5.00000000000000000000e-01) (7, 5, 5.00000000000000000000e-01) (7, 5, 5.00000000000000000000e-01) (7, 5, 5.00000000000000000000e-01) (7, 5, 5.00000000000000000000e-01) (7, 5, 5.00000000000000000000e-01) (7, 5, 5.00000000000000000000e-01) (7, 5, 5.00000000000000000000e-01) (7, 5, 5.00000000000000000000e-01) (7, 5, 5.00000000000000000000e-01) (7, 5, 5.00000000000000000000e-01) (7, 5, 5.00000000000000000000e-01) (7, 5, 5.00000000000000000000e-01) (7, 5, 5.00000000000000000000e-01) (7, 5, 5.00000000000000000000e-01) (7, 5, 5.00000000000000000000e-01) (7, 5, 5.00000000000000000000e-01) (7, 5, 5.00000000000000000000e-01) (7, 5, 5.00000000000000000000e-01) (7, 5, 5.00000000000000000000e-01) (7, 5, 5.00000000000000000000e-01) (7, 5, 5.00000000000000000000e-01) (7, 5, 5.00000000000000000000e-01) (7, 5, 5.00000000000000000000e-01) (7, 5, 5.00000000000000000000e-01) (7, 5, 5.00000000000000000000e-01) (7, 5, 5.00000000000000000000e-01) (7, 5, 5.00000000000000000000e-01) (7, 5, 5.00000000000000000000e-01) (7, 5, 5.00000000000000000000e-01) (7, 5, 5.00000000000000000000e-01) (7, 5, 5.00000000000000000000e-01) (7, 5, 5.00000000000000000000e-01) (7, 5, 5.00000000000000000000e-01) (7, 5, 5.00000000000000000000e-01) (7, 5, 5.00000000000000000000e-01) (7, 5, 5.00000000000000000000e-01) (7, 5, 5.00000000000000000000e-01) (7, 5, 5.00000000000000000000e-01) (7, 5, 5.00000000000000000000e-01) (7, 5, 5.00000000000000000000e-01) (7, 5, 5.00000000000000000000e-01) (7, 5, 5.00000000000000000000e-01) (7, 5, 5.00000000000000000000e-01) (7, 5, 5.00000000000000000000e-01) (7, 5, 5.00000000000000000000e-01) (7, 5, 5.00000000000000000000e-01) (0, 5, 0.00000000000000000000e+00) (51, 5, 5.00000000000000000000e-01) (51, 5, 5.00000000000000000000e-01) (51, 5, 5.00000000000000000000e-01) (51, 5, 5.00000000000000000000e-01) (51, 5, 5.00000000000000000000e-01) (51, 5, 5.00000000000000000000e-01) (0, 5, 0.00000000000000000000e+00) 
connections (connected_to_neuron, weight)=(0, -7.91041031479835510254e-02) (1, 6.88551142811775207520e-02) (2, 9.67722907662391662598e-02) (3, 3.28207686543464660645e-02) (4, 5.51350489258766174316e-02) (5, 5.83741888403892517090e-02) (6, -1.57488062977790832520e-02) (0, -4.07286062836647033691e-02) (1, -9.23494547605514526367e-02) (2, -8.07515755295753479004e-02) (3, -3.25188785791397094727e-03) (4, -1.40633508563041687012e-02) (5, -9.98764038085937500000e-02) (6, -8.16874578595161437988e-02) (0, 3.10874357819557189941e-02) (1, 2.37093865871429443359e-03) (2, -3.63968461751937866211e-02) (3, -7.77398049831390380859e-03) (4, 8.62605795264244079590e-02) (5, 3.27021107077598571777e-02) (6, -8.52104276418685913086e-03) (0, 4.97294738888740539551e-02) (1, 8.90933349728584289551e-02) (2, 6.72670081257820129395e-02) (3, 1.79470553994178771973e-02) (4, -1.73259079456329345703e-02) (5, 1.18446499109268188477e-02) (6, -5.28721474111080169678e-02) (0, -6.40890151262283325195e-02) (1, -9.18034762144088745117e-02) (2, -1.99373438954353332520e-02) (3, -4.31931205093860626221e-02) (4, 7.70516321063041687012e-02) (5, -2.31650546193122863770e-02) (6, 8.96276459097862243652e-02) (0, 3.21866795420646667480e-02) (1, -6.47908747196197509766e-02) (2, -2.61211618781089782715e-02) (3, 9.14580747485160827637e-02) (4, -5.71403242647647857666e-02) (5, -6.87273591756820678711e-03) (6, -1.17938145995140075684e-02) (0, 2.87963226437568664551e-02) (1, -6.74913823604583740234e-03) (2, 6.51873648166656494141e-03) (3, -4.01162467896938323975e-02) (4, 9.56218019127845764160e-02) (5, 7.01218917965888977051e-02) (6, 5.21097853779792785645e-02) (0, 8.18823799490928649902e-02) (1, 2.82399356365203857422e-03) (2, -5.64112700521945953369e-02) (3, 3.16118672490119934082e-02) (4, -8.08267295360565185547e-03) (5, -8.91442596912384033203e-02) (6, -5.04410825669765472412e-02) (0, 7.45914205908775329590e-02) (1, 2.27003917098045349121e-02) (2, -3.31322848796844482422e-03) (3, -8.94975960254669189453e-02) (4, 3.08969095349311828613e-02) (5, 7.67494365572929382324e-02) (6, -3.26907113194465637207e-02) (0, 7.94854015111923217773e-03) (1, -4.64156232774257659912e-02) (2, -4.30630631744861602783e-02) (3, -5.98647780716419219971e-02) (4, -1.12064927816390991211e-02) (5, 3.08157876133918762207e-02) (6, -6.84067085385322570801e-02) (0, 3.16531881690025329590e-02) (1, -7.60569646954536437988e-02) (2, 1.97994858026504516602e-02) (3, -3.95504906773567199707e-02) (4, 1.71938911080360412598e-02) (5, -7.36817941069602966309e-02) (6, 2.03332677483558654785e-02) (0, 1.28156915307044982910e-02) (1, 9.64400991797447204590e-02) (2, -2.75569632649421691895e-02) (3, -5.30193001031875610352e-03) (4, -7.35901296138763427734e-04) (5, 1.60317793488502502441e-02) (6, -7.36900717020034790039e-02) (0, 9.11814346909523010254e-02) (1, 2.68875136971473693848e-02) (2, -2.41311565041542053223e-02) (3, 6.57728537917137145996e-02) (4, -5.04120886325836181641e-02) (5, 7.25556239485740661621e-02) (6, 7.62752667069435119629e-02) (0, 8.04848298430442810059e-02) (1, 4.93050441145896911621e-02) (2, -5.64154461026191711426e-02) (3, -1.15666240453720092773e-02) (4, -9.71105769276618957520e-02) (5, 5.21495938301086425781e-04) (6, 2.85686030983924865723e-02) (0, -8.31706821918487548828e-03) (1, -6.86627328395843505859e-02) (2, 6.01618960499763488770e-02) (3, -7.66638815402984619141e-02) (4, -4.47196960449218750000e-02) (5, -2.00386270880699157715e-02) (6, -1.62143781781196594238e-02) (0, 7.24742040038108825684e-02) (1, 6.27957284450531005859e-03) (2, -9.58811119198799133301e-02) (3, -1.47101059556007385254e-02) (4, 2.71967798471450805664e-03) (5, -2.34380736947059631348e-02) (6, 7.99879655241966247559e-02) (0, -9.80162248015403747559e-02) (1, 9.25937071442604064941e-02) (2, -9.37021002173423767090e-02) (3, 9.31652113795280456543e-02) (4, 1.94812193512916564941e-02) (5, -1.78332477807998657227e-02) (6, 5.89380487799644470215e-02) (0, 6.90691247582435607910e-02) (1, -4.52776327729225158691e-02) (2, 3.52133139967918395996e-02) (3, 4.95539531111717224121e-02) (4, -9.59725826978683471680e-02) (5, 7.87978842854499816895e-02) (6, -6.20126686990261077881e-02) (0, -9.30831581354141235352e-02) (1, -2.06806361675262451172e-02) (2, 6.65559396147727966309e-02) (3, -1.40022486448287963867e-03) (4, 1.06566324830055236816e-02) (5, 2.67178341746330261230e-02) (6, 2.19358950853347778320e-02) (0, 6.59369304776191711426e-02) (1, -9.33208018541336059570e-02) (2, -9.42784845829010009766e-02) (3, 3.84111478924751281738e-02) (4, 1.29587799310684204102e-02) (5, -9.01595950126647949219e-02) (6, -7.62989670038223266602e-02) (0, -8.43215435743331909180e-02) (1, -1.35976597666740417480e-02) (2, -9.63109955191612243652e-02) (3, -8.23377668857574462891e-02) (4, -2.10039615631103515625e-02) (5, -9.00131016969680786133e-02) (6, -8.91725644469261169434e-02) (0, 9.84772518277168273926e-02) (1, -7.84634798765182495117e-03) (2, 6.97655007243156433105e-02) (3, 6.75463750958442687988e-02) (4, 4.68760207295417785645e-02) (5, 4.97881323099136352539e-03) (6, 1.71003490686416625977e-02) (0, 5.09034469723701477051e-02) (1, -1.62233188748359680176e-02) (2, 5.50876781344413757324e-02) (3, 5.78202828764915466309e-02) (4, 6.30960538983345031738e-02) (5, 2.16436162590980529785e-02) (6, -4.35799434781074523926e-02) (0, -2.62473225593566894531e-02) (1, -5.16385585069656372070e-02) (2, 7.83559456467628479004e-02) (3, -6.03103898465633392334e-02) (4, -4.49593625962734222412e-02) (5, 8.40774700045585632324e-02) (6, 7.81007483601570129395e-02) (0, 6.79994300007820129395e-02) (1, 9.39178690314292907715e-02) (2, -9.81982126832008361816e-02) (3, 8.36778804659843444824e-02) (4, -1.96797922253608703613e-02) (5, -9.45092141628265380859e-02) (6, -9.86598879098892211914e-02) (0, 5.93162551522254943848e-02) (1, -8.45223069190979003906e-02) (2, -8.78324583172798156738e-02) (3, 5.77935054898262023926e-02) (4, 7.63134658336639404297e-03) (5, 8.19330289959907531738e-02) (6, 2.53398939967155456543e-02) (0, -4.54926379024982452393e-02) (1, -1.30881518125534057617e-02) (2, -5.75597696006298065186e-02) (3, -9.45891961455345153809e-02) (4, 7.06885233521461486816e-02) (5, 9.75279137492179870605e-02) (6, 6.32310882210731506348e-02) (0, 3.37845757603645324707e-02) (1, 1.91715136170387268066e-02) (2, -8.03488641977310180664e-02) (3, -9.24627557396888732910e-02) (4, 6.75329640507698059082e-02) (5, 9.80070903897285461426e-02) (6, -5.27731440961360931396e-02) (0, -7.74264037609100341797e-02) (1, 8.20845440030097961426e-02) (2, -7.46723935008049011230e-02) (3, 9.05730202794075012207e-02) (4, 7.60024264454841613770e-02) (5, -7.28706046938896179199e-02) (6, 7.42508992552757263184e-02) (0, -4.36773672699928283691e-02) (1, -6.73798173666000366211e-02) (2, 7.55910202860832214355e-02) (3, -8.43611210584640502930e-02) (4, -5.19021227955818176270e-02) (5, 8.77585634589195251465e-02) (6, 7.34323933720588684082e-02) (0, 5.57292178273200988770e-02) (1, 6.96916058659553527832e-02) (2, -1.22772157192230224609e-03) (3, -8.97634103894233703613e-02) (4, -4.33965586125850677490e-02) (5, 4.12125065922737121582e-02) (6, -8.43526124954223632812e-02) (0, -7.27080255746841430664e-02) (1, 3.87404039502143859863e-02) (2, 7.88784697651863098145e-02) (3, 6.10765293240547180176e-02) (4, -4.20880690217018127441e-02) (5, 9.85296145081520080566e-02) (6, 6.86137750744819641113e-02) (0, -7.45551139116287231445e-02) (1, 9.65367034077644348145e-02) (2, -8.41593667864799499512e-02) (3, -5.19815087318420410156e-02) (4, 7.86212608218193054199e-02) (5, -5.88317550718784332275e-02) (6, -6.14084862172603607178e-02) (0, 5.46236857771873474121e-02) (1, -3.17023620009422302246e-02) (2, -8.71575847268104553223e-02) (3, -8.90536829829216003418e-02) (4, 9.17829573154449462891e-04) (5, 8.84334370493888854980e-02) (6, -7.34148025512695312500e-02) (0, 4.90157082676887512207e-02) (1, 7.61919990181922912598e-02) (2, -9.99824106693267822266e-02) (3, 4.74492460489273071289e-03) (4, 4.58836033940315246582e-02) (5, -1.21013820171356201172e-03) (6, 1.49815082550048828125e-02) (0, -9.75129529833793640137e-02) (1, -5.99976293742656707764e-02) (2, 3.06289121508598327637e-02) (3, -7.02209845185279846191e-02) (4, 7.87427946925163269043e-02) (5, 9.50738042593002319336e-03) (6, 9.08555462956428527832e-02) (0, -6.33452832698822021484e-02) (1, 8.03699344396591186523e-03) (2, 5.94693347811698913574e-02) (3, -3.79003956913948059082e-02) (4, 4.57368791103363037109e-03) (5, 7.53099694848060607910e-02) (6, 1.01180896162986755371e-02) (0, -1.68050453066825866699e-02) (1, -8.35217833518981933594e-02) (2, 4.87096086144447326660e-02) (3, -6.21813647449016571045e-02) (4, -1.52241438627243041992e-02) (5, 6.15520402789115905762e-02) (6, -5.12350462377071380615e-02) (0, 8.56936797499656677246e-02) (1, 4.99854758381843566895e-02) (2, -2.46498435735702514648e-02) (3, 3.47093865275382995605e-02) (4, 2.61774733662605285645e-02) (5, -2.46322602033615112305e-02) (6, -6.05456940829753875732e-02) (0, -2.79389321804046630859e-02) (1, 7.41576030850410461426e-02) (2, 5.44358268380165100098e-02) (3, -2.54518836736679077148e-02) (4, -8.58400166034698486328e-02) (5, -1.49352699518203735352e-02) (6, 4.32713329792022705078e-03) (0, 9.29027721285820007324e-02) (1, 9.45721045136451721191e-02) (2, -4.81732189655303955078e-03) (3, -7.04425126314163208008e-02) (4, 2.60909646749496459961e-03) (5, -4.53479848802089691162e-02) (6, -8.34290683269500732422e-03) (0, -9.28172096610069274902e-02) (1, -7.00380131602287292480e-02) (2, -9.82248112559318542480e-02) (3, -9.62226092815399169922e-03) (4, -5.35597950220108032227e-02) (5, 5.04847988486289978027e-02) (6, 2.81963869929313659668e-02) (0, 3.12160626053810119629e-02) (1, 1.20368376374244689941e-02) (2, 7.69613459706306457520e-02) (3, 1.69097408652305603027e-02) (4, -3.79777029156684875488e-02) (5, -4.76885102689266204834e-02) (6, -4.83808778226375579834e-02) (0, 8.81997719407081604004e-02) (1, 2.76792421936988830566e-02) (2, -8.92657041549682617188e-03) (3, -3.97391691803932189941e-02) (4, 1.83685123920440673828e-03) (5, -5.44907525181770324707e-02) (6, 3.48089411854743957520e-02) (0, 1.59968361258506774902e-02) (1, 3.05739715695381164551e-02) (2, -6.08639232814311981201e-02) (3, 8.89960676431655883789e-03) (4, 2.51460745930671691895e-02) (5, 3.43187525868415832520e-02) (6, 3.84571030735969543457e-02) (0, -7.22448229789733886719e-02) (1, 8.89707878232002258301e-02) (2, -6.98858052492141723633e-02) (3, -6.50620311498641967773e-02) (4, -8.10672342777252197266e-02) (5, -6.81106150150299072266e-02) (6, 2.53157094120979309082e-02) (0, -3.46270278096199035645e-02) (1, 8.23741778731346130371e-02) (2, -4.64879088103771209717e-02) (3, 9.65890362858772277832e-02) (4, -5.58898597955703735352e-03) (5, -6.95265755057334899902e-02) (6, 1.34987682104110717773e-02) (0, 5.64333274960517883301e-02) (1, -1.72150880098342895508e-02) (2, 6.51179030537605285645e-02) (3, 4.46330830454826354980e-02) (4, -8.95358473062515258789e-02) (5, -4.38086763024330139160e-02) (6, -9.51060876250267028809e-02) (0, 1.23010054230690002441e-02) (1, 1.70056521892547607422e-03) (2, 3.97028699517250061035e-02) (3, -7.17021673917770385742e-02) (4, -6.77254498004913330078e-02) (5, 7.88389518857002258301e-02) (6, 3.71974334120750427246e-02) (0, 5.74206188321113586426e-02) (1, 1.31577029824256896973e-02) (2, -2.43454724550247192383e-02) (3, 8.51758047938346862793e-02) (4, 2.12846696376800537109e-03) (5, 5.76873123645782470703e-03) (6, -7.98862352967262268066e-02) (7, 2.10612416267395019531e-02) (8, 3.76581028103828430176e-02) (9, 4.54294756054878234863e-02) (10, 8.64342078566551208496e-02) (11, 2.00322866439819335938e-02) (12, 9.89415720105171203613e-02) (13, 8.30232426524162292480e-02) (14, -8.55566933751106262207e-02) (15, -7.05849975347518920898e-02) (16, -3.47798317670822143555e-03) (17, 7.08766207098960876465e-02) (18, 1.21999159455299377441e-02) (19, -3.83600890636444091797e-02) (20, 1.55097022652626037598e-02) (21, 2.26640701293945312500e-02) (22, 1.78312286734580993652e-02) (23, 2.04036235809326171875e-02) (24, -6.50349408388137817383e-02) (25, -8.04681926965713500977e-02) (26, -3.98935191333293914795e-02) (27, -3.67370992898941040039e-02) (28, -4.81936447322368621826e-02) (29, -6.10545799136161804199e-02) (30, -9.95396673679351806641e-02) (31, -9.07730162143707275391e-02) (32, 5.21031096577644348145e-02) (33, -2.38851308822631835938e-02) (34, 9.44027975201606750488e-02) (35, -4.57684099674224853516e-02) (36, 8.18835869431495666504e-02) (37, -8.54834467172622680664e-02) (38, 7.52928331494331359863e-02) (39, 1.95416957139968872070e-02) (40, 5.99460378289222717285e-02) (41, 6.17270544171333312988e-02) (42, -6.04260154068470001221e-02) (43, 5.88876083493232727051e-02) (44, 4.47502806782722473145e-02) (45, -4.59827072918415069580e-02) (46, 8.83026048541069030762e-02) (47, -5.87277002632617950439e-02) (48, -7.51060843467712402344e-02) (49, 5.02511858940124511719e-04) (50, 2.91220843791961669922e-03) (51, 4.04036119580268859863e-02) (52, -7.68334120512008666992e-02) (53, -7.92565569281578063965e-02) (54, -3.91927622258663177490e-02) (55, -4.18683476746082305908e-02) (56, -5.97247444093227386475e-02) (57, 2.09137201309204101562e-02) (7, 2.13945508003234863281e-02) (8, -7.91838765144348144531e-03) (9, 5.98591491580009460449e-02) (10, 2.18548774719238281250e-02) (11, 1.30859762430191040039e-03) (12, 1.19622573256492614746e-02) (13, 9.79697480797767639160e-02) (14, -4.28862124681472778320e-03) (15, 6.61938562989234924316e-02) (16, 7.98533484339714050293e-02) (17, 1.02279335260391235352e-02) (18, 4.14866879582405090332e-02) (19, -6.04964792728424072266e-04) (20, -2.98260301351547241211e-02) (21, 3.21372598409652709961e-03) (22, 3.89690175652503967285e-02) (23, -7.09384307265281677246e-02) (24, -5.20359873771667480469e-02) (25, 9.29863080382347106934e-02) (26, -8.26358273625373840332e-02) (27, -1.07636898756027221680e-02) (28, -8.21197777986526489258e-02) (29, 1.78666934370994567871e-02) (30, 9.21485200524330139160e-02) (31, 5.82838431000709533691e-02) (32, 4.10332754254341125488e-02) (33, -8.71080309152603149414e-02) (34, -8.09089168906211853027e-02) (35, 9.91649255156517028809e-02) (36, -4.68327775597572326660e-02) (37, 4.00047972798347473145e-02) (38, 2.05594748258590698242e-02) (39, 4.52488288283348083496e-02) (40, -1.36055052280426025391e-04) (41, -5.75856417417526245117e-02) (42, -5.34425675868988037109e-02) (43, -8.81737917661666870117e-02) (44, -5.96158914268016815186e-02) (45, 4.22688201069831848145e-02) (46, 7.80200585722923278809e-02) (47, -7.97625482082366943359e-02) (48, -4.75032590329647064209e-02) (49, 1.95067524909973144531e-02) (50, 1.96324810385704040527e-02) (51, 2.26707085967063903809e-02) (52, -7.72795230150222778320e-02) (53, -4.13984954357147216797e-02) (54, 5.17322793602943420410e-02) (55, -2.93155163526535034180e-02) (56, -4.84121814370155334473e-02) (57, 6.90964534878730773926e-02) (7, 5.99207952618598937988e-02) (8, -3.05319577455520629883e-02) (9, -1.30368545651435852051e-02) (10, 5.20693138241767883301e-02) (11, -7.22481086850166320801e-02) (12, -7.20035731792449951172e-02) (13, 6.49612918496131896973e-02) (14, -5.31570240855216979980e-02) (15, -7.28386491537094116211e-02) (16, -8.18714946508407592773e-02) (17, 8.68477895855903625488e-02) (18, 4.77208271622657775879e-02) (19, 6.33773431181907653809e-02) (20, -1.32882744073867797852e-02) (21, 9.01351794600486755371e-02) (22, -9.00652259588241577148e-02) (23, -1.46205723285675048828e-03) (24, -6.94807022809982299805e-02) (25, 5.22035881876945495605e-02) (26, -2.34420001506805419922e-02) (27, -4.92432527244091033936e-02) (28, -9.52996686100959777832e-02) (29, 9.60647538304328918457e-02) (30, 7.03892335295677185059e-02) (31, 2.73710563778877258301e-02) (32, -8.12147781252861022949e-02) (33, -7.10092559456825256348e-02) (34, -2.08966732025146484375e-02) (35, -1.05302929878234863281e-02) (36, -1.94214433431625366211e-02) (37, -5.18002174794673919678e-02) (38, -5.06094954907894134521e-02) (39, 5.00466153025627136230e-02) (40, 3.51629331707954406738e-02) (41, -9.85401794314384460449e-02) (42, 7.77984932065010070801e-02) (43, 6.31593540310859680176e-02) (44, 6.64211139082908630371e-02) (45, -7.53585249185562133789e-02) (46, 9.03207138180732727051e-02) (47, 8.45496132969856262207e-02) (48, -8.85107442736625671387e-02) (49, 3.80415394902229309082e-02) (50, 4.79269698262214660645e-02) (51, -1.79900974035263061523e-03) (52, 2.81767174601554870605e-02) (53, 5.78617528080940246582e-02) (54, 9.67389270663261413574e-02) (55, 5.86960092186927795410e-02) (56, 1.00653320550918579102e-02) (57, -2.67030745744705200195e-02) (7, -9.05472412705421447754e-02) (8, 1.47656649351119995117e-02) (9, -3.06383222341537475586e-02) (10, 7.98419937491416931152e-02) (11, -5.78632913529872894287e-02) (12, -1.18530988693237304688e-02) (13, -9.11672636866569519043e-02) (14, 2.12400406599044799805e-02) (15, 7.76166096329689025879e-02) (16, -1.05887055397033691406e-02) (17, 6.94398358464241027832e-02) (18, -7.29928761720657348633e-02) (19, -6.05420954525470733643e-02) (20, 4.60275262594223022461e-03) (21, -7.15330541133880615234e-02) (22, -8.27436000108718872070e-02) (23, -3.22378948330879211426e-02) (24, 9.48880538344383239746e-02) (25, -5.81021234393119812012e-02) (26, -4.19171936810016632080e-02) (27, 7.94376805424690246582e-02) (28, -4.66128662228584289551e-02) (29, 9.61243435740470886230e-02) (30, 2.73646339774131774902e-02) (31, 5.15881255269050598145e-02) (32, 2.43010520935058593750e-02) (33, -1.47736221551895141602e-02) (34, 4.83270511031150817871e-02) (35, -1.70029252767562866211e-02) (36, 9.52917113900184631348e-02) (37, -7.83760249614715576172e-02) (38, -7.55016505718231201172e-03) (39, 1.00573748350143432617e-02) (40, -9.01433825492858886719e-03) (41, -2.77081727981567382812e-02) (42, 5.21940961480140686035e-02) (43, 7.91325643658638000488e-02) (44, -1.88754349946975708008e-02) (45, -2.65658646821975708008e-02) (46, 5.67491725087165832520e-02) (47, 7.05358609557151794434e-02) (48, -5.71260452270507812500e-02) (49, 8.37562903761863708496e-02) (50, -9.00062397122383117676e-02) (51, 4.74767163395881652832e-02) (52, -8.77767577767372131348e-02) (53, -7.27498307824134826660e-02) (54, -8.47611874341964721680e-02) (55, -9.28887054324150085449e-02) (56, -3.08519527316093444824e-02) (57, -2.66783758997917175293e-02) (7, 8.65489766001701354980e-02) (8, 2.25351825356483459473e-02) (9, -3.05540412664413452148e-02) (10, 1.39136165380477905273e-02) (11, -2.58766934275627136230e-02) (12, 9.37470272183418273926e-02) (13, 9.91399958729743957520e-02) (14, -7.75496438145637512207e-02) (15, -2.32559069991111755371e-02) (16, 9.44317057728767395020e-02) (17, -5.59256635606288909912e-02) (18, 6.91939219832420349121e-02) (19, 4.48908656835556030273e-03) (20, 3.50599959492683410645e-02) (21, -5.85142485797405242920e-02) (22, -4.33168224990367889404e-02) (23, 1.41925588250160217285e-02) (24, 2.26103216409683227539e-02) (25, 3.01173105835914611816e-02) (26, -2.90582627058029174805e-02) (27, -6.85382634401321411133e-03) (28, 7.29912593960762023926e-02) (29, -4.53019700944423675537e-02) (30, 3.13993543386459350586e-03) (31, 2.04679593443870544434e-02) (32, -3.30787226557731628418e-02) (33, 3.03901061415672302246e-02) (34, 3.57067808508872985840e-02) (35, -2.59674265980720520020e-02) (36, 9.95381549000740051270e-02) (37, -9.09716039896011352539e-02) (38, -3.94184552133083343506e-02) (39, 2.20733433961868286133e-02) (40, -2.15256363153457641602e-02) (41, 7.44951590895652770996e-02) (42, 9.61966440081596374512e-02) (43, -2.77786105871200561523e-02) (44, 7.36351683735847473145e-02) (45, -8.13530012965202331543e-02) (46, 4.89654764533042907715e-02) (47, 6.80668726563453674316e-02) (48, -3.72786670923233032227e-02) (49, 1.81594043970108032227e-02) (50, -2.74440497159957885742e-02) (51, 9.77813228964805603027e-02) (52, 5.96451535820960998535e-02) (53, 2.92391255497932434082e-02) (54, 1.19738802313804626465e-02) (55, -1.77445262670516967773e-02) (56, -4.06435616314411163330e-02) (57, 8.29156115651130676270e-02) (7, 7.54016563296318054199e-02) (8, -6.76523000001907348633e-02) (9, -6.23863562941551208496e-02) (10, -2.14584097266197204590e-02) (11, 5.28156682848930358887e-02) (12, 4.53492254018783569336e-03) (13, -9.10683050751686096191e-02) (14, -1.14775523543357849121e-02) (15, 7.85674974322319030762e-02) (16, -9.15301516652107238770e-02) (17, -2.44915485382080078125e-03) (18, -6.08509592711925506592e-02) (19, 3.05431857705116271973e-02) (20, 7.60252103209495544434e-02) (21, -8.63557979464530944824e-02) (22, 2.67398431897163391113e-02) (23, -5.17534092068672180176e-02) (24, 8.72793719172477722168e-02) (25, 4.53868284821510314941e-02) (26, 9.72120687365531921387e-02) (27, 5.53462430834770202637e-02) (28, -9.18918401002883911133e-02) (29, 1.53714641928672790527e-02) (30, -7.20978081226348876953e-02) (31, -9.41105186939239501953e-02) (32, -2.49833762645721435547e-02) (33, 5.71413114666938781738e-02) (34, 1.78633704781532287598e-02) (35, 5.72720840573310852051e-02) (36, -8.35022404789924621582e-02) (37, 7.78988003730773925781e-04) (38, 3.26737388968467712402e-02) (39, -5.11545427143573760986e-02) (40, 3.83926257491111755371e-02) (41, -8.87846723198890686035e-02) (42, -9.83388796448707580566e-02) (43, -5.70724569261074066162e-02) (44, -7.98529759049415588379e-02) (45, -9.81643050909042358398e-03) (46, -7.85049647092819213867e-02) (47, -7.13831260800361633301e-02) (48, 8.77344086766242980957e-02) (49, -3.93559224903583526611e-02) (50, 5.91600611805915832520e-02) (51, 6.37596324086189270020e-02) (52, -2.57117226719856262207e-02) (53, -1.41001045703887939453e-02) (54, -8.79937931895256042480e-02) (55, -3.84323559701442718506e-02) (56, -6.87132775783538818359e-02) (57, -9.07817259430885314941e-02) 
