FANN_FLO_2.1
num_layers=3
learning_rate=0.200000
connection_rate=1.000000
network_type=0
learning_momentum=0.600000
training_algorithm=0
train_error_function=1
train_stop_function=0
cascade_output_change_fraction=0.010000
quickprop_decay=-0.000100
quickprop_mu=1.750000
rprop_increase_factor=1.200000
rprop_decrease_factor=0.500000
rprop_delta_min=0.000000
rprop_delta_max=50.000000
rprop_delta_zero=0.100000
cascade_output_stagnation_epochs=12
cascade_candidate_change_fraction=0.010000
cascade_candidate_stagnation_epochs=12
cascade_max_out_epochs=150
cascade_min_out_epochs=50
cascade_max_cand_epochs=150
cascade_min_cand_epochs=50
cascade_num_candidate_groups=2
bit_fail_limit=3.49999994039535522461e-01
cascade_candidate_limit=1.00000000000000000000e+03
cascade_weight_multiplier=4.00000005960464477539e-01
cascade_activation_functions_count=10
cascade_activation_functions=3 5 7 8 10 11 14 15 16 17 
cascade_activation_steepnesses_count=4
cascade_activation_steepnesses=2.50000000000000000000e-01 5.00000000000000000000e-01 7.50000000000000000000e-01 1.00000000000000000000e+00 
layer_sizes=14 26 7 
scale_included=0
neurons (num_inputs, activation_function, activation_steepness)=(0, 0, 0.00000000000000000000e+00) (0, 0, 0.00000000000000000000e+00) (0, 0, 0.00000000000000000000e+00) (0, 0, 0.00000000000000000000e+00) (0, 0, 0.00000000000000000000e+00) (0, 0, 0.00000000000000000000e+00) (0, 0, 0.00000000000000000000e+00) (0, 0, 0.00000000000000000000e+00) (0, 0, 0.00000000000000000000e+00) (0, 0, 0.00000000000000000000e+00) (0, 0, 0.00000000000000000000e+00) (0, 0, 0.00000000000000000000e+00) (0, 0, 0.00000000000000000000e+00) (0, 0, 0.00000000000000000000e+00) (14, 5, 5.00000000000000000000e-01) (14, 5, 5.00000000000000000000e-01) (14, 5, 5.00000000000000000000e-01) (14, 5, 5.00000000000000000000e-01) (14, 5, 5.00000000000000000000e-01) (14, 5, 5.00000000000000000000e-01) (14, 5, 5.00000000000000000000e-01) (14, 5, 5.00000000000000000000e-01) (14, 5, 5.00000000000000000000e-01) (14, 5, 5.00000000000000000000e-01) (14, 5, 5.00000000000000000000e-01) (14, 5, 5.00000000000000000000e-01) (14, 5, 5.00000000000000000000e-01) (14, 5, 5.00000000000000000000e-01) (14, 5, 5.00000000000000000000e-01) (14, 5, 5.00000000000000000000e-01) (14, 5, 5.00000000000000000000e-01) (14, 5, 5.00000000000000000000e-01) (14, 5, 5.00000000000000000000e-01) (14, 5, 5.00000000000000000000e-01) (14, 5, 5.00000000000000000000e-01) (14, 5, 5.00000000000000000000e-01) (14, 5, 5.00000000000000000000e-01) (14, 5, 5.00000000000000000000e-01) (14, 5, 5.00000000000000000000e-01) (0, 5, 0.00000000000000000000e+00) (26, 5, 5.00000000000000000000e-01) (26, 5, 5.00000000000000000000e-01) (26, 5, 5.00000000000000000000e-01) (26, 5, 5.00000000000000000000e-01) (26, 5, 5.00000000000000000000e-01) (26, 5, 5.00000000000000000000e-01) (0, 5, 0.00000000000000000000e+00) 
connections (connected_to_neuron, weight)=(0, -8.92508924007415771484e-02) (1, 3.33322510123252868652e-02) (2, 8.12947526574134826660e-02) (3, 4.86471727490425109863e-02) (4, -4.84401732683181762695e-03) (5, 3.19300964474678039551e-02) (6, -6.29408657550811767578e-03) (7, -4.41317670047283172607e-02) (8, -4.68453131616115570068e-02) (9, 8.47181752324104309082e-02) (10, 1.13670527935028076172e-03) (11, -6.15339428186416625977e-02) (12, 2.45340242981910705566e-02) (13, 7.18179568648338317871e-02) (0, -3.26678156852722167969e-03) (1, -5.14424480497837066650e-02) (2, -1.22865289449691772461e-02) (3, -7.05975294113159179688e-03) (4, -1.07661634683609008789e-02) (5, -3.59039157629013061523e-02) (6, -4.00632880628108978271e-02) (7, -1.37152075767517089844e-02) (8, -1.30541622638702392578e-02) (9, -7.23777711391448974609e-03) (10, -4.53394316136837005615e-02) (11, -1.82663649320602416992e-02) (12, -1.02901309728622436523e-02) (13, 1.14722028374671936035e-02) (0, -1.40508115291595458984e-02) (1, -3.51186543703079223633e-02) (2, -3.76781076192855834961e-03) (3, -3.30170243978500366211e-03) (4, 9.82136204838752746582e-02) (5, -2.24730595946311950684e-02) (6, -5.46545423567295074463e-02) (7, -6.63040578365325927734e-03) (8, -9.05429646372795104980e-02) (9, 3.90513762831687927246e-02) (10, 4.92378249764442443848e-02) (11, -3.73882800340652465820e-02) (12, 2.37695574760437011719e-02) (13, -4.96254675090312957764e-02) (0, 1.07778608798980712891e-03) (1, -5.16964159905910491943e-02) (2, -7.78075158596038818359e-02) (3, 9.78109911084175109863e-02) (4, -3.13885509967803955078e-03) (5, 9.90595668554306030273e-03) (6, -9.24875587224960327148e-03) (7, 8.60949829220771789551e-02) (8, 7.40020498633384704590e-02) (9, 5.06879612803459167480e-02) (10, -2.76202335953712463379e-02) (11, -3.90521176159381866455e-02) (12, -5.65498173236846923828e-02) (13, 2.70403400063514709473e-02) (0, 4.26815226674079895020e-02) (1, 3.31600382924079895020e-02) (2, -6.14874660968780517578e-02) (3, -7.13692978024482727051e-02) (4, 9.80413928627967834473e-02) (5, 3.47447171807289123535e-02) (6, 2.53290012478828430176e-02) (7, 9.62550118565559387207e-02) (8, -8.77283439040184020996e-02) (9, 7.06744566559791564941e-02) (10, -1.03753954172134399414e-02) (11, -7.82713070511817932129e-02) (12, 9.72583144903182983398e-03) (13, -6.11375756561756134033e-02) (0, -1.56595855951309204102e-02) (1, -6.65046125650405883789e-02) (2, -1.07630416750907897949e-02) (3, 8.54181870818138122559e-02) (4, -1.82010158896446228027e-02) (5, 1.14294439554214477539e-02) (6, 8.32291916012763977051e-02) (7, 7.86601230502128601074e-02) (8, -7.86645933985710144043e-02) (9, -2.60195657610893249512e-02) (10, 6.47550895810127258301e-02) (11, 9.53374579548835754395e-02) (12, -7.53316059708595275879e-02) (13, -6.28651380538940429688e-02) (0, -4.37146611511707305908e-02) (1, -3.18814292550086975098e-02) (2, 6.41751959919929504395e-02) (3, 9.89668443799018859863e-02) (4, -9.87213850021362304688e-02) (5, -9.73122641444206237793e-02) (6, -7.24024474620819091797e-02) (7, 9.93200168013572692871e-02) (8, 3.74324545264244079590e-02) (9, 5.29265478253364562988e-02) (10, 9.55750271677970886230e-02) (11, 4.97041121125221252441e-02) (12, 2.36010104417800903320e-02) (13, -1.48003771901130676270e-02) (0, 7.14328065514564514160e-02) (1, -6.66731595993041992188e-02) (2, 2.40620523691177368164e-02) (3, -4.42267842590808868408e-02) (4, -3.31777632236480712891e-02) (5, -8.67009907960891723633e-02) (6, -5.88085912168025970459e-02) (7, 4.86212298274040222168e-02) (8, 2.47284546494483947754e-02) (9, -7.55794048309326171875e-02) (10, 2.72813513875007629395e-02) (11, 4.60638627409934997559e-02) (12, -1.59896910190582275391e-03) (13, -7.96356052160263061523e-03) (0, 4.14013192057609558105e-02) (1, 2.30694264173507690430e-02) (2, 2.91712954640388488770e-02) (3, 9.76866558194160461426e-02) (4, 9.11880061030387878418e-02) (5, -6.65350258350372314453e-03) (6, 9.66535136103630065918e-02) (7, 9.24666151404380798340e-02) (8, -3.96576523780822753906e-03) (9, -7.57489427924156188965e-02) (10, 9.17866304516792297363e-02) (11, -6.65333122014999389648e-02) (12, 7.71776214241981506348e-02) (13, 8.73616561293601989746e-02) (0, 8.31708088517189025879e-02) (1, 7.78630375862121582031e-04) (2, -2.74387225508689880371e-02) (3, 5.46035990118980407715e-02) (4, 3.41054722666740417480e-02) (5, 9.66233238577842712402e-02) (6, -8.96231755614280700684e-02) (7, -9.90722924470901489258e-02) (8, -9.00776684284210205078e-02) (9, -4.84317652881145477295e-02) (10, 4.95489314198493957520e-02) (11, 3.46507951617240905762e-02) (12, -2.40111723542213439941e-02) (13, -2.31697261333465576172e-02) (0, -1.92853510379791259766e-02) (1, 7.43898674845695495605e-02) (2, 6.88667222857475280762e-02) (3, -7.78840407729148864746e-02) (4, -2.54071503877639770508e-03) (5, -1.96198374032974243164e-03) (6, -8.01973864436149597168e-02) (7, -1.13527178764343261719e-02) (8, 9.13845226168632507324e-02) (9, -8.35438817739486694336e-02) (10, -1.88861042261123657227e-02) (11, -1.25812441110610961914e-02) (12, -5.92928193509578704834e-02) (13, -2.70994678139686584473e-02) (0, 2.08854451775550842285e-02) (1, -8.21152031421661376953e-02) (2, -3.97378094494342803955e-02) (3, 4.05625253915786743164e-03) (4, 1.86634212732315063477e-02) (5, 3.28234657645225524902e-02) (6, -4.13401499390602111816e-02) (7, -4.72311154007911682129e-02) (8, 2.94467881321907043457e-02) (9, -3.09633240103721618652e-02) (10, -4.63034026324748992920e-02) (11, 3.93691137433052062988e-02) (12, 2.06049084663391113281e-02) (13, -9.67544689774513244629e-02) (0, -2.59800925850868225098e-02) (1, 9.65937450528144836426e-02) (2, -1.99241936206817626953e-02) (3, 5.47345653176307678223e-02) (4, 7.09835961461067199707e-02) (5, -5.10574840009212493896e-02) (6, 7.68505260348320007324e-02) (7, -3.15571129322052001953e-02) (8, 4.69805374741554260254e-02) (9, 9.66531410813331604004e-02) (10, 5.70901706814765930176e-02) (11, 3.83650586009025573730e-02) (12, -8.68907421827316284180e-02) (13, -6.17959313094615936279e-02) (0, -7.42162019014358520508e-02) (1, -4.61835637688636779785e-02) (2, 1.11046060919761657715e-02) (3, 4.66692522168159484863e-02) (4, -2.82987728714942932129e-02) (5, 7.13667944073677062988e-02) (6, -4.92745116353034973145e-02) (7, 9.03646424412727355957e-02) (8, 4.19025123119354248047e-03) (9, 9.38534736633300781250e-03) (10, -5.68664632737636566162e-02) (11, -6.63629546761512756348e-02) (12, 7.84220173954963684082e-02) (13, -3.16986441612243652344e-03) (0, 7.30061754584312438965e-02) (1, -9.73075628280639648438e-04) (2, 7.56606459617614746094e-05) (3, -5.29739186167716979980e-02) (4, -4.37933951616287231445e-03) (5, 8.01514759659767150879e-02) (6, -9.82393622398376464844e-02) (7, -3.33957374095916748047e-02) (8, -7.09060132503509521484e-02) (9, 7.86111578345298767090e-02) (10, 3.50471511483192443848e-02) (11, 7.60745182633399963379e-02) (12, 7.52642974257469177246e-02) (13, -7.86267966032028198242e-03) (0, 1.44395679235458374023e-02) (1, 8.83735492825508117676e-02) (2, 3.03413942456245422363e-02) (3, 4.02233675122261047363e-02) (4, -5.78100085258483886719e-02) (5, -5.85540086030960083008e-02) (6, -1.31073817610740661621e-02) (7, 1.38912200927734375000e-02) (8, -8.71872231364250183105e-02) (9, 3.76181080937385559082e-02) (10, 4.25586849451065063477e-03) (11, 1.70030370354652404785e-02) (12, -5.29965497553348541260e-02) (13, 4.73894104361534118652e-02) (0, 5.06400838494300842285e-02) (1, -7.45745301246643066406e-02) (2, -5.57804554700851440430e-02) (3, 2.36462578177452087402e-02) (4, 2.44523882865905761719e-02) (5, 4.42952141165733337402e-02) (6, 7.06723406910896301270e-02) (7, -7.99269527196884155273e-02) (8, 2.44466811418533325195e-02) (9, 7.24329873919486999512e-02) (10, -1.33226886391639709473e-02) (11, 5.35406693816184997559e-02) (12, 5.10441437363624572754e-02) (13, -7.82755389809608459473e-02) (0, 2.96151861548423767090e-02) (1, 2.63084396719932556152e-02) (2, 1.38617753982543945312e-02) (3, -5.59452399611473083496e-02) (4, 1.46819949150085449219e-02) (5, -5.57968355715274810791e-02) (6, 8.42781290411949157715e-02) (7, 5.68719878792762756348e-02) (8, -1.43508464097976684570e-02) (9, -2.88292467594146728516e-02) (10, -2.92367860674858093262e-02) (11, -1.53806060552597045898e-03) (12, -9.12111401557922363281e-02) (13, 7.50190839171409606934e-02) (0, -8.45350250601768493652e-02) (1, -4.42076884210109710693e-02) (2, 2.24085003137588500977e-02) (3, 6.61050751805305480957e-02) (4, -1.87822133302688598633e-02) (5, 6.66280463337898254395e-02) (6, -1.02486759424209594727e-02) (7, -9.43298265337944030762e-02) (8, 1.09232515096664428711e-02) (9, -3.95763404667377471924e-02) (10, -7.42567703127861022949e-02) (11, -6.46300688385963439941e-02) (12, -6.71433582901954650879e-02) (13, 1.24205350875854492188e-02) (0, 8.89106020331382751465e-02) (1, 8.39007869362831115723e-02) (2, 3.41450050473213195801e-02) (3, 1.85257941484451293945e-02) (4, 1.02092251181602478027e-02) (5, -5.19932210445404052734e-02) (6, 6.25805482268333435059e-02) (7, -7.51087740063667297363e-02) (8, -7.79005140066146850586e-03) (9, 4.68586906790733337402e-02) (10, 8.17632153630256652832e-02) (11, 7.78591111302375793457e-02) (12, -8.19705575704574584961e-02) (13, -4.74735759198665618896e-02) (0, -2.36789584159851074219e-02) (1, -7.31816887855529785156e-02) (2, -7.24544897675514221191e-02) (3, -8.21398198604583740234e-03) (4, -1.73893719911575317383e-02) (5, 4.99540045857429504395e-02) (6, -4.21089194715023040771e-02) (7, 6.38284161686897277832e-02) (8, 1.65820494294166564941e-02) (9, 4.76424023509025573730e-02) (10, 6.94985911250114440918e-02) (11, -7.24947005510330200195e-02) (12, -9.19339358806610107422e-02) (13, 9.52418074011802673340e-02) (0, -3.71247678995132446289e-02) (1, -5.90772926807403564453e-02) (2, 7.66234099864959716797e-03) (3, -4.82141673564910888672e-02) (4, -7.51765072345733642578e-02) (5, -5.81926517188549041748e-02) (6, 7.03116133809089660645e-02) (7, 3.50327119231224060059e-02) (8, -1.01858675479888916016e-02) (9, 3.28921750187873840332e-02) (10, 5.99239543080329895020e-02) (11, 8.20240750908851623535e-02) (12, -2.02491432428359985352e-02) (13, 4.16871532797813415527e-02) (0, 5.98831847310066223145e-02) (1, -2.21969187259674072266e-03) (2, 9.42135825753211975098e-02) (3, -6.37957900762557983398e-02) (4, 2.45986133813858032227e-02) (5, -7.82409012317657470703e-02) (6, 2.79902294278144836426e-02) (7, -9.27907675504684448242e-02) (8, 7.17130973935127258301e-02) (9, 8.58813151717185974121e-02) (10, 7.10376426577568054199e-02) (11, -1.17048472166061401367e-02) (12, 3.35237160325050354004e-02) (13, 4.05362322926521301270e-02) (0, 1.58004537224769592285e-02) (1, 4.15897890925407409668e-02) (2, 3.57780382037162780762e-02) (3, 7.86756798624992370605e-02) (4, 8.25124904513359069824e-02) (5, -5.65596185624599456787e-02) (6, -6.95384889841079711914e-02) (7, -9.26640257239341735840e-02) (8, -1.47522687911987304688e-02) (9, -9.92268696427345275879e-02) (10, 4.23687025904655456543e-02) (11, 7.50618651509284973145e-02) (12, 3.36653068661689758301e-02) (13, 2.29263305664062500000e-03) (0, 5.70859387516975402832e-02) (1, -8.65838378667831420898e-02) (2, -5.60202077031135559082e-02) (3, 1.69691219925880432129e-02) (4, 1.11964717507362365723e-02) (5, -6.18066228926181793213e-02) (6, 5.31733259558677673340e-02) (7, -6.42049163579940795898e-02) (8, -4.00475263595581054688e-02) (9, -1.88364312052726745605e-02) (10, -5.69956861436367034912e-02) (11, -6.83344155550003051758e-02) (12, -3.29551249742507934570e-02) (13, -8.59580412507057189941e-02) (14, 1.99607387185096740723e-02) (15, -9.94314029812812805176e-02) (16, 5.45781925320625305176e-02) (17, -6.42388164997100830078e-02) (18, 4.21583727002143859863e-02) (19, -9.64377820491790771484e-03) (20, -8.55631381273269653320e-02) (21, 2.46708616614341735840e-02) (22, 3.37966009974479675293e-02) (23, -5.51016256213188171387e-02) (24, 3.20068523287773132324e-02) (25, -8.09556692838668823242e-02) (26, -5.43284937739372253418e-02) (27, -2.56244614720344543457e-02) (28, 9.41062048077583312988e-02) (29, 7.93368145823478698730e-02) (30, 7.66681805253028869629e-02) (31, 5.11921420693397521973e-02) (32, 9.27529856562614440918e-02) (33, -7.93520286679267883301e-02) (34, -3.18387448787689208984e-02) (35, 3.94944846630096435547e-03) (36, -4.11586537957191467285e-02) (37, -7.86654129624366760254e-02) (38, 3.97445335984230041504e-02) (39, 1.87938213348388671875e-02) (14, 2.49814987182617187500e-03) (15, 8.27488526701927185059e-02) (16, 5.04594072699546813965e-02) (17, 6.95430412888526916504e-02) (18, 9.67907980084419250488e-02) (19, -2.95798629522323608398e-02) (20, 7.01116397976875305176e-02) (21, 5.13689890503883361816e-02) (22, 6.18132203817367553711e-03) (23, 1.22700110077857971191e-02) (24, -5.82747943699359893799e-02) (25, 2.06181854009628295898e-02) (26, -6.30591213703155517578e-02) (27, 7.55218043923377990723e-02) (28, 6.55165538191795349121e-02) (29, 6.89477249979972839355e-02) (30, 9.45661440491676330566e-02) (31, -8.88119339942932128906e-02) (32, -5.66767416894435882568e-02) (33, 8.86723473668098449707e-02) (34, 9.05248746275901794434e-02) (35, -8.00085663795471191406e-02) (36, 3.98644879460334777832e-02) (37, 8.32778587937355041504e-02) (38, -5.93605972826480865479e-02) (39, -9.19742658734321594238e-02) (14, -1.27726942300796508789e-02) (15, -5.19245862960815429688e-04) (16, -7.06396773457527160645e-02) (17, -7.30281546711921691895e-02) (18, -8.17254260182380676270e-02) (19, 3.18584814667701721191e-02) (20, -9.02793109416961669922e-02) (21, 6.87339827418327331543e-02) (22, 1.40150636434555053711e-03) (23, -9.34884995222091674805e-02) (24, -6.08458817005157470703e-02) (25, -2.84868627786636352539e-02) (26, 5.78804835677146911621e-02) (27, 4.53354343771934509277e-02) (28, 8.37831571698188781738e-02) (29, 9.96056869626045227051e-02) (30, -3.40463817119598388672e-02) (31, -7.92759731411933898926e-02) (32, 7.51275047659873962402e-02) (33, -6.85298219323158264160e-02) (34, 8.96717533469200134277e-02) (35, 6.96936473250389099121e-02) (36, -5.73417544364929199219e-02) (37, -6.70049935579299926758e-02) (38, 5.83659932017326354980e-02) (39, -6.68168812990188598633e-02) (14, -4.70135584473609924316e-02) (15, -1.76953524351119995117e-03) (16, -8.35390165448188781738e-02) (17, -6.37415051460266113281e-03) (18, 6.25620037317276000977e-03) (19, 3.68829816579818725586e-03) (20, 9.31066051125526428223e-02) (21, 3.56165245175361633301e-02) (22, 3.06601449847221374512e-02) (23, -8.86188223958015441895e-02) (24, -3.25250104069709777832e-02) (25, 4.03808429837226867676e-02) (26, 8.01151618361473083496e-02) (27, 6.88764974474906921387e-02) (28, 4.68923375010490417480e-02) (29, -8.07307213544845581055e-02) (30, -5.96103630959987640381e-02) (31, 4.77281957864761352539e-03) (32, 6.46047219634056091309e-02) (33, -7.58272111415863037109e-02) (34, 4.37851250171661376953e-03) (35, -6.94416612386703491211e-02) (36, -5.51031790673732757568e-02) (37, -2.04939842224121093750e-02) (38, -3.79714779555797576904e-02) (39, -6.54314309358596801758e-02) (14, -5.08003421127796173096e-02) (15, 4.68675792217254638672e-03) (16, -3.24364155530929565430e-02) (17, -9.24343615770339965820e-02) (18, 3.78698930144309997559e-02) (19, 2.05500349402427673340e-02) (20, 5.79611212015151977539e-03) (21, 5.43308779597282409668e-02) (22, -8.58241170644760131836e-02) (23, -8.79477038979530334473e-02) (24, -4.19808290898799896240e-02) (25, -9.27175134420394897461e-02) (26, 4.76688221096992492676e-02) (27, 8.86793211102485656738e-02) (28, -8.13363343477249145508e-02) (29, -8.48561972379684448242e-02) (30, 2.90601328015327453613e-02) (31, 9.87788215279579162598e-02) (32, 8.40203091502189636230e-02) (33, -2.40475311875343322754e-02) (34, -8.19518938660621643066e-02) (35, -7.55900591611862182617e-02) (36, 8.07252898812294006348e-02) (37, 8.26528146862983703613e-02) (38, -5.14172650873661041260e-02) (39, -1.48961991071701049805e-02) (14, -8.67888405919075012207e-02) (15, -6.52043521404266357422e-03) (16, 6.46098181605339050293e-02) (17, -2.47603207826614379883e-02) (18, 2.80481353402137756348e-02) (19, -8.61905217170715332031e-02) (20, 7.99264386296272277832e-02) (21, 9.56117287278175354004e-02) (22, -7.86248818039894104004e-02) (23, 1.77963376045227050781e-02) (24, 1.61617547273635864258e-02) (25, 2.71712318062782287598e-02) (26, -2.78727859258651733398e-02) (27, 3.03376391530036926270e-02) (28, 3.92235293984413146973e-02) (29, 3.01463827490806579590e-02) (30, 3.76201197504997253418e-02) (31, -1.31076574325561523438e-02) (32, 1.88256949186325073242e-02) (33, 5.62837794423103332520e-02) (34, 2.03613936901092529297e-03) (35, -5.21141663193702697754e-02) (36, 5.50625994801521301270e-02) (37, -1.39435529708862304688e-02) (38, 2.38383039832115173340e-02) (39, 7.31107071042060852051e-02) 
