FANN_FLO_2.1
num_layers=3
learning_rate=0.200000
connection_rate=1.000000
network_type=0
learning_momentum=0.600000
training_algorithm=0
train_error_function=1
train_stop_function=0
cascade_output_change_fraction=0.010000
quickprop_decay=-0.000100
quickprop_mu=1.750000
rprop_increase_factor=1.200000
rprop_decrease_factor=0.500000
rprop_delta_min=0.000000
rprop_delta_max=50.000000
rprop_delta_zero=0.100000
cascade_output_stagnation_epochs=12
cascade_candidate_change_fraction=0.010000
cascade_candidate_stagnation_epochs=12
cascade_max_out_epochs=150
cascade_min_out_epochs=50
cascade_max_cand_epochs=150
cascade_min_cand_epochs=50
cascade_num_candidate_groups=2
bit_fail_limit=3.49999994039535522461e-01
cascade_candidate_limit=1.00000000000000000000e+03
cascade_weight_multiplier=4.00000005960464477539e-01
cascade_activation_functions_count=10
cascade_activation_functions=3 5 7 8 10 11 14 15 16 17 
cascade_activation_steepnesses_count=4
cascade_activation_steepnesses=2.50000000000000000000e-01 5.00000000000000000000e-01 7.50000000000000000000e-01 1.00000000000000000000e+00 
layer_sizes=14 26 7 
scale_included=0
neurons (num_inputs, activation_function, activation_steepness)=(0, 0, 0.00000000000000000000e+00) (0, 0, 0.00000000000000000000e+00) (0, 0, 0.00000000000000000000e+00) (0, 0, 0.00000000000000000000e+00) (0, 0, 0.00000000000000000000e+00) (0, 0, 0.00000000000000000000e+00) (0, 0, 0.00000000000000000000e+00) (0, 0, 0.00000000000000000000e+00) (0, 0, 0.00000000000000000000e+00) (0, 0, 0.00000000000000000000e+00) (0, 0, 0.00000000000000000000e+00) (0, 0, 0.00000000000000000000e+00) (0, 0, 0.00000000000000000000e+00) (0, 0, 0.00000000000000000000e+00) (14, 5, 5.00000000000000000000e-01) (14, 5, 5.00000000000000000000e-01) (14, 5, 5.00000000000000000000e-01) (14, 5, 5.00000000000000000000e-01) (14, 5, 5.00000000000000000000e-01) (14, 5, 5.00000000000000000000e-01) (14, 5, 5.00000000000000000000e-01) (14, 5, 5.00000000000000000000e-01) (14, 5, 5.00000000000000000000e-01) (14, 5, 5.00000000000000000000e-01) (14, 5, 5.00000000000000000000e-01) (14, 5, 5.00000000000000000000e-01) (14, 5, 5.00000000000000000000e-01) (14, 5, 5.00000000000000000000e-01) (14, 5, 5.00000000000000000000e-01) (14, 5, 5.00000000000000000000e-01) (14, 5, 5.00000000000000000000e-01) (14, 5, 5.00000000000000000000e-01) (14, 5, 5.00000000000000000000e-01) (14, 5, 5.00000000000000000000e-01) (14, 5, 5.00000000000000000000e-01) (14, 5, 5.00000000000000000000e-01) (14, 5, 5.00000000000000000000e-01) (14, 5, 5.00000000000000000000e-01) (14, 5, 5.00000000000000000000e-01) (0, 5, 0.00000000000000000000e+00) (26, 5, 5.00000000000000000000e-01) (26, 5, 5.00000000000000000000e-01) (26, 5, 5.00000000000000000000e-01) (26, 5, 5.00000000000000000000e-01) (26, 5, 5.00000000000000000000e-01) (26, 5, 5.00000000000000000000e-01) (0, 5, 0.00000000000000000000e+00) 
connections (connected_to_neuron, weight)=(0, 5.44118508696556091309e-02) (1, 8.14734771847724914551e-02) (2, 7.25033655762672424316e-02) (3, 7.52479508519172668457e-02) (4, 8.72577801346778869629e-02) (5, -7.66120031476020812988e-02) (6, -1.92449837923049926758e-02) (7, -2.98470258712768554688e-02) (8, 7.70724937319755554199e-02) (9, -3.43312099575996398926e-02) (10, 2.03760638833045959473e-02) (11, 8.92017260193824768066e-02) (12, 5.37438467144966125488e-02) (13, 8.83387848734855651855e-02) (0, -8.64051952958106994629e-02) (1, -3.12117561697959899902e-02) (2, -8.24172496795654296875e-02) (3, -7.69620388746261596680e-03) (4, -2.38784477114677429199e-02) (5, 8.96055772900581359863e-02) (6, -7.27180540561676025391e-02) (7, 6.05909153819084167480e-02) (8, 4.38594296574592590332e-02) (9, 4.24613431096076965332e-02) (10, 7.90802016854286193848e-02) (11, 2.53132805228233337402e-02) (12, 7.26659372448921203613e-02) (13, -5.88267408311367034912e-02) (0, -2.02357769012451171875e-05) (1, -9.52400043606758117676e-02) (2, -4.19945009052753448486e-02) (3, -4.56083826720714569092e-02) (4, 8.62334892153739929199e-02) (5, -6.94911330938339233398e-02) (6, -7.03604370355606079102e-02) (7, 7.34912678599357604980e-02) (8, -4.61031310260295867920e-02) (9, 1.03945881128311157227e-02) (10, -5.63557632267475128174e-02) (11, -6.90306499600410461426e-02) (12, 7.60633721947669982910e-02) (13, 6.40202984213829040527e-02) (0, -7.98289254307746887207e-02) (1, 2.98072174191474914551e-02) (2, 5.23590818047523498535e-02) (3, -6.62341266870498657227e-02) (4, 9.85954478383064270020e-02) (5, 6.99418261647224426270e-02) (6, 2.60696783661842346191e-02) (7, -2.52829939126968383789e-02) (8, 5.95474019646644592285e-02) (9, 5.33516183495521545410e-02) (10, -6.46920800209045410156e-02) (11, 3.40682268142700195312e-03) (12, -4.18704748153686523438e-03) (13, -8.56118798255920410156e-02) (0, -7.12799057364463806152e-02) (1, -3.15211117267608642578e-02) (2, -4.44386191666126251221e-02) (3, 2.86998674273490905762e-02) (4, -2.67611145973205566406e-02) (5, 1.35668739676475524902e-02) (6, 8.30914750695228576660e-02) (7, -4.05276380479335784912e-02) (8, 4.40757498145103454590e-02) (9, -8.72689634561538696289e-02) (10, -6.70363754034042358398e-02) (11, 9.79726091027259826660e-02) (12, 2.31256261467933654785e-02) (13, -2.33921334147453308105e-02) (0, -7.10580348968505859375e-02) (1, -8.11010599136352539062e-04) (2, -5.93718402087688446045e-02) (3, -5.08869625627994537354e-02) (4, -7.10037946701049804688e-02) (5, 9.29872468113899230957e-02) (6, -1.71210840344429016113e-02) (7, -7.24083408713340759277e-02) (8, 6.29290714859962463379e-02) (9, -9.10514146089553833008e-02) (10, 2.30865180492401123047e-03) (11, 2.24764719605445861816e-02) (12, 6.23002126812934875488e-02) (13, 3.76165732741355895996e-02) (0, -7.41167142987251281738e-02) (1, -4.18868437409400939941e-02) (2, 5.20047023892402648926e-02) (3, -4.53966222703456878662e-02) (4, 2.65920385718345642090e-02) (5, -9.24339219927787780762e-02) (6, 8.33032354712486267090e-02) (7, 9.98309329152107238770e-02) (8, 2.11329609155654907227e-02) (9, 6.63947090506553649902e-02) (10, -4.06967103481292724609e-02) (11, -3.47912907600402832031e-02) (12, 7.91257545351982116699e-02) (13, -7.73308426141738891602e-03) (0, -3.68186831474304199219e-02) (1, 2.25137174129486083984e-03) (2, 6.88747838139533996582e-02) (3, -7.87671655416488647461e-03) (4, -9.85596328973770141602e-02) (5, -9.04970616102218627930e-02) (6, 4.12363186478614807129e-02) (7, -6.95634260773658752441e-02) (8, -9.75098237395286560059e-02) (9, -7.58847668766975402832e-02) (10, -4.19717729091644287109e-02) (11, 6.54192492365837097168e-02) (12, -6.69361799955368041992e-02) (13, 6.03368952870368957520e-02) (0, -1.21042877435684204102e-02) (1, 9.53640416264533996582e-02) (2, -2.04653292894363403320e-03) (3, 1.37789994478225708008e-02) (4, -4.65228147804737091064e-02) (5, -5.00418283045291900635e-02) (6, 6.83823749423027038574e-02) (7, 8.00692364573478698730e-02) (8, -4.24757488071918487549e-02) (9, 5.16856089234352111816e-02) (10, 7.99001529812812805176e-02) (11, 7.86572173237800598145e-02) (12, 1.80803164839744567871e-02) (13, -6.07965551316738128662e-02) (0, -5.61340823769569396973e-02) (1, -2.79392302036285400391e-03) (2, 3.14703658223152160645e-02) (3, 7.04723596572875976562e-03) (4, 9.94574502110481262207e-02) (5, 3.45148146152496337891e-04) (6, 9.91705134510993957520e-02) (7, -9.91021916270256042480e-02) (8, 9.84808057546615600586e-03) (9, 4.04068306088447570801e-02) (10, -6.86656236648559570312e-02) (11, 1.23382583260536193848e-02) (12, 6.45220652222633361816e-02) (13, -1.06373876333236694336e-02) (0, -2.22425013780593872070e-02) (1, 9.75858941674232482910e-02) (2, -5.03004975616931915283e-02) (3, 6.56532123684883117676e-02) (4, 9.29499343037605285645e-02) (5, 4.76529672741889953613e-02) (6, -2.05677896738052368164e-02) (7, -5.35728931427001953125e-02) (8, 9.76111367344856262207e-02) (9, -5.21854236721992492676e-02) (10, -7.35036581754684448242e-02) (11, -4.48646061122417449951e-02) (12, 9.95001867413520812988e-02) (13, -9.36035066843032836914e-02) (0, -6.62073940038681030273e-02) (1, 1.75805091857910156250e-02) (2, -5.44000566005706787109e-02) (3, -2.23414748907089233398e-02) (4, -8.52134227752685546875e-02) (5, 7.70703032612800598145e-02) (6, 8.47057774662971496582e-02) (7, -8.57559740543365478516e-02) (8, -2.25845500826835632324e-02) (9, 8.38762745261192321777e-02) (10, -8.48581641912460327148e-02) (11, 8.72635319828987121582e-02) (12, 2.42831110954284667969e-02) (13, -5.35237789154052734375e-02) (0, -3.98211181163787841797e-04) (1, -1.11948102712631225586e-02) (2, 3.58388349413871765137e-02) (3, 7.73592814803123474121e-02) (4, -1.36089175939559936523e-02) (5, 8.55383351445198059082e-02) (6, 4.30125072598457336426e-02) (7, -2.06589996814727783203e-02) (8, 3.31913158297538757324e-02) (9, -7.75552988052368164062e-02) (10, 2.57681086659431457520e-02) (11, 3.08024510741233825684e-02) (12, -2.97407209873199462891e-02) (13, 5.22644445300102233887e-02) (0, 8.59378501772880554199e-02) (1, -3.02405357360839843750e-02) (2, 5.86609318852424621582e-02) (3, -8.02695453166961669922e-02) (4, 8.73399749398231506348e-02) (5, -9.57391187548637390137e-02) (6, -2.61101871728897094727e-03) (7, -9.78734493255615234375e-02) (8, 8.13312008976936340332e-02) (9, -1.79052501916885375977e-02) (10, -8.36294218897819519043e-02) (11, -4.12533655762672424316e-02) (12, -3.40289697051048278809e-02) (13, -6.84875845909118652344e-02) (0, -5.39898350834846496582e-02) (1, 9.02541354298591613770e-02) (2, -2.20113620162010192871e-02) (3, 4.56119552254676818848e-02) (4, -2.09406688809394836426e-02) (5, -8.61725285649299621582e-02) (6, 2.29712352156639099121e-02) (7, 6.54504075646400451660e-02) (8, 9.93658080697059631348e-02) (9, -3.40162664651870727539e-02) (10, -5.52085936069488525391e-02) (11, 3.25571224093437194824e-02) (12, -1.15715637803077697754e-02) (13, 7.05595090985298156738e-02) (0, -3.66404354572296142578e-02) (1, 5.86877241730690002441e-02) (2, 2.28239521384239196777e-02) (3, -5.07025904953479766846e-02) (4, -7.15528130531311035156e-02) (5, -1.85151025652885437012e-02) (6, -3.09721380472183227539e-02) (7, -8.42128396034240722656e-02) (8, -1.42542198300361633301e-02) (9, 6.64168521761894226074e-02) (10, -8.20862874388694763184e-02) (11, -3.29230278730392456055e-02) (12, -5.14884069561958312988e-02) (13, -6.57157152891159057617e-02) (0, 2.58236005902290344238e-02) (1, 1.44826173782348632812e-02) (2, -3.42032983899116516113e-02) (3, 7.18337818980216979980e-02) (4, 4.73676621913909912109e-03) (5, 4.37853410840034484863e-02) (6, 1.74457281827926635742e-02) (7, 8.37960913777351379395e-02) (8, 5.76128140091896057129e-02) (9, -5.95830343663692474365e-02) (10, 4.92464974522590637207e-02) (11, 5.69786205887794494629e-02) (12, 6.40070438385009765625e-03) (13, 9.40379127860069274902e-02) (0, -1.04642733931541442871e-02) (1, 9.48291495442390441895e-02) (2, 6.45974352955818176270e-02) (3, 5.28953000903129577637e-02) (4, 5.35168722271919250488e-02) (5, -1.25786215066909790039e-02) (6, -9.78073030710220336914e-02) (7, 8.19640532135963439941e-02) (8, 6.89062699675559997559e-02) (9, -2.87794321775436401367e-02) (10, 9.77512076497077941895e-02) (11, -4.53479476273059844971e-02) (12, -6.23625889420509338379e-02) (13, -8.43350738286972045898e-02) (0, 2.17290297150611877441e-02) (1, -1.38509944081306457520e-02) (2, -5.00507876276969909668e-02) (3, -5.24473711848258972168e-02) (4, -9.93683785200119018555e-02) (5, 1.57459154725074768066e-02) (6, -8.06135982275009155273e-02) (7, 5.36838918924331665039e-03) (8, -4.04687412083148956299e-02) (9, 3.68321314454078674316e-02) (10, -1.08355134725570678711e-02) (11, -8.28559324145317077637e-02) (12, 7.72491022944450378418e-02) (13, -6.15890100598335266113e-02) (0, 7.41226747632026672363e-02) (1, -1.63502022624015808105e-02) (2, -6.75510987639427185059e-02) (3, -3.63415926694869995117e-02) (4, -2.15210616588592529297e-02) (5, 9.70463231205940246582e-02) (6, -8.34462940692901611328e-02) (7, -6.80042058229446411133e-02) (8, -1.55322998762130737305e-02) (9, -8.12535956501960754395e-02) (10, -8.60401540994644165039e-02) (11, -4.66260202229022979736e-02) (12, -1.00330263376235961914e-02) (13, -8.82889404892921447754e-02) (0, 8.02604109048843383789e-03) (1, 2.76043787598609924316e-02) (2, -7.26240128278732299805e-02) (3, -7.02449381351470947266e-02) (4, -8.62466171383857727051e-02) (5, -2.26747989654541015625e-02) (6, -2.26923078298568725586e-02) (7, -8.56149867177009582520e-02) (8, 9.30711105465888977051e-02) (9, -3.30591201782226562500e-03) (10, 1.97534114122390747070e-02) (11, -4.73976247012615203857e-02) (12, -6.64737820625305175781e-02) (13, -9.10821110010147094727e-02) (0, -3.02535519003868103027e-02) (1, -8.92246887087821960449e-02) (2, -5.26711158454418182373e-02) (3, -5.61308674514293670654e-02) (4, -5.57489693164825439453e-03) (5, -2.02222093939781188965e-02) (6, 7.52754509449005126953e-03) (7, 7.29040428996086120605e-02) (8, -2.31758803129196166992e-02) (9, 2.40812450647354125977e-02) (10, -9.51001644134521484375e-02) (11, 6.12918213009834289551e-02) (12, 4.28276583552360534668e-02) (13, -8.11403095722198486328e-02) (0, -8.53342041373252868652e-02) (1, -6.72053843736648559570e-02) (2, -6.94292485713958740234e-02) (3, 2.26918309926986694336e-02) (4, 6.03990033268928527832e-02) (5, -4.20532636344432830811e-02) (6, 5.24468943476676940918e-02) (7, 7.41523876786231994629e-02) (8, 3.52719351649284362793e-02) (9, -7.02454224228858947754e-02) (10, 8.85374024510383605957e-02) (11, 2.83430591225624084473e-02) (12, 2.64486744999885559082e-02) (13, 8.29080492258071899414e-03) (0, 8.09454396367073059082e-02) (1, 5.99748864769935607910e-02) (2, 1.72086954116821289062e-02) (3, -4.93081212043762207031e-02) (4, 7.07501992583274841309e-02) (5, 6.45375922322273254395e-02) (6, -5.43899089097976684570e-03) (7, -3.48246917128562927246e-02) (8, -5.56846298277378082275e-02) (9, -9.79114472866058349609e-02) (10, -6.19206503033638000488e-02) (11, 2.11394876241683959961e-02) (12, 2.61697992682456970215e-02) (13, -5.70208095014095306396e-02) (0, -1.75686925649642944336e-02) (1, -3.10025513172149658203e-02) (2, -3.81611250340938568115e-02) (3, -2.90288776159286499023e-03) (4, 1.79207324981689453125e-03) (5, -7.59036839008331298828e-03) (6, -8.02110582590103149414e-02) (7, -3.78089323639869689941e-02) (8, 5.03563657402992248535e-02) (9, 7.22358301281929016113e-02) (10, -6.36565461754798889160e-02) (11, -1.43717080354690551758e-02) (12, -9.80095863342285156250e-02) (13, -7.51191526651382446289e-02) (14, -8.60286578536033630371e-02) (15, 2.84390971064567565918e-02) (16, 3.31716611981391906738e-02) (17, 9.49167683720588684082e-02) (18, -1.15860253572463989258e-02) (19, -4.96196523308753967285e-02) (20, -5.43913505971431732178e-02) (21, -4.08358238637447357178e-02) (22, -8.50820690393447875977e-02) (23, 4.01696637272834777832e-02) (24, 2.43394821882247924805e-02) (25, -4.07666973769664764404e-02) (26, 4.22582104802131652832e-02) (27, 6.24188408255577087402e-02) (28, 8.03727880120277404785e-02) (29, -3.15719917416572570801e-02) (30, -9.46019738912582397461e-02) (31, -3.71959060430526733398e-02) (32, 3.74254658818244934082e-02) (33, -3.27630937099456787109e-02) (34, 5.99012002348899841309e-02) (35, -6.07824735343456268311e-02) (36, 5.96465393900871276855e-02) (37, 7.96901509165763854980e-02) (38, 1.40859931707382202148e-03) (39, 1.00028961896896362305e-02) (14, 5.19259795546531677246e-02) (15, 3.77520546317100524902e-02) (16, 9.56311896443367004395e-02) (17, 5.39164021611213684082e-02) (18, 6.26329109072685241699e-02) (19, -9.03974696993827819824e-02) (20, -1.76445096731185913086e-02) (21, -4.19544428586959838867e-03) (22, -9.54806953668594360352e-02) (23, 7.07694664597511291504e-02) (24, 4.61849048733711242676e-02) (25, -4.98720407485961914062e-02) (26, -7.00663551688194274902e-02) (27, 6.11028447747230529785e-02) (28, 9.02976170182228088379e-02) (29, 5.42731359601020812988e-02) (30, -7.96638578176498413086e-02) (31, 3.25558260083198547363e-02) (32, 1.66919678449630737305e-02) (33, -9.92910712957382202148e-02) (34, -9.90161597728729248047e-02) (35, 2.20900028944015502930e-02) (36, -3.64869683980941772461e-02) (37, 3.84093001484870910645e-02) (38, 8.93269106745719909668e-02) (39, -7.65857622027397155762e-02) (14, 7.76268318295478820801e-02) (15, 4.89734485745429992676e-02) (16, -9.68956127762794494629e-02) (17, -2.09645777940750122070e-02) (18, -4.10236679017543792725e-02) (19, 5.50303682684898376465e-02) (20, -8.32125246524810791016e-02) (21, -4.53924797475337982178e-02) (22, 8.94677639007568359375e-03) (23, 7.94203951954841613770e-02) (24, -3.57899442315101623535e-02) (25, 9.13022682070732116699e-02) (26, -2.47750654816627502441e-02) (27, -3.12706381082534790039e-02) (28, 6.20717331767082214355e-02) (29, -7.85901546478271484375e-02) (30, 1.88573226332664489746e-02) (31, 9.20053794980049133301e-02) (32, 8.25126841664314270020e-02) (33, 9.15495306253433227539e-03) (34, 4.62785139679908752441e-02) (35, -9.71511751413345336914e-02) (36, -5.82892224192619323730e-02) (37, -3.70295122265815734863e-02) (38, -9.64422449469566345215e-02) (39, -5.73053807020187377930e-02) (14, 8.50604847073554992676e-02) (15, -3.29292118549346923828e-02) (16, 8.11039283871650695801e-02) (17, 7.43873938918113708496e-02) (18, -9.51497256755828857422e-03) (19, 5.87307438254356384277e-02) (20, 2.33608335256576538086e-02) (21, -6.41058385372161865234e-03) (22, -6.22338242828845977783e-02) (23, 8.23371633887290954590e-02) (24, -5.13802058994770050049e-02) (25, -4.54463437199592590332e-02) (26, -6.30553066730499267578e-02) (27, 5.75665757060050964355e-02) (28, -6.60259649157524108887e-02) (29, 1.15474313497543334961e-03) (30, 4.88688424229621887207e-02) (31, 9.19897854328155517578e-03) (32, 6.98841139674186706543e-02) (33, 1.09405741095542907715e-02) (34, 3.06088253855705261230e-02) (35, -1.12585574388504028320e-02) (36, 2.94594466686248779297e-03) (37, 1.31215006113052368164e-02) (38, 9.78963896632194519043e-02) (39, -5.07755316793918609619e-02) (14, 1.59703269600868225098e-02) (15, -6.03928379714488983154e-02) (16, 1.21949538588523864746e-02) (17, 1.95280760526657104492e-02) (18, -1.76982134580612182617e-02) (19, -2.74454802274703979492e-03) (20, 8.65988805890083312988e-02) (21, -3.65942940115928649902e-02) (22, -2.83571556210517883301e-02) (23, -2.29160934686660766602e-02) (24, -7.78635516762733459473e-02) (25, 9.50036719441413879395e-02) (26, 7.06733241677284240723e-02) (27, -4.00973744690418243408e-02) (28, 7.73408487439155578613e-02) (29, -8.07068794965744018555e-02) (30, 1.44562870264053344727e-02) (31, -8.57144668698310852051e-02) (32, 7.68596902489662170410e-02) (33, 4.84303310513496398926e-02) (34, 1.54402852058410644531e-02) (35, 2.57285311818122863770e-02) (36, -4.23707030713558197021e-02) (37, -1.46756023168563842773e-02) (38, -6.33309036493301391602e-02) (39, 8.82381275296211242676e-02) (14, 7.40658268332481384277e-02) (15, 3.96150574088096618652e-02) (16, 1.35961920022964477539e-03) (17, 7.19622150063514709473e-02) (18, 8.88395234942436218262e-02) (19, -8.26700553297996520996e-02) (20, -8.84306207299232482910e-02) (21, 1.03448331356048583984e-03) (22, 3.68580296635627746582e-02) (23, -6.12884014844894409180e-03) (24, 9.82899293303489685059e-02) (25, 2.34569087624549865723e-02) (26, 5.72768673300743103027e-02) (27, -3.00672203302383422852e-02) (28, -9.94591861963272094727e-02) (29, 7.94133171439170837402e-02) (30, -3.50635498762130737305e-02) (31, 7.12141469120979309082e-02) (32, -6.06840588152408599854e-02) (33, -5.77226988971233367920e-02) (34, 9.05072614550590515137e-02) (35, 5.37722185254096984863e-02) (36, -4.34371605515480041504e-02) (37, 6.73669502139091491699e-02) (38, 2.20254808664321899414e-03) (39, 7.20031335949897766113e-02) 
