FANN_FLO_2.1
num_layers=3
learning_rate=0.700000
connection_rate=1.000000
network_type=0
learning_momentum=0.600000
training_algorithm=0
train_error_function=1
train_stop_function=0
cascade_output_change_fraction=0.010000
quickprop_decay=-0.000100
quickprop_mu=1.750000
rprop_increase_factor=1.200000
rprop_decrease_factor=0.500000
rprop_delta_min=0.000000
rprop_delta_max=50.000000
rprop_delta_zero=0.100000
cascade_output_stagnation_epochs=12
cascade_candidate_change_fraction=0.010000
cascade_candidate_stagnation_epochs=12
cascade_max_out_epochs=150
cascade_min_out_epochs=50
cascade_max_cand_epochs=150
cascade_min_cand_epochs=50
cascade_num_candidate_groups=2
bit_fail_limit=3.49999994039535522461e-01
cascade_candidate_limit=1.00000000000000000000e+03
cascade_weight_multiplier=4.00000005960464477539e-01
cascade_activation_functions_count=10
cascade_activation_functions=3 5 7 8 10 11 14 15 16 17 
cascade_activation_steepnesses_count=4
cascade_activation_steepnesses=2.50000000000000000000e-01 5.00000000000000000000e-01 7.50000000000000000000e-01 1.00000000000000000000e+00 
layer_sizes=10 91 5 
scale_included=0
neurons (num_inputs, activation_function, activation_steepness)=(0, 0, 0.00000000000000000000e+00) (0, 0, 0.00000000000000000000e+00) (0, 0, 0.00000000000000000000e+00) (0, 0, 0.00000000000000000000e+00) (0, 0, 0.00000000000000000000e+00) (0, 0, 0.00000000000000000000e+00) (0, 0, 0.00000000000000000000e+00) (0, 0, 0.00000000000000000000e+00) (0, 0, 0.00000000000000000000e+00) (0, 0, 0.00000000000000000000e+00) (10, 5, 5.00000000000000000000e-01) (10, 5, 5.00000000000000000000e-01) (10, 5, 5.00000000000000000000e-01) (10, 5, 5.00000000000000000000e-01) (10, 5, 5.00000000000000000000e-01) (10, 5, 5.00000000000000000000e-01) (10, 5, 5.00000000000000000000e-01) (10, 5, 5.00000000000000000000e-01) (10, 5, 5.00000000000000000000e-01) (10, 5, 5.00000000000000000000e-01) (10, 5, 5.00000000000000000000e-01) (10, 5, 5.00000000000000000000e-01) (10, 5, 5.00000000000000000000e-01) (10, 5, 5.00000000000000000000e-01) (10, 5, 5.00000000000000000000e-01) (10, 5, 5.00000000000000000000e-01) (10, 5, 5.00000000000000000000e-01) (10, 5, 5.00000000000000000000e-01) (10, 5, 5.00000000000000000000e-01) (10, 5, 5.00000000000000000000e-01) (10, 5, 5.00000000000000000000e-01) (10, 5, 5.00000000000000000000e-01) (10, 5, 5.00000000000000000000e-01) (10, 5, 5.00000000000000000000e-01) (10, 5, 5.00000000000000000000e-01) (10, 5, 5.00000000000000000000e-01) (10, 5, 5.00000000000000000000e-01) (10, 5, 5.00000000000000000000e-01) (10, 5, 5.00000000000000000000e-01) (10, 5, 5.00000000000000000000e-01) (10, 5, 5.00000000000000000000e-01) (10, 5, 5.00000000000000000000e-01) (10, 5, 5.00000000000000000000e-01) (10, 5, 5.00000000000000000000e-01) (10, 5, 5.00000000000000000000e-01) (10, 5, 5.00000000000000000000e-01) (10, 5, 5.00000000000000000000e-01) (10, 5, 5.00000000000000000000e-01) (10, 5, 5.00000000000000000000e-01) (10, 5, 5.00000000000000000000e-01) (10, 5, 5.00000000000000000000e-01) (10, 5, 5.00000000000000000000e-01) (10, 5, 5.00000000000000000000e-01) (10, 5, 5.00000000000000000000e-01) (10, 5, 5.00000000000000000000e-01) (10, 5, 5.00000000000000000000e-01) (10, 5, 5.00000000000000000000e-01) (10, 5, 5.00000000000000000000e-01) (10, 5, 5.00000000000000000000e-01) (10, 5, 5.00000000000000000000e-01) (10, 5, 5.00000000000000000000e-01) (10, 5, 5.00000000000000000000e-01) (10, 5, 5.00000000000000000000e-01) (10, 5, 5.00000000000000000000e-01) (10, 5, 5.00000000000000000000e-01) (10, 5, 5.00000000000000000000e-01) (10, 5, 5.00000000000000000000e-01) (10, 5, 5.00000000000000000000e-01) (10, 5, 5.00000000000000000000e-01) (10, 5, 5.00000000000000000000e-01) (10, 5, 5.00000000000000000000e-01) (10, 5, 5.00000000000000000000e-01) (10, 5, 5.00000000000000000000e-01) (10, 5, 5.00000000000000000000e-01) (10, 5, 5.00000000000000000000e-01) (10, 5, 5.00000000000000000000e-01) (10, 5, 5.00000000000000000000e-01) (10, 5, 5.00000000000000000000e-01) (10, 5, 5.00000000000000000000e-01) (10, 5, 5.00000000000000000000e-01) (10, 5, 5.00000000000000000000e-01) (10, 5, 5.00000000000000000000e-01) (10, 5, 5.00000000000000000000e-01) (10, 5, 5.00000000000000000000e-01) (10, 5, 5.00000000000000000000e-01) (10, 5, 5.00000000000000000000e-01) (10, 5, 5.00000000000000000000e-01) (10, 5, 5.00000000000000000000e-01) (10, 5, 5.00000000000000000000e-01) (10, 5, 5.00000000000000000000e-01) (10, 5, 5.00000000000000000000e-01) (10, 5, 5.00000000000000000000e-01) (10, 5, 5.00000000000000000000e-01) (10, 5, 5.00000000000000000000e-01) (10, 5, 5.00000000000000000000e-01) (10, 5, 5.00000000000000000000e-01) (10, 5, 5.00000000000000000000e-01) (10, 5, 5.00000000000000000000e-01) (10, 5, 5.00000000000000000000e-01) (10, 5, 5.00000000000000000000e-01) (0, 5, 0.00000000000000000000e+00) (91, 5, 5.00000000000000000000e-01) (91, 5, 5.00000000000000000000e-01) (91, 5, 5.00000000000000000000e-01) (91, 5, 5.00000000000000000000e-01) (0, 5, 0.00000000000000000000e+00) 
connections (connected_to_neuron, weight)=(0, 4.32730592000000000000e+08) (1, 4.19428320000000000000e+08) (2, 7.89584560000000000000e+07) (3, -2.02568496000000000000e+08) (4, 1.45787856000000000000e+08) (5, -2.23508224000000000000e+09) (6, 2.80437824000000000000e+08) (7, 6.09000140800000000000e+09) (8, -4.40596736000000000000e+09) (9, -1.80699525120000000000e+10) (0, -1.38770096000000000000e+08) (1, -1.04814952000000000000e+08) (2, -1.24749568000000000000e+08) (3, -5.58722160000000000000e+07) (4, -8.07242800000000000000e+07) (5, 3.05639264000000000000e+08) (6, -1.42212976000000000000e+08) (7, -1.27528512000000000000e+09) (8, 2.79318880000000000000e+08) (9, 2.06187622400000000000e+10) (0, -2.31677872000000000000e+08) (1, -1.95213888000000000000e+08) (2, 8.12421360000000000000e+07) (3, 7.48658640000000000000e+07) (4, -7.82581360000000000000e+07) (5, 2.67657632000000000000e+08) (6, -1.05409424000000000000e+08) (7, -9.98127616000000000000e+08) (8, 1.04064614400000000000e+10) (9, 1.76096440320000000000e+10) (0, -1.78341824000000000000e+08) (1, -3.80643968000000000000e+08) (2, 2.36721184000000000000e+08) (3, -1.01065720000000000000e+08) (4, -3.81111120000000000000e+07) (5, -3.72940120000000000000e+07) (6, 1.12625648000000000000e+08) (7, -1.30242342400000000000e+09) (8, 5.94662400000000000000e+08) (9, 2.15823790080000000000e+10) (0, -3.52929536000000000000e+08) (1, 7.41787440000000000000e+07) (2, 4.31088240000000000000e+07) (3, 7.10330560000000000000e+08) (4, -4.05441800000000000000e+07) (5, 1.42260185600000000000e+09) (6, -4.39775040000000000000e+08) (7, -1.22605670400000000000e+09) (8, 3.41910343680000000000e+10) (9, -9.16868812800000000000e+09) (0, -1.28701936000000000000e+08) (1, -2.08069488000000000000e+08) (2, -1.91622112000000000000e+08) (3, -1.73494864000000000000e+08) (4, -7.54890720000000000000e+07) (5, 9.38635072000000000000e+08) (6, -1.04288288000000000000e+08) (7, -3.29241728000000000000e+09) (8, -1.03761285120000000000e+10) (9, 1.94232524800000000000e+10) (0, -7.07131920000000000000e+07) (1, -4.65688800000000000000e+07) (2, -1.16442928000000000000e+08) (3, -1.12774128000000000000e+08) (4, -5.51988640000000000000e+07) (5, -1.92936912000000000000e+08) (6, -9.02702800000000000000e+07) (7, -5.96386040000000000000e+07) (8, 2.51875060000000000000e+07) (9, 2.06124298240000000000e+10) (0, 4.39456160000000000000e+08) (1, 6.87129152000000000000e+08) (2, -2.37994000000000000000e+07) (3, -5.21974840000000000000e+07) (4, 1.22706760000000000000e+08) (5, -2.76875520000000000000e+09) (6, 1.18015392000000000000e+08) (7, 8.44816537600000000000e+09) (8, 8.35458560000000000000e+09) (9, -1.92565493760000000000e+10) (0, -7.93078320000000000000e+07) (1, -8.21372640000000000000e+07) (2, -6.15473280000000000000e+07) (3, -1.14373912000000000000e+08) (4, -5.12405640000000000000e+07) (5, -2.48871440000000000000e+08) (6, -5.63144920000000000000e+07) (7, -3.07650660000000000000e+07) (8, 4.17958816000000000000e+08) (9, 2.06331985920000000000e+10) (0, 1.32488520000000000000e+08) (1, 1.11223672000000000000e+08) (2, 1.01224064000000000000e+08) (3, 5.92068880000000000000e+07) (4, 7.45978160000000000000e+07) (5, -2.45806320000000000000e+08) (6, 1.22302928000000000000e+08) (7, 1.15059289600000000000e+09) (8, -3.41273600000000000000e+08) (9, -2.00765726720000000000e+10) (0, -1.58242912000000000000e+08) (1, -1.22674616000000000000e+08) (2, -1.50934000000000000000e+08) (3, -4.57514280000000000000e+07) (4, -8.11673920000000000000e+07) (5, 5.60178624000000000000e+08) (6, -1.63829040000000000000e+08) (7, -1.87585830400000000000e+09) (8, -5.95054080000000000000e+08) (9, 2.06044098560000000000e+10) (0, -1.10648928000000000000e+08) (1, -2.75926560000000000000e+08) (2, -2.00636544000000000000e+08) (3, -2.61722768000000000000e+08) (4, -6.70753960000000000000e+07) (5, 1.17257292800000000000e+09) (6, -3.93495640000000000000e+07) (7, -4.23729331200000000000e+09) (8, -1.73535027200000000000e+10) (9, 1.82629642240000000000e+10) (0, -3.88073760000000000000e+08) (1, -4.98598976000000000000e+08) (2, 8.48935520000000000000e+07) (3, 1.16402544000000000000e+08) (4, -1.04357032000000000000e+08) (5, 1.73648332800000000000e+09) (6, -1.18907728000000000000e+08) (7, -5.29507942400000000000e+09) (8, 2.50351155200000000000e+09) (9, 1.86780590080000000000e+10) (0, 4.41560256000000000000e+08) (1, 6.12714240000000000000e+08) (2, -1.57133712000000000000e+08) (3, -1.44258832000000000000e+08) (4, 1.04098264000000000000e+08) (5, -2.01133196800000000000e+09) (6, 8.68276800000000000000e+07) (7, 6.20546406400000000000e+09) (8, -2.39865216000000000000e+09) (9, -1.83946301440000000000e+10) (0, -2.67224576000000000000e+08) (1, 4.09200880000000000000e+07) (2, 2.36653056000000000000e+08) (3, 6.73218112000000000000e+08) (4, -2.41504180000000000000e+07) (5, 7.58437760000000000000e+08) (6, -2.85479488000000000000e+08) (7, 2.95891860000000000000e+07) (8, 3.25667717120000000000e+10) (9, -1.36345395200000000000e+10) (0, 2.45811040000000000000e+08) (1, 3.14939360000000000000e+08) (2, -4.00704480000000000000e+08) (3, -1.18610008000000000000e+08) (4, 1.79098220000000000000e+07) (5, 2.91987392000000000000e+08) (6, -5.45423360000000000000e+07) (7, -2.96340896000000000000e+08) (8, -1.86055352320000000000e+10) (9, -1.43275540480000000000e+10) (0, 1.26243384000000000000e+08) (1, 2.46647360000000000000e+08) (2, -1.47401584000000000000e+08) (3, 1.11519736000000000000e+08) (4, 3.82635880000000000000e+07) (5, 3.46978080000000000000e+08) (6, -6.52241520000000000000e+07) (7, 2.27919216000000000000e+08) (8, -1.86881689600000000000e+09) (9, -2.13515939840000000000e+10) (0, 5.72540120000000000000e+07) (1, 3.04647168000000000000e+08) (2, 1.98126576000000000000e+08) (3, 3.54622944000000000000e+08) (4, 5.00396440000000000000e+07) (5, -1.11773056000000000000e+09) (6, -4.88636040000000000000e+07) (7, 4.41086259200000000000e+09) (8, 2.33095127040000000000e+10) (9, -1.67584368640000000000e+10) (0, -5.07790240000000000000e+07) (1, 1.02695344000000000000e+08) (2, -2.94949664000000000000e+08) (3, -8.49112400000000000000e+07) (4, -7.74931760000000000000e+07) (5, -6.76187360000000000000e+07) (6, -2.20736688000000000000e+08) (7, 1.04016224000000000000e+08) (8, 5.77637120000000000000e+08) (9, 2.01996247040000000000e+10) (0, 2.29930336000000000000e+08) (1, 5.08593960000000000000e+07) (2, 9.16005760000000000000e+07) (3, -1.24912120000000000000e+08) (4, 1.05698632000000000000e+08) (5, -4.50619360000000000000e+08) (6, 2.54718400000000000000e+08) (7, 9.06759232000000000000e+08) (8, -1.25037742080000000000e+10) (9, -1.73193031680000000000e+10) (0, -6.88886880000000000000e+07) (1, -3.94737320000000000000e+07) (2, -1.22506120000000000000e+08) (3, -1.10622000000000000000e+08) (4, -5.62447720000000000000e+07) (5, -1.93266016000000000000e+08) (6, -9.42865120000000000000e+07) (7, -3.87909200000000000000e+07) (8, 5.51420560000000000000e+07) (9, 2.03656560640000000000e+10) (0, -8.04646080000000000000e+07) (1, -1.63311170000000000000e+07) (2, 2.19549840000000000000e+08) (3, 3.63007104000000000000e+08) (4, 3.08658400000000000000e+07) (5, 4.48408448000000000000e+08) (6, -2.05935200000000000000e+07) (7, -1.57539264000000000000e+08) (8, 1.31801436160000000000e+10) (9, -1.86038947840000000000e+10) (0, -1.19507888000000000000e+08) (1, -7.87002480000000000000e+07) (2, 3.08539520000000000000e+08) (3, 4.09327456000000000000e+08) (4, 3.72277600000000000000e+07) (5, 4.24880224000000000000e+08) (6, 2.58295175000000000000e+06) (7, -1.64904480000000000000e+08) (8, 1.62930452480000000000e+10) (9, -1.80813864960000000000e+10) (0, 2.27967248000000000000e+08) (1, 5.09826336000000000000e+08) (2, 1.32821016000000000000e+08) (3, 2.07938752000000000000e+08) (4, 8.56904240000000000000e+07) (5, -2.04497331200000000000e+09) (6, 1.93509980000000000000e+07) (7, 6.89565849600000000000e+09) (8, 2.01938268160000000000e+10) (9, -1.78902077440000000000e+10) (0, 2.47262880000000000000e+08) (1, 3.06546784000000000000e+08) (2, -4.35768640000000000000e+08) (3, -1.46297856000000000000e+08) (4, 1.05193020000000000000e+07) (5, 3.44036800000000000000e+08) (6, -5.24538640000000000000e+07) (7, -5.63583104000000000000e+08) (8, -2.08684154880000000000e+10) (9, -1.32042199040000000000e+10) (0, 1.87978768000000000000e+08) (1, -8.50458600000000000000e+06) (2, -2.47444784000000000000e+08) (3, -5.48126720000000000000e+08) (4, 2.67785075000000000000e+06) (5, -5.23826368000000000000e+08) (6, 1.62045264000000000000e+08) (7, -1.61757008000000000000e+08) (8, -2.50618777600000000000e+10) (9, 1.60754268160000000000e+10) (0, 5.33107600000000000000e+07) (1, -9.09422080000000000000e+07) (2, 2.82719104000000000000e+08) (3, 8.43474160000000000000e+07) (4, 7.62400960000000000000e+07) (5, 6.55824680000000000000e+07) (6, 2.12272528000000000000e+08) (7, -6.50272880000000000000e+07) (8, -5.59465344000000000000e+08) (9, -2.00673505280000000000e+10) (0, 5.13335600000000000000e+07) (1, -1.30103360000000000000e+08) (2, 3.40890400000000000000e+08) (3, 8.03734080000000000000e+07) (4, 8.36291040000000000000e+07) (5, 9.53814200000000000000e+06) (6, 2.54862816000000000000e+08) (7, -4.96684080000000000000e+07) (8, -5.89475584000000000000e+08) (9, -2.07644876800000000000e+10) (0, 1.30578712000000000000e+08) (1, 2.64165712000000000000e+08) (2, -1.60541584000000000000e+08) (3, 1.10936032000000000000e+08) (4, 3.87257000000000000000e+07) (5, 2.95657056000000000000e+08) (6, -7.32656080000000000000e+07) (7, 3.98862752000000000000e+08) (8, -1.41753945600000000000e+09) (9, -2.11373813760000000000e+10) (0, -4.91387960000000000000e+07) (1, 1.11682816000000000000e+08) (2, -3.06132000000000000000e+08) (3, -8.57979200000000000000e+07) (4, -7.89006720000000000000e+07) (5, -6.68118000000000000000e+07) (6, -2.28356640000000000000e+08) (7, 1.25025912000000000000e+08) (8, 5.69990912000000000000e+08) (9, 2.03776962560000000000e+10) (0, -5.99462840000000000000e+07) (1, 1.10468736000000000000e+08) (2, -3.23128960000000000000e+08) (3, -7.73240080000000000000e+07) (4, -8.41786480000000000000e+07) (5, 3.42081300000000000000e+06) (6, -2.46269856000000000000e+08) (7, -3.43661120000000000000e+07) (8, 7.42683456000000000000e+08) (9, 2.08687513600000000000e+10) (0, -7.00251280000000000000e+07) (1, -4.20201840000000000000e+07) (2, -1.18136016000000000000e+08) (3, -1.09853128000000000000e+08) (4, -5.61345240000000000000e+07) (5, -1.94530896000000000000e+08) (6, -9.20390160000000000000e+07) (7, -3.95442840000000000000e+07) (8, 1.27833952000000000000e+08) (9, 2.02961162240000000000e+10) (0, 1.18331224000000000000e+08) (1, 2.17718048000000000000e+08) (2, -1.11092152000000000000e+08) (3, 1.09104688000000000000e+08) (4, 4.13156280000000000000e+07) (5, 3.15951424000000000000e+08) (6, -4.26958640000000000000e+07) (7, 2.20287504000000000000e+08) (8, -1.59022028800000000000e+09) (9, -2.10063953920000000000e+10) (0, -1.14471544000000000000e+08) (1, 1.14285190000000000000e+07) (2, 1.87476256000000000000e+08) (3, 4.31612768000000000000e+08) (4, 1.43523470000000000000e+07) (5, 5.83091328000000000000e+08) (6, -9.27532080000000000000e+07) (7, -2.56484096000000000000e+08) (8, 1.63825203200000000000e+10) (9, -1.82253015040000000000e+10) (0, 3.05741632000000000000e+08) (1, -1.18037288000000000000e+08) (2, -5.19388160000000000000e+07) (3, -6.97426688000000000000e+08) (4, 2.20828360000000000000e+07) (5, -1.13897228800000000000e+09) (6, 4.11577248000000000000e+08) (7, 5.18330368000000000000e+08) (8, -3.36224010240000000000e+10) (9, 1.13717606400000000000e+10) (0, -2.92802176000000000000e+08) (1, 7.19497040000000000000e+07) (2, 1.20425056000000000000e+08) (3, 6.69918144000000000000e+08) (4, -2.67451525000000000000e+06) (5, 9.72513664000000000000e+08) (6, -3.44623360000000000000e+08) (7, -3.12153888000000000000e+08) (8, 3.28813137920000000000e+10) (9, -1.13431193600000000000e+10) (0, -1.87976096000000000000e+08) (1, -2.08870208000000000000e+08) (2, 1.80658608000000000000e+08) (3, 2.62865300000000000000e+07) (4, -4.17717920000000000000e+07) (5, -2.16427104000000000000e+08) (6, -9.85676600000000000000e+06) (7, 6.15726320000000000000e+07) (8, 1.12555540480000000000e+10) (9, 1.73781442560000000000e+10) (0, -4.14278336000000000000e+08) (1, -5.56651136000000000000e+08) (2, 1.13265640000000000000e+08) (3, 1.27094952000000000000e+08) (4, -1.04167288000000000000e+08) (5, 1.90930470400000000000e+09) (6, -1.05626864000000000000e+08) (7, -5.84261888000000000000e+09) (8, 1.98713113600000000000e+09) (9, 1.85988382720000000000e+10) (0, -4.77190336000000000000e+08) (1, 7.68354160000000000000e+07) (2, -1.70652800000000000000e+08) (3, 8.31091456000000000000e+08) (4, -1.66327680000000000000e+08) (5, 2.48779545600000000000e+09) (6, -7.43225024000000000000e+08) (7, -3.56640307200000000000e+09) (8, 3.49769482240000000000e+10) (9, -2.20421555200000000000e+09) (0, -4.17401056000000000000e+08) (1, -5.16432736000000000000e+08) (2, 7.33763920000000000000e+07) (3, 1.49978640000000000000e+08) (4, -1.14188920000000000000e+08) (5, 1.94138419200000000000e+09) (6, -1.46324688000000000000e+08) (7, -5.76113305600000000000e+09) (8, 3.17232128000000000000e+09) (9, 1.81941309440000000000e+10) (0, 6.98643120000000000000e+07) (1, 4.42649360000000000000e+07) (2, 1.18142008000000000000e+08) (3, 1.12776496000000000000e+08) (4, 5.53842280000000000000e+07) (5, 1.98383936000000000000e+08) (6, 9.13213760000000000000e+07) (7, 4.25034840000000000000e+07) (8, -4.63166600000000000000e+07) (9, -2.06041374720000000000e+10) (0, 4.36381376000000000000e+08) (1, 5.94210368000000000000e+08) (2, -1.61628800000000000000e+08) (3, -1.52410976000000000000e+08) (4, 1.02898144000000000000e+08) (5, -1.93285875200000000000e+09) (6, 8.99032080000000000000e+07) (7, 5.93876019200000000000e+09) (8, -3.49608115200000000000e+09) (9, -1.79169443840000000000e+10) (0, 1.69407328000000000000e+08) (1, -5.14703160000000000000e+07) (2, -5.51478272000000000000e+08) (3, -4.85203616000000000000e+08) (4, -1.70966540000000000000e+07) (5, 9.02406080000000000000e+08) (6, 7.97059760000000000000e+07) (7, -3.91704115200000000000e+09) (8, -3.89484830720000000000e+10) (9, 3.95109632000000000000e+09) (0, 3.05359392000000000000e+08) (1, 3.76826272000000000000e+08) (2, -8.32640064000000000000e+08) (3, -3.80960896000000000000e+08) (4, -4.24897800000000000000e+07) (5, 6.47814592000000000000e+08) (6, -1.45562080000000000000e+08) (7, -1.87242931200000000000e+09) (8, -3.55007037440000000000e+10) (9, -4.71764736000000000000e+09) (0, 1.89387520000000000000e+08) (1, 1.58966112000000000000e+08) (2, -1.54750448000000000000e+08) (3, -6.53865000000000000000e+07) (4, 4.14018000000000000000e+07) (5, 1.82512208000000000000e+08) (6, 5.38607240000000000000e+07) (7, -2.69850912000000000000e+08) (8, -1.37224683520000000000e+10) (9, -1.58357094400000000000e+10) (0, 5.44743640000000000000e+07) (1, -7.97994160000000000000e+07) (2, 2.72665824000000000000e+08) (3, 8.99392560000000000000e+07) (4, 7.33117360000000000000e+07) (5, 7.49766560000000000000e+07) (6, 2.03844608000000000000e+08) (7, -5.28226360000000000000e+07) (8, -4.32030624000000000000e+08) (9, -2.04965171200000000000e+10) (0, 6.99629280000000000000e+07) (1, 4.79238120000000000000e+07) (2, 1.11143792000000000000e+08) (3, 1.14283960000000000000e+08) (4, 5.46617840000000000000e+07) (5, 2.11806080000000000000e+08) (6, 8.61559920000000000000e+07) (7, 2.23192180000000000000e+07) (8, -6.95909120000000000000e+07) (9, -2.06185000960000000000e+10) (0, 2.57017456000000000000e+08) (1, 3.69086880000000000000e+08) (2, -2.60443152000000000000e+08) (3, -3.70637400000000000000e+07) (4, 5.57487840000000000000e+07) (5, -2.09254032000000000000e+08) (6, -3.19071520000000000000e+07) (7, 1.43091980800000000000e+09) (8, -8.69866188800000000000e+09) (9, -1.87506647040000000000e+10) (0, 6.08354840000000000000e+07) (1, 3.06095488000000000000e+08) (2, 2.37813280000000000000e+08) (3, 3.58314048000000000000e+08) (4, 5.46397840000000000000e+07) (5, -1.26032972800000000000e+09) (6, -3.17268920000000000000e+07) (7, 4.77767577600000000000e+09) (8, 2.46763991040000000000e+10) (9, -1.67976734720000000000e+10) (0, 2.18989808000000000000e+08) (1, 2.26259680000000000000e+08) (2, -1.89988656000000000000e+08) (3, -6.97800880000000000000e+07) (4, 4.78469840000000000000e+07) (5, 6.63842760000000000000e+07) (6, 3.10637480000000000000e+07) (7, 2.36853168000000000000e+08) (8, -1.29568184320000000000e+10) (9, -1.66043750400000000000e+10) (0, 2.83525056000000000000e+08) (1, 1.98653184000000000000e+08) (2, -4.99578912000000000000e+08) (3, -3.48767616000000000000e+08) (4, 9.22067500000000000000e+06) (5, 2.85711392000000000000e+08) (6, 4.84267600000000000000e+07) (7, -1.34725235200000000000e+09) (8, -3.20058060800000000000e+10) (9, -6.92374169600000000000e+09) (0, 3.16634496000000000000e+08) (1, 4.92367584000000000000e+08) (2, -7.69505120000000000000e+07) (3, 1.04324237500000000000e+06) (4, 7.66125920000000000000e+07) (5, -1.49458457600000000000e+09) (6, 5.15620800000000000000e+07) (7, 4.96461414400000000000e+09) (8, 3.21212979200000000000e+09) (9, -2.11409879040000000000e+10) (0, -1.76573584000000000000e+08) (1, -4.12086600000000000000e+07) (2, 2.91062336000000000000e+08) (3, 5.15756320000000000000e+08) (4, 1.56085880000000000000e+07) (5, 5.11964512000000000000e+08) (6, -9.71842800000000000000e+07) (7, -2.51725820000000000000e+07) (8, 2.27258593280000000000e+10) (9, -1.68251494400000000000e+10) (0, -3.06070624000000000000e+08) (1, -1.38260640000000000000e+08) (2, 3.23083525000000000000e+06) (3, 2.16014768000000000000e+08) (4, -1.13192408000000000000e+08) (5, 8.28811776000000000000e+08) (6, -2.70537632000000000000e+08) (7, -1.74766643200000000000e+09) (8, 1.63643043840000000000e+10) (9, 1.51289333760000000000e+10) (0, -3.91113472000000000000e+08) (1, -6.66797760000000000000e+08) (2, -1.22125936000000000000e+08) (3, -4.91312520000000000000e+07) (4, -1.32604944000000000000e+08) (5, 3.04115328000000000000e+09) (6, -1.25643504000000000000e+08) (7, -9.39411968000000000000e+09) (8, -1.71782082560000000000e+10) (9, 1.80775137280000000000e+10) (0, -5.87219200000000000000e+07) (1, -6.32649800000000000000e+07) (2, 2.73726144000000000000e+08) (3, 3.06749856000000000000e+08) (4, 4.74834880000000000000e+07) (5, 3.53630336000000000000e+08) (6, 5.75946760000000000000e+07) (7, -1.77243216000000000000e+08) (8, 1.04404459520000000000e+10) (9, -1.89547765760000000000e+10) (0, 6.42247680000000000000e+07) (1, 3.25375712000000000000e+08) (2, 2.04925584000000000000e+08) (3, 3.54632640000000000000e+08) (4, 4.86768360000000000000e+07) (5, -1.23234035200000000000e+09) (6, -5.08261600000000000000e+07) (7, 4.74359961600000000000e+09) (8, 2.42254090240000000000e+10) (9, -1.65080872960000000000e+10) (0, -4.77949152000000000000e+08) (1, -6.18499776000000000000e+08) (2, 8.50309500000000000000e+06) (3, 1.51714448000000000000e+08) (4, -1.31011240000000000000e+08) (5, 2.73829171200000000000e+09) (6, -1.86485232000000000000e+08) (7, -7.95405363200000000000e+09) (8, -2.23076377600000000000e+09) (9, 1.90714245120000000000e+10) (0, 2.72098016000000000000e+08) (1, 3.04940192000000000000e+08) (2, -4.85374656000000000000e+08) (3, -2.13597696000000000000e+08) (4, 1.01298920000000000000e+07) (5, 2.91352960000000000000e+08) (6, -3.33260480000000000000e+07) (7, -6.54375040000000000000e+08) (8, -2.47700787200000000000e+10) (9, -1.10625239040000000000e+10) (0, 2.92302592000000000000e+08) (1, 3.95216832000000000000e+08) (2, -8.04479616000000000000e+08) (3, -3.15590240000000000000e+08) (4, -4.74799560000000000000e+07) (5, 6.81976640000000000000e+08) (6, -1.67410080000000000000e+08) (7, -1.75527603200000000000e+09) (8, -3.31005583360000000000e+10) (9, -6.46855731200000000000e+09) (0, -3.11987488000000000000e+08) (1, -3.93962720000000000000e+08) (2, 8.05788992000000000000e+08) (3, 3.58371104000000000000e+08) (4, 3.78984000000000000000e+07) (5, -5.70899200000000000000e+08) (6, 1.43350496000000000000e+08) (7, 1.56582528000000000000e+09) (8, 3.41826703360000000000e+10) (9, 5.68625203200000000000e+09) (0, -1.54638048000000000000e+08) (1, -1.57396544000000000000e+08) (2, -1.87014112000000000000e+08) (3, -9.28317920000000000000e+07) (4, -8.45290400000000000000e+07) (5, 8.07942912000000000000e+08) (6, -1.60691856000000000000e+08) (7, -2.65261465600000000000e+09) (8, -4.61969561600000000000e+09) (9, 2.05150576640000000000e+10) (0, -5.63398880000000000000e+07) (1, 1.03463400000000000000e+08) (2, -3.16959520000000000000e+08) (3, -8.17842160000000000000e+07) (4, -8.10433600000000000000e+07) (5, 8.01084500000000000000e+06) (6, -2.36366176000000000000e+08) (7, -7.37458960000000000000e+07) (8, 2.71323296000000000000e+08) (9, 2.05747896320000000000e+10) (0, -4.43785344000000000000e+08) (1, -6.80004160000000000000e+08) (2, -3.01933680000000000000e+07) (3, 5.30302080000000000000e+07) (4, -1.32957464000000000000e+08) (5, 2.97085440000000000000e+09) (6, -1.49952032000000000000e+08) (7, -8.92882432000000000000e+09) (8, -9.86409574400000000000e+09) (9, 1.87902504960000000000e+10) (0, 5.60882480000000000000e+07) (1, -7.33903600000000000000e+07) (2, 2.66523648000000000000e+08) (3, 9.05001920000000000000e+07) (4, 7.19969360000000000000e+07) (5, 7.49649120000000000000e+07) (6, 1.99568560000000000000e+08) (7, -3.65167440000000000000e+07) (8, -4.39055296000000000000e+08) (9, -2.05689917440000000000e+10) (0, 1.19001000000000000000e+08) (1, 7.51280080000000000000e+07) (2, 1.27914016000000000000e+08) (3, 6.48651680000000000000e+07) (4, 7.77655920000000000000e+07) (5, -1.32983040000000000000e+08) (6, 1.36846080000000000000e+08) (7, 8.15897664000000000000e+08) (8, -7.77913984000000000000e+08) (9, -2.05508259840000000000e+10) (0, 1.06582168000000000000e+08) (1, -2.26382340000000000000e+07) (2, -1.71109088000000000000e+08) (3, -4.22383360000000000000e+08) (4, -1.36055530000000000000e+07) (5, -5.85356992000000000000e+08) (6, 9.61088320000000000000e+07) (7, 2.52177056000000000000e+08) (8, -1.57669355520000000000e+10) (9, 1.83517061120000000000e+10) (0, 4.96743080000000000000e+07) (1, -1.08712176000000000000e+08) (2, 3.02901184000000000000e+08) (3, 8.65682960000000000000e+07) (4, 7.86226800000000000000e+07) (5, 7.05116080000000000000e+07) (6, 2.25958912000000000000e+08) (7, -1.17490352000000000000e+08) (8, -5.49918080000000000000e+08) (9, -2.03713474560000000000e+10) (0, -7.81189760000000000000e+07) (1, -8.68358160000000000000e+07) (2, -5.54148240000000000000e+07) (3, -1.19298680000000000000e+08) (4, -5.03761560000000000000e+07) (5, -2.72541440000000000000e+08) (6, -5.03463520000000000000e+07) (7, 3.85252575000000000000e+06) (8, 3.28307488000000000000e+08) (9, 2.09203527680000000000e+10) (0, -1.74450944000000000000e+08) (1, -1.50541600000000000000e+07) (2, -5.55424720000000000000e+07) (3, 8.59630320000000000000e+07) (4, -6.98033760000000000000e+07) (5, 4.03560680000000000000e+07) (6, -1.99071760000000000000e+08) (7, 1.43956016000000000000e+08) (8, 1.30556897280000000000e+10) (9, 1.64128921600000000000e+10) (0, 2.48460832000000000000e+08) (1, 8.86037360000000000000e+07) (2, -6.38662144000000000000e+08) (3, -4.91015904000000000000e+08) (4, 7.83564625000000000000e+05) (5, 6.79792320000000000000e+08) (6, 5.46009200000000000000e+07) (7, -2.95386880000000000000e+09) (8, -3.91163904000000000000e+10) (9, -4.85894624000000000000e+08) (0, -7.00820880000000000000e+07) (1, -4.63788800000000000000e+07) (2, -1.14793352000000000000e+08) (3, -1.13388704000000000000e+08) (4, -5.50311200000000000000e+07) (5, -2.02581616000000000000e+08) (6, -8.89543600000000000000e+07) (7, -3.82890800000000000000e+07) (8, 4.99628680000000000000e+07) (9, 2.06115164160000000000e+10) (0, -7.09794000000000000000e+07) (1, -5.27927840000000000000e+07) (2, -1.05104432000000000000e+08) (3, -1.15465504000000000000e+08) (4, -5.38990640000000000000e+07) (5, -2.18716416000000000000e+08) (6, -8.19470800000000000000e+07) (7, -2.09466220000000000000e+07) (8, 9.01598400000000000000e+07) (9, 2.07008378880000000000e+10) (0, 7.58452160000000000000e+07) (1, 7.79223680000000000000e+07) (2, 6.83341680000000000000e+07) (3, 1.19231496000000000000e+08) (4, 5.08911960000000000000e+07) (5, 2.61058768000000000000e+08) (6, 5.82161880000000000000e+07) (7, -3.09560275000000000000e+06) (8, -2.55815392000000000000e+08) (9, -2.08941056000000000000e+10) (0, 7.86566880000000000000e+07) (1, 8.99807760000000000000e+07) (2, 5.13711160000000000000e+07) (3, 1.20025656000000000000e+08) (4, 4.98804760000000000000e+07) (5, 2.77886656000000000000e+08) (6, 4.74581520000000000000e+07) (7, -6.11368600000000000000e+06) (8, -3.33235488000000000000e+08) (9, -2.09768222720000000000e+10) (0, 5.93981160000000000000e+07) (1, -6.00196920000000000000e+07) (2, 2.52559744000000000000e+08) (3, 8.90422560000000000000e+07) (4, 7.05217280000000000000e+07) (5, 6.64173200000000000000e+07) (6, 1.90372464000000000000e+08) (7, 1.86773200000000000000e+07) (8, -4.10155552000000000000e+08) (9, -2.03881390080000000000e+10) (0, -6.36975280000000000000e+07) (1, 7.87153760000000000000e+07) (2, -2.78861248000000000000e+08) (3, -7.92830400000000000000e+07) (4, -7.86213600000000000000e+07) (5, -2.42779400000000000000e+07) (6, -2.15523856000000000000e+08) (7, -5.47777600000000000000e+07) (8, 7.69950464000000000000e+08) (9, 2.04419543040000000000e+10) (0, 3.37904352000000000000e+08) (1, -1.69832416000000000000e+08) (2, 9.95747520000000000000e+07) (3, -7.15068288000000000000e+08) (4, 6.03212320000000000000e+07) (5, -1.56312115200000000000e+09) (6, 5.40067456000000000000e+08) (7, 1.25843532800000000000e+09) (8, -3.38363719680000000000e+10) (9, 8.47066060800000000000e+09) (0, 4.95169920000000000000e+07) (1, -1.09492104000000000000e+08) (2, 3.03088064000000000000e+08) (3, 8.54121120000000000000e+07) (4, 7.84980960000000000000e+07) (5, 6.70608280000000000000e+07) (6, 2.26321040000000000000e+08) (7, -1.20782912000000000000e+08) (8, -5.79716736000000000000e+08) (9, -2.03142471680000000000e+10) (0, -3.92728704000000000000e+08) (1, -4.90493696000000000000e+08) (2, 6.41742640000000000000e+07) (3, 1.23183064000000000000e+08) (4, -1.10056400000000000000e+08) (5, 1.79717606400000000000e+09) (6, -1.36784048000000000000e+08) (7, -5.40880230400000000000e+09) (8, 2.48231091200000000000e+09) (9, 1.87359293440000000000e+10) (0, 3.31668992000000000000e+08) (1, -2.11328896000000000000e+08) (2, 1.38902864000000000000e+08) (3, -7.25570304000000000000e+08) (4, 6.33167440000000000000e+07) (5, -1.56738393600000000000e+09) (6, 5.67003712000000000000e+08) (7, 1.15558528000000000000e+09) (8, -3.41640192000000000000e+10) (9, 9.13734860800000000000e+09) (0, -1.90132464000000000000e+08) (1, -2.25102464000000000000e+08) (2, 1.94793536000000000000e+08) (3, 2.13166980000000000000e+07) (4, -4.07984760000000000000e+07) (5, -2.26470448000000000000e+08) (6, 2.87158625000000000000e+06) (7, 1.88157600000000000000e+07) (8, 1.09777899520000000000e+10) (9, 1.76205414400000000000e+10) (0, 5.94148040000000000000e+07) (1, -5.92285320000000000000e+07) (2, 2.51391920000000000000e+08) (3, 8.91842720000000000000e+07) (4, 7.03159280000000000000e+07) (5, 6.75959920000000000000e+07) (6, 1.89489952000000000000e+08) (7, 1.82674940000000000000e+07) (8, -4.07375584000000000000e+08) (9, -2.03779379200000000000e+10) (0, -2.25011424000000000000e+08) (1, 8.43448900000000000000e+06) (2, 3.11745152000000000000e+08) (3, 6.14902400000000000000e+08) (4, -2.53417660000000000000e+07) (5, 4.09590080000000000000e+08) (6, -2.01716032000000000000e+08) (7, 5.96867456000000000000e+08) (8, 3.06849259520000000000e+10) (9, -1.42895237120000000000e+10) (0, -3.70299328000000000000e+08) (1, -6.38957120000000000000e+08) (2, 3.61373200000000000000e+07) (3, -2.21047760000000000000e+07) (4, -9.93890080000000000000e+07) (5, 2.30456166400000000000e+09) (6, -6.08075320000000000000e+07) (7, -7.37832704000000000000e+09) (8, -9.76483635200000000000e+09) (9, 1.97915136000000000000e+10) (0, -1.57880640000000000000e+08) (1, -1.67137168000000000000e+08) (2, -1.88110496000000000000e+08) (3, -9.49026800000000000000e+07) (4, -8.57096320000000000000e+07) (5, 8.57999744000000000000e+08) (6, -1.60622128000000000000e+08) (7, -2.80401894400000000000e+09) (8, -5.05430476800000000000e+09) (9, 2.04694200320000000000e+10) (0, 8.16080080000000000000e+07) (1, 9.62323680000000000000e+07) (2, 4.45991440000000000000e+07) (3, 1.17110232000000000000e+08) (4, 4.96088960000000000000e+07) (5, 2.72164224000000000000e+08) (6, 4.48934640000000000000e+07) (7, 1.84001620000000000000e+07) (8, -4.65278368000000000000e+08) (9, -2.08844943360000000000e+10) (0, 2.31447408000000000000e+08) (1, 3.89871680000000000000e+08) (2, 9.38931840000000000000e+07) (3, 1.08536088000000000000e+08) (4, 8.42012080000000000000e+07) (5, -1.53969728000000000000e+09) (6, 8.73704080000000000000e+07) (7, 5.05660825600000000000e+09) (8, 1.01337866240000000000e+10) (9, -1.95018465280000000000e+10) (0, -1.96054464000000000000e+08) (1, 6.19738040000000000000e+07) (2, 5.14042816000000000000e+08) (3, 5.04152480000000000000e+08) (4, -1.16226770000000000000e+07) (5, -7.24759296000000000000e+08) (6, -1.41922944000000000000e+08) (7, 3.52319667200000000000e+09) (8, 3.93264824320000000000e+10) (9, -1.87183193600000000000e+09) (0, -1.12096480000000000000e+08) (1, -7.28833280000000000000e+07) (2, -1.11960056000000000000e+08) (3, -6.67401120000000000000e+07) (4, -7.25087440000000000000e+07) (5, 5.77516920000000000000e+07) (6, -1.24147912000000000000e+08) (7, -6.28880576000000000000e+08) (8, 1.11782515200000000000e+09) (9, 2.02133299200000000000e+10) (10, -5.29999625000000000000e+05) (11, 6.65656562500000000000e+05) (12, 7.10560500000000000000e+05) (13, 7.21364250000000000000e+05) (14, 1.85012062500000000000e+05) (15, 3.22249125000000000000e+05) (16, 7.03046312500000000000e+05) (17, -2.26651734375000000000e+05) (18, 7.13787125000000000000e+05) (19, -6.56887375000000000000e+05) (20, 6.25859937500000000000e+05) (21, 1.55608765625000000000e+05) (22, 5.27546812500000000000e+05) (23, -4.95746500000000000000e+05) (24, 3.60419179687500000000e+04) (25, -7.42518375000000000000e+05) (26, -7.59599625000000000000e+05) (27, -3.36062695312500000000e+04) (28, 7.04237000000000000000e+05) (29, -7.23204562500000000000e+05) (30, 6.98094687500000000000e+05) (31, -3.82822968750000000000e+05) (32, -3.10295656250000000000e+05) (33, -5.03255546875000000000e+04) (34, -7.39863437500000000000e+05) (35, 1.35073781250000000000e+05) (36, -7.00395000000000000000e+05) (37, -7.19629812500000000000e+05) (38, -7.51366000000000000000e+05) (39, 7.08578562500000000000e+05) (40, 7.20084500000000000000e+05) (41, 6.96833187500000000000e+05) (42, -7.47910937500000000000e+05) (43, -3.13586437500000000000e+05) (44, -1.14469812500000000000e+05) (45, 1.08353437500000000000e+05) (46, 7.36288937500000000000e+05) (47, 5.01403718750000000000e+05) (48, 3.52329562500000000000e+05) (49, 5.16612406250000000000e+05) (50, -7.03700437500000000000e+05) (51, -5.08153500000000000000e+05) (52, -5.57776687500000000000e+05) (53, -6.92176000000000000000e+05) (54, -7.14135000000000000000e+05) (55, -7.05682625000000000000e+05) (56, -7.05724312500000000000e+05) (57, -7.23787062500000000000e+05) (58, -6.98497949218750000000e+03) (59, -7.31432437500000000000e+05) (60, -6.95976125000000000000e+05) (61, -4.84747968750000000000e+05) (62, -1.90728968750000000000e+05) (63, 6.75792187500000000000e+05) (64, 4.68042304687500000000e+04) (65, -4.33626093750000000000e+05) (66, -3.99909179687500000000e+03) (67, 3.81297937500000000000e+05) (68, -7.22124250000000000000e+05) (69, -7.08414062500000000000e+05) (70, 6.98069625000000000000e+05) (71, 4.86667687500000000000e+05) (72, 7.10953000000000000000e+05) (73, 1.74767734375000000000e+05) (74, -7.06051562500000000000e+05) (75, -6.92305750000000000000e+05) (76, 3.27337093750000000000e+05) (77, -7.07950250000000000000e+05) (78, 7.21848312500000000000e+05) (79, 7.13765937500000000000e+05) (80, -6.48333812500000000000e+05) (81, 7.04295750000000000000e+05) (82, 7.08237375000000000000e+05) (83, -7.19160437500000000000e+05) (84, -7.23480875000000000000e+05) (85, -6.99354062500000000000e+05) (86, 7.07565000000000000000e+05) (87, -1.95405812500000000000e+05) (88, -7.07174062500000000000e+05) (89, 5.27525437500000000000e+05) (90, -1.77260718750000000000e+05) (91, 7.41250875000000000000e+05) (92, -6.99070312500000000000e+05) (93, 6.37161816406250000000e+03) (94, 2.39938437500000000000e+05) (95, 4.71545218750000000000e+05) (96, -7.21831687500000000000e+05) (97, -2.74839781250000000000e+05) (98, 6.07871875000000000000e+05) (99, 6.93827750000000000000e+05) (100, 7.32035937500000000000e+05) (10, -8.31154812500000000000e+05) (11, 7.22611437500000000000e+05) (12, 7.42316312500000000000e+05) (13, 7.52245312500000000000e+05) (14, 3.60238687500000000000e+05) (15, 4.96784718750000000000e+05) (16, 6.91843062500000000000e+05) (17, -6.51163437500000000000e+05) (18, 6.97362500000000000000e+05) (19, -7.05960187500000000000e+05) (20, 7.35410625000000000000e+05) (21, 3.72578031250000000000e+05) (22, 7.96500125000000000000e+05) (23, -8.06895937500000000000e+05) (24, 1.04879445312500000000e+05) (25, -7.08860812500000000000e+05) (26, -7.36208687500000000000e+05) (27, -2.60792484375000000000e+05) (28, 6.98150875000000000000e+05) (29, -7.64283437500000000000e+05) (30, 6.85350437500000000000e+05) (31, -3.62743375000000000000e+05) (32, -2.93061937500000000000e+05) (33, -3.75279187500000000000e+05) (34, -6.99089312500000000000e+05) (35, 1.42318484375000000000e+05) (36, -6.94421500000000000000e+05) (37, -7.20837375000000000000e+05) (38, -7.36202125000000000000e+05) (39, 7.02448125000000000000e+05) (40, 7.22108125000000000000e+05) (41, 6.83982937500000000000e+05) (42, -7.26567812500000000000e+05) (43, -2.87307468750000000000e+05) (44, -2.51305140625000000000e+05) (45, 2.32442890625000000000e+05) (46, 7.14061750000000000000e+05) (47, 8.00885250000000000000e+05) (48, 6.14346562500000000000e+05) (49, 8.04421250000000000000e+05) (50, -6.91243062500000000000e+05) (51, -7.99658562500000000000e+05) (52, -4.33583531250000000000e+05) (53, -6.12774312500000000000e+05) (54, -6.91997687500000000000e+05) (55, -7.01593000000000000000e+05) (56, -6.92377187500000000000e+05) (57, -7.67988250000000000000e+05) (58, -2.53521171875000000000e+05) (59, -7.22185250000000000000e+05) (60, -6.41565937500000000000e+05) (61, -7.55937125000000000000e+05) (62, -1.84348453125000000000e+05) (63, 7.69359937500000000000e+05) (64, 4.78138437500000000000e+05) (65, -4.13824812500000000000e+05) (66, -2.49480203125000000000e+05) (67, 8.03546125000000000000e+05) (68, -6.79888187500000000000e+05) (69, -6.30806062500000000000e+05) (70, 6.26561812500000000000e+05) (71, 6.33457000000000000000e+05) (72, 7.14671000000000000000e+05) (73, 6.24213250000000000000e+05) (74, -7.02846000000000000000e+05) (75, -7.16841875000000000000e+05) (76, 3.00749437500000000000e+05) (77, -7.01909375000000000000e+05) (78, 7.03736812500000000000e+05) (79, 7.11420937500000000000e+05) (80, -5.47991187500000000000e+05) (81, 6.91677062500000000000e+05) (82, 6.94756687500000000000e+05) (83, -7.02274187500000000000e+05) (84, -7.05081187500000000000e+05) (85, -6.97267500000000000000e+05) (86, 7.08018062500000000000e+05) (87, -3.82404937500000000000e+05) (88, -7.01043750000000000000e+05) (89, 8.01828812500000000000e+05) (90, -3.59940187500000000000e+05) (91, 7.18117875000000000000e+05) (92, -6.96939187500000000000e+05) (93, 3.30170776367187500000e+03) (94, 6.12638562500000000000e+05) (95, 6.24528687500000000000e+05) (96, -7.03920625000000000000e+05) (97, -5.42486875000000000000e+05) (98, 4.96556343750000000000e+05) (99, 7.08312187500000000000e+05) (100, 7.31424375000000000000e+05) (10, -7.05052750000000000000e+05) (11, 7.15468562500000000000e+05) (12, 6.41212812500000000000e+05) (13, 7.78638687500000000000e+05) (14, -4.70067406250000000000e+05) (15, 7.90539687500000000000e+05) (16, 7.15639125000000000000e+05) (17, -8.14366375000000000000e+05) (18, 7.23828312500000000000e+05) (19, -7.01667687500000000000e+05) (20, 7.29969937500000000000e+05) (21, 8.24350812500000000000e+05) (22, 7.21236687500000000000e+05) (23, -7.22722187500000000000e+05) (24, -6.64296625000000000000e+05) (25, -5.50441750000000000000e+05) (26, -7.55410937500000000000e+05) (27, -8.11964937500000000000e+05) (28, 6.93582937500000000000e+05) (29, -6.19619812500000000000e+05) (30, 7.09176437500000000000e+05) (31, -7.97617500000000000000e+05) (32, -8.08081062500000000000e+05) (33, -8.39578625000000000000e+05) (34, -5.13081906250000000000e+05) (35, 7.97707812500000000000e+05) (36, -6.90738625000000000000e+05) (37, -7.08401875000000000000e+05) (38, -7.58295937500000000000e+05) (39, 6.97471500000000000000e+05) (40, 7.09023062500000000000e+05) (41, 7.07499625000000000000e+05) (42, -7.43816312500000000000e+05) (43, -8.14416875000000000000e+05) (44, 5.58050125000000000000e+05) (45, -5.54985562500000000000e+05) (46, 6.37380937500000000000e+05) (47, 7.24723312500000000000e+05) (48, -2.03440187500000000000e+05) (49, 7.12636750000000000000e+05) (50, -7.15444000000000000000e+05) (51, -7.06939625000000000000e+05) (52, 2.33777937500000000000e+05) (53, -1.91804531250000000000e+05) (54, -5.83935625000000000000e+05) (55, -7.00079750000000000000e+05) (56, -7.17681250000000000000e+05) (57, -6.96018125000000000000e+05) (58, -8.13467875000000000000e+05) (59, -6.10476562500000000000e+05) (60, -2.76294125000000000000e+05) (61, -8.07493875000000000000e+05) (62, -8.14642812500000000000e+05) (63, 5.65450312500000000000e+05) (64, 8.43541625000000000000e+05) (65, -7.79728000000000000000e+05) (66, -8.05035312500000000000e+05) (67, 7.67981375000000000000e+05) (68, -4.37340343750000000000e+05) (69, -2.71433281250000000000e+05) (70, 2.35877062500000000000e+05) (71, 7.67624125000000000000e+05) (72, 7.06719312500000000000e+05) (73, 8.16138062500000000000e+05) (74, -7.01377250000000000000e+05) (75, -7.11134375000000000000e+05) (76, 8.13696000000000000000e+05) (77, -6.97339125000000000000e+05) (78, 7.33952562500000000000e+05) (79, 5.84541812500000000000e+05) (80, 5.43859179687500000000e+04) (81, 7.16305937500000000000e+05) (82, 7.20825625000000000000e+05) (83, -7.31846375000000000000e+05) (84, -7.35747750000000000000e+05) (85, -6.96534500000000000000e+05) (86, 6.98849625000000000000e+05) (87, 4.48655187500000000000e+05) (88, -6.96111437500000000000e+05) (89, 7.23650000000000000000e+05) (90, 4.80021562500000000000e+05) (91, 6.45880187500000000000e+05) (92, -6.96389312500000000000e+05) (93, -7.09610625000000000000e+05) (94, 8.31711125000000000000e+05) (95, 7.71540875000000000000e+05) (96, -7.32052687500000000000e+05) (97, -8.02647437500000000000e+05) (98, -1.58881296875000000000e+05) (99, 7.01059500000000000000e+05) (100, 7.38890500000000000000e+05) (10, -6.87917750000000000000e+05) (11, 7.13511562500000000000e+05) (12, 6.18990437500000000000e+05) (13, 7.27280437500000000000e+05) (14, -4.46185218750000000000e+05) (15, 7.97149062500000000000e+05) (16, 7.25400562500000000000e+05) (17, -7.79146375000000000000e+05) (18, 7.25130562500000000000e+05) (19, -6.96885125000000000000e+05) (20, 7.35655500000000000000e+05) (21, 8.31721500000000000000e+05) (22, 6.83110250000000000000e+05) (23, -6.74967000000000000000e+05) (24, -6.74474000000000000000e+05) (25, -5.02730687500000000000e+05) (26, -7.22559875000000000000e+05) (27, -8.29623687500000000000e+05) (28, 7.31978500000000000000e+05) (29, -6.24063687500000000000e+05) (30, 7.20053937500000000000e+05) (31, -8.26200750000000000000e+05) (32, -8.47951000000000000000e+05) (33, -8.34837437500000000000e+05) (34, -4.63504875000000000000e+05) (35, 8.39778125000000000000e+05) (36, -7.27533750000000000000e+05) (37, -7.54150812500000000000e+05) (38, -7.20608125000000000000e+05) (39, 7.37284625000000000000e+05) (40, 7.51867312500000000000e+05) (41, 7.18099500000000000000e+05) (42, -7.15654812500000000000e+05) (43, -8.42268437500000000000e+05) (44, 5.31148375000000000000e+05) (45, -5.33198687500000000000e+05) (46, 6.12056187500000000000e+05) (47, 6.82407687500000000000e+05) (48, -2.30109890625000000000e+05) (49, 6.75337625000000000000e+05) (50, -7.25523000000000000000e+05) (51, -6.59298562500000000000e+05) (52, 3.34242281250000000000e+05) (53, -8.08417265625000000000e+04) (54, -5.66362812500000000000e+05) (55, -7.35159375000000000000e+05) (56, -7.26489062500000000000e+05) (57, -6.47884187500000000000e+05) (58, -8.40092687500000000000e+05) (59, -5.86028812500000000000e+05) (60, -2.12045703125000000000e+05) (61, -7.75104375000000000000e+05) (62, -8.51969500000000000000e+05) (63, 5.54359562500000000000e+05) (64, 8.30383375000000000000e+05) (65, -8.13973062500000000000e+05) (66, -8.28826125000000000000e+05) (67, 7.35541125000000000000e+05) (68, -3.82297812500000000000e+05) (69, -1.70899531250000000000e+05) (70, 1.31051382812500000000e+05) (71, 7.76029875000000000000e+05) (72, 7.48523250000000000000e+05) (73, 7.85568625000000000000e+05) (74, -7.35717375000000000000e+05) (75, -7.12587375000000000000e+05) (76, 8.39317375000000000000e+05) (77, -7.36710687500000000000e+05) (78, 7.33184500000000000000e+05) (79, 5.96633687500000000000e+05) (80, 1.77923906250000000000e+05) (81, 7.25722750000000000000e+05) (82, 7.28872500000000000000e+05) (83, -7.33753625000000000000e+05) (84, -7.34197625000000000000e+05) (85, -7.28947312500000000000e+05) (86, 7.35368187500000000000e+05) (87, 4.06521562500000000000e+05) (88, -7.35549375000000000000e+05) (89, 6.87526625000000000000e+05) (90, 4.29766718750000000000e+05) (91, 6.18453250000000000000e+05) (92, -7.28623875000000000000e+05) (93, -7.52479250000000000000e+05) (94, 7.97680000000000000000e+05) (95, 7.79268375000000000000e+05) (96, -7.29734875000000000000e+05) (97, -7.90642375000000000000e+05) (98, -2.61823078125000000000e+05) (99, 7.01647500000000000000e+05) (100, 7.53581250000000000000e+05) 
