FANN_FLO_2.1
num_layers=3
learning_rate=0.700000
connection_rate=1.000000
network_type=0
learning_momentum=0.600000
training_algorithm=0
train_error_function=1
train_stop_function=0
cascade_output_change_fraction=0.010000
quickprop_decay=-0.000100
quickprop_mu=1.750000
rprop_increase_factor=1.200000
rprop_decrease_factor=0.500000
rprop_delta_min=0.000000
rprop_delta_max=50.000000
rprop_delta_zero=0.100000
cascade_output_stagnation_epochs=12
cascade_candidate_change_fraction=0.010000
cascade_candidate_stagnation_epochs=12
cascade_max_out_epochs=150
cascade_min_out_epochs=50
cascade_max_cand_epochs=150
cascade_min_cand_epochs=50
cascade_num_candidate_groups=2
bit_fail_limit=3.49999994039535522461e-01
cascade_candidate_limit=1.00000000000000000000e+03
cascade_weight_multiplier=4.00000005960464477539e-01
cascade_activation_functions_count=10
cascade_activation_functions=3 5 7 8 10 11 14 15 16 17 
cascade_activation_steepnesses_count=4
cascade_activation_steepnesses=2.50000000000000000000e-01 5.00000000000000000000e-01 7.50000000000000000000e-01 1.00000000000000000000e+00 
layer_sizes=10 91 5 
scale_included=0
neurons (num_inputs, activation_function, activation_steepness)=(0, 0, 0.00000000000000000000e+00) (0, 0, 0.00000000000000000000e+00) (0, 0, 0.00000000000000000000e+00) (0, 0, 0.00000000000000000000e+00) (0, 0, 0.00000000000000000000e+00) (0, 0, 0.00000000000000000000e+00) (0, 0, 0.00000000000000000000e+00) (0, 0, 0.00000000000000000000e+00) (0, 0, 0.00000000000000000000e+00) (0, 0, 0.00000000000000000000e+00) (10, 5, 5.00000000000000000000e-01) (10, 5, 5.00000000000000000000e-01) (10, 5, 5.00000000000000000000e-01) (10, 5, 5.00000000000000000000e-01) (10, 5, 5.00000000000000000000e-01) (10, 5, 5.00000000000000000000e-01) (10, 5, 5.00000000000000000000e-01) (10, 5, 5.00000000000000000000e-01) (10, 5, 5.00000000000000000000e-01) (10, 5, 5.00000000000000000000e-01) (10, 5, 5.00000000000000000000e-01) (10, 5, 5.00000000000000000000e-01) (10, 5, 5.00000000000000000000e-01) (10, 5, 5.00000000000000000000e-01) (10, 5, 5.00000000000000000000e-01) (10, 5, 5.00000000000000000000e-01) (10, 5, 5.00000000000000000000e-01) (10, 5, 5.00000000000000000000e-01) (10, 5, 5.00000000000000000000e-01) (10, 5, 5.00000000000000000000e-01) (10, 5, 5.00000000000000000000e-01) (10, 5, 5.00000000000000000000e-01) (10, 5, 5.00000000000000000000e-01) (10, 5, 5.00000000000000000000e-01) (10, 5, 5.00000000000000000000e-01) (10, 5, 5.00000000000000000000e-01) (10, 5, 5.00000000000000000000e-01) (10, 5, 5.00000000000000000000e-01) (10, 5, 5.00000000000000000000e-01) (10, 5, 5.00000000000000000000e-01) (10, 5, 5.00000000000000000000e-01) (10, 5, 5.00000000000000000000e-01) (10, 5, 5.00000000000000000000e-01) (10, 5, 5.00000000000000000000e-01) (10, 5, 5.00000000000000000000e-01) (10, 5, 5.00000000000000000000e-01) (10, 5, 5.00000000000000000000e-01) (10, 5, 5.00000000000000000000e-01) (10, 5, 5.00000000000000000000e-01) (10, 5, 5.00000000000000000000e-01) (10, 5, 5.00000000000000000000e-01) (10, 5, 5.00000000000000000000e-01) (10, 5, 5.00000000000000000000e-01) (10, 5, 5.00000000000000000000e-01) (10, 5, 5.00000000000000000000e-01) (10, 5, 5.00000000000000000000e-01) (10, 5, 5.00000000000000000000e-01) (10, 5, 5.00000000000000000000e-01) (10, 5, 5.00000000000000000000e-01) (10, 5, 5.00000000000000000000e-01) (10, 5, 5.00000000000000000000e-01) (10, 5, 5.00000000000000000000e-01) (10, 5, 5.00000000000000000000e-01) (10, 5, 5.00000000000000000000e-01) (10, 5, 5.00000000000000000000e-01) (10, 5, 5.00000000000000000000e-01) (10, 5, 5.00000000000000000000e-01) (10, 5, 5.00000000000000000000e-01) (10, 5, 5.00000000000000000000e-01) (10, 5, 5.00000000000000000000e-01) (10, 5, 5.00000000000000000000e-01) (10, 5, 5.00000000000000000000e-01) (10, 5, 5.00000000000000000000e-01) (10, 5, 5.00000000000000000000e-01) (10, 5, 5.00000000000000000000e-01) (10, 5, 5.00000000000000000000e-01) (10, 5, 5.00000000000000000000e-01) (10, 5, 5.00000000000000000000e-01) (10, 5, 5.00000000000000000000e-01) (10, 5, 5.00000000000000000000e-01) (10, 5, 5.00000000000000000000e-01) (10, 5, 5.00000000000000000000e-01) (10, 5, 5.00000000000000000000e-01) (10, 5, 5.00000000000000000000e-01) (10, 5, 5.00000000000000000000e-01) (10, 5, 5.00000000000000000000e-01) (10, 5, 5.00000000000000000000e-01) (10, 5, 5.00000000000000000000e-01) (10, 5, 5.00000000000000000000e-01) (10, 5, 5.00000000000000000000e-01) (10, 5, 5.00000000000000000000e-01) (10, 5, 5.00000000000000000000e-01) (10, 5, 5.00000000000000000000e-01) (10, 5, 5.00000000000000000000e-01) (10, 5, 5.00000000000000000000e-01) (10, 5, 5.00000000000000000000e-01) (10, 5, 5.00000000000000000000e-01) (10, 5, 5.00000000000000000000e-01) (10, 5, 5.00000000000000000000e-01) (10, 5, 5.00000000000000000000e-01) (0, 5, 0.00000000000000000000e+00) (91, 5, 5.00000000000000000000e-01) (91, 5, 5.00000000000000000000e-01) (91, 5, 5.00000000000000000000e-01) (91, 5, 5.00000000000000000000e-01) (0, 5, 0.00000000000000000000e+00) 
connections (connected_to_neuron, weight)=(0, 2.14709450000000000000e+06) (1, 6.19362750000000000000e+05) (2, 9.39054900000000000000e+06) (3, 6.10884300000000000000e+06) (4, -8.68431600000000000000e+06) (5, 2.68538540000000000000e+07) (6, 5.34278000000000000000e+06) (7, -1.52589230000000000000e+07) (8, 2.53842208000000000000e+08) (9, -1.28855398400000000000e+09) (0, -4.08100200000000000000e+06) (1, -2.32847500000000000000e+06) (2, -8.30783350000000000000e+06) (3, -5.27817700000000000000e+06) (4, 4.64864800000000000000e+06) (5, -1.88795500000000000000e+07) (6, -4.77720400000000000000e+06) (7, -2.65458475000000000000e+06) (8, -1.70083440000000000000e+08) (9, 1.26831321600000000000e+09) (0, 1.21230840000000000000e+07) (1, 1.11959837500000000000e+06) (2, -9.94990300000000000000e+06) (3, -2.86820325000000000000e+06) (4, -3.67920400000000000000e+06) (5, 1.31073670000000000000e+07) (6, -1.40183950000000000000e+06) (7, -2.30966016000000000000e+08) (8, -2.46549324800000000000e+09) (9, 2.95638304000000000000e+08) (0, -5.22217550000000000000e+06) (1, 9.19565800000000000000e+06) (2, -1.87427200000000000000e+07) (3, -6.01736000000000000000e+06) (4, -5.27600550000000000000e+06) (5, -3.15590950000000000000e+06) (6, -1.70812420000000000000e+07) (7, 1.51565475000000000000e+06) (8, 4.41386920000000000000e+07) (9, 1.26681395200000000000e+09) (0, -5.02028950000000000000e+06) (1, 8.79120200000000000000e+06) (2, -1.83472780000000000000e+07) (3, -6.02613250000000000000e+06) (4, -4.75684700000000000000e+06) (5, -3.91338675000000000000e+06) (6, -1.64667680000000000000e+07) (7, 2.53049700000000000000e+06) (8, 3.58539960000000000000e+07) (9, 1.26137344000000000000e+09) (0, 3.00363480000000000000e+07) (1, 1.72688300000000000000e+07) (2, -1.09870730000000000000e+07) (3, -4.94516600000000000000e+06) (4, 2.95545600000000000000e+07) (5, -4.80253520000000000000e+07) (6, 8.48515200000000000000e+06) (7, 6.71499840000000000000e+07) (8, -1.82866764800000000000e+09) (9, -5.42545600000000000000e+08) (0, 8.36754650000000000000e+06) (1, -3.95306175000000000000e+06) (2, -5.21900550000000000000e+06) (3, -7.97239600000000000000e+06) (4, 2.60297480000000000000e+07) (5, -5.38562200000000000000e+07) (6, 5.51198500000000000000e+06) (7, 2.87913980000000000000e+07) (8, -1.00492716800000000000e+09) (9, 1.15691916800000000000e+09) (0, -4.87708600000000000000e+06) (1, 8.37778200000000000000e+06) (2, 1.69760037500000000000e+06) (3, 6.93917450000000000000e+06) (4, -2.40331520000000000000e+07) (5, 5.09049520000000000000e+07) (6, -7.57614200000000000000e+06) (7, -2.23132640000000000000e+07) (8, 8.06648768000000000000e+08) (9, -1.19758310400000000000e+09) (0, -1.57616340000000000000e+07) (1, 1.20267060000000000000e+07) (2, -1.94308600000000000000e+06) (3, 7.97193400000000000000e+06) (4, -3.67236160000000000000e+07) (5, 6.72881600000000000000e+07) (6, -1.96147840000000000000e+07) (7, -5.15395200000000000000e+06) (8, 1.70392550400000000000e+09) (9, -9.89738752000000000000e+08) (0, -8.93270500000000000000e+06) (1, -1.41317960000000000000e+07) (2, -6.30941500000000000000e+06) (3, -1.33278250000000000000e+06) (4, -2.67878300000000000000e+07) (5, 5.42400400000000000000e+07) (6, -4.57255000000000000000e+06) (7, -3.23024160000000000000e+08) (8, -1.32298214400000000000e+09) (9, 1.15671244800000000000e+09) (0, 4.06192000000000000000e+07) (1, 3.03812080000000000000e+07) (2, -8.44023700000000000000e+06) (3, -8.26313850000000000000e+06) (4, 6.77650080000000000000e+07) (5, -1.25688896000000000000e+08) (6, 1.05076290000000000000e+07) (7, 4.22894688000000000000e+08) (8, -5.31726752000000000000e+08) (9, -1.02279161600000000000e+09) (0, -1.19846750000000000000e+07) (1, -1.93254700000000000000e+07) (2, 5.29938250000000000000e+06) (3, -2.65928700000000000000e+06) (4, 1.53880400000000000000e+06) (5, -1.26217730000000000000e+07) (6, 6.81981300000000000000e+06) (7, -3.99367120000000000000e+07) (8, 1.30617816000000000000e+08) (9, 1.35967296000000000000e+09) (0, -1.78243120000000000000e+07) (1, -2.15075440000000000000e+07) (2, 1.02635890000000000000e+07) (3, 4.88203320312500000000e+04) (4, -1.95881937500000000000e+06) (5, -6.23176000000000000000e+06) (6, 5.89898000000000000000e+06) (7, -2.46528460000000000000e+07) (8, 6.45970240000000000000e+08) (9, 1.14431257600000000000e+09) (0, -7.55487850000000000000e+06) (1, 5.41348950000000000000e+06) (2, 4.20425050000000000000e+06) (3, 7.46078400000000000000e+06) (4, -2.42113960000000000000e+07) (5, 4.97433520000000000000e+07) (6, -6.09156050000000000000e+06) (7, -1.17169140000000000000e+07) (8, 1.02850995200000000000e+09) (9, -1.13932556800000000000e+09) (0, -1.37607480000000000000e+07) (1, -9.06079000000000000000e+06) (2, -1.03343760000000000000e+07) (3, -1.54830412500000000000e+06) (4, -2.97158420000000000000e+07) (5, 5.34595400000000000000e+07) (6, -1.03224210000000000000e+07) (7, -2.47139936000000000000e+08) (8, -5.09507424000000000000e+08) (9, 1.30062195200000000000e+09) (0, 1.97553040000000000000e+07) (1, 1.52881860000000000000e+07) (2, -2.91355500000000000000e+06) (3, -8.53935625000000000000e+04) (4, 1.38215510000000000000e+07) (5, -1.57556520000000000000e+07) (6, 3.28807425000000000000e+06) (7, 7.25596880000000000000e+07) (8, -6.24999808000000000000e+08) (9, -1.17199193600000000000e+09) (0, 1.25951230000000000000e+07) (1, 1.99603720000000000000e+07) (2, -5.33097700000000000000e+06) (3, 2.39050675000000000000e+06) (4, 1.01107318750000000000e+06) (5, 7.19693800000000000000e+06) (6, -6.63096800000000000000e+06) (7, 5.85379680000000000000e+07) (8, -9.62874080000000000000e+07) (9, -1.35318848000000000000e+09) (0, 7.27906300000000000000e+06) (1, -5.76795100000000000000e+06) (2, -6.58666350000000000000e+06) (3, -2.02702912500000000000e+06) (4, -6.41031250000000000000e+06) (5, 2.08702660000000000000e+07) (6, 3.18577062500000000000e+05) (7, -2.69089248000000000000e+08) (8, -2.39807641600000000000e+09) (9, 4.89548288000000000000e+08) (0, -4.98741750000000000000e+06) (1, 8.08653900000000000000e+06) (2, -1.77067280000000000000e+07) (3, -5.93890250000000000000e+06) (4, -4.39708250000000000000e+06) (5, -4.37652600000000000000e+06) (6, -1.57049890000000000000e+07) (7, 1.80880412500000000000e+06) (8, 2.94999220000000000000e+07) (9, 1.25685043200000000000e+09) (0, 2.59855160000000000000e+07) (1, 3.32999100000000000000e+07) (2, -3.15558020000000000000e+07) (3, -6.19601400000000000000e+06) (4, -1.49278862500000000000e+06) (5, 8.05431100000000000000e+06) (6, -1.57175290000000000000e+07) (7, -8.92520480000000000000e+07) (8, -2.23206195200000000000e+09) (9, -3.25438528000000000000e+08) (0, 6.48691450000000000000e+06) (1, 6.90051500000000000000e+06) (2, 4.59188100000000000000e+06) (3, 4.70124950000000000000e+06) (4, -4.28188100000000000000e+06) (5, 1.90919040000000000000e+07) (6, 7.92992500000000000000e+05) (7, -2.69754200000000000000e+06) (8, -1.53581390000000000000e+07) (9, -1.31354035200000000000e+09) (0, 2.78148140000000000000e+07) (1, 1.88785920000000000000e+07) (2, -1.53707410000000000000e+07) (3, -4.80136400000000000000e+06) (4, 1.70203440000000000000e+07) (5, -2.34162940000000000000e+07) (6, 3.48886950000000000000e+06) (7, -6.80537800000000000000e+06) (8, -1.96628876800000000000e+09) (9, -4.91667040000000000000e+08) (0, 5.10270500000000000000e+06) (1, 4.57097000000000000000e+06) (2, 6.78537250000000000000e+06) (3, 5.17533450000000000000e+06) (4, -4.62331700000000000000e+06) (5, 1.93253760000000000000e+07) (6, 2.51594625000000000000e+06) (7, -1.14488912500000000000e+06) (8, 8.22232480000000000000e+07) (9, -1.31777049600000000000e+09) (0, 2.36730460000000000000e+07) (1, 1.78812120000000000000e+07) (2, -1.88423520000000000000e+07) (3, -5.09502850000000000000e+06) (4, 6.55270450000000000000e+06) (5, -7.30660250000000000000e+06) (6, -3.07530000000000000000e+06) (7, -1.14038720000000000000e+08) (8, -2.41239424000000000000e+09) (9, -1.44985376000000000000e+08) (0, 8.53884500000000000000e+06) (1, 1.32246800000000000000e+07) (2, -6.63797687500000000000e+05) (3, 3.80205575000000000000e+06) (4, -4.71850050000000000000e+06) (5, 1.93956580000000000000e+07) (6, -4.02345850000000000000e+06) (7, 9.64474300000000000000e+06) (8, -6.36563120000000000000e+07) (9, -1.33786880000000000000e+09) (0, 5.27795350000000000000e+06) (1, -8.26247187500000000000e+05) (2, 1.14055490000000000000e+07) (3, 5.61862050000000000000e+06) (4, -1.13307087500000000000e+06) (5, 1.41975030000000000000e+07) (6, 7.97490150000000000000e+06) (7, -1.01222790000000000000e+07) (8, -2.38658400000000000000e+07) (9, -1.30680588800000000000e+09) (0, -2.32232260000000000000e+07) (1, -1.01631130000000000000e+07) (2, 3.03195550000000000000e+06) (3, 1.24163812500000000000e+06) (4, -1.71032180000000000000e+07) (5, 2.05778660000000000000e+07) (6, -1.03573900000000000000e+07) (7, -2.65913580000000000000e+07) (8, 1.22845068800000000000e+09) (9, 9.01845056000000000000e+08) (0, 7.43748050000000000000e+06) (1, -3.88908281250000000000e+05) (2, 1.09366770000000000000e+07) (3, 4.51543700000000000000e+06) (4, 4.67210150000000000000e+06) (5, 2.55829950000000000000e+06) (6, 9.77355400000000000000e+06) (7, 1.90126460000000000000e+07) (8, -7.12084400000000000000e+07) (9, -1.22145190400000000000e+09) (0, -6.43524950000000000000e+06) (1, -6.08193900000000000000e+06) (2, -5.27167200000000000000e+06) (3, -4.70028150000000000000e+06) (4, 3.55887375000000000000e+06) (5, -1.77389000000000000000e+07) (6, -1.65752437500000000000e+06) (7, 1.02051387500000000000e+06) (8, 1.20890130000000000000e+07) (9, 1.30166784000000000000e+09) (0, 1.53558620000000000000e+07) (1, -3.43489360000000000000e+07) (2, 2.41112340000000000000e+07) (3, -3.30512450000000000000e+06) (4, 4.54366000000000000000e+07) (5, -7.44228560000000000000e+07) (6, 4.01770360000000000000e+07) (7, -6.65298640000000000000e+07) (8, -2.29781299200000000000e+09) (9, 5.79783232000000000000e+08) (0, 5.05351050000000000000e+06) (1, -8.51255100000000000000e+06) (2, 1.80793280000000000000e+07) (3, 5.96553650000000000000e+06) (4, 4.70532750000000000000e+06) (5, 3.91944625000000000000e+06) (6, 1.61994080000000000000e+07) (7, -1.82044600000000000000e+06) (8, -3.43469720000000000000e+07) (9, -1.25745177600000000000e+09) (0, 5.34065000000000000000e+06) (1, -1.48844280000000000000e+07) (2, 8.97494875000000000000e+05) (3, -1.20545937500000000000e+06) (4, -3.32788000000000000000e+06) (5, 1.66803520000000000000e+07) (6, 8.39856100000000000000e+06) (7, -2.75412576000000000000e+08) (8, -2.32401510400000000000e+09) (9, 5.37066496000000000000e+08) (0, 1.70063300000000000000e+06) (1, -5.87297300000000000000e+06) (2, 1.52016480000000000000e+07) (3, 6.65162950000000000000e+06) (4, -4.52263650000000000000e+06) (5, 1.97714680000000000000e+07) (6, 1.19927450000000000000e+07) (7, -1.31975110000000000000e+07) (8, 2.42150736000000000000e+08) (9, -1.27433907200000000000e+09) (0, 5.16364700000000000000e+06) (1, -1.00987480000000000000e+07) (2, 1.97591980000000000000e+07) (3, 6.20637100000000000000e+06) (4, 5.78556700000000000000e+06) (5, 2.46399300000000000000e+06) (6, 1.80398180000000000000e+07) (7, -1.23804275000000000000e+06) (8, -4.04366920000000000000e+07) (9, -1.28626534400000000000e+09) (0, 1.10975100000000000000e+07) (1, 2.09798720000000000000e+07) (2, -6.55276300000000000000e+06) (3, 2.89451575000000000000e+06) (4, -4.59847700000000000000e+06) (5, 1.83290500000000000000e+07) (6, -9.56494500000000000000e+06) (7, 3.26377400000000000000e+07) (8, -7.74494240000000000000e+07) (9, -1.39809484800000000000e+09) (0, 1.42571620000000000000e+07) (1, 1.01203290000000000000e+07) (2, 4.74810100000000000000e+06) (3, 2.22696575000000000000e+06) (4, 1.48928400000000000000e+07) (5, -1.84218160000000000000e+07) (6, 5.53699200000000000000e+06) (7, 1.03971112000000000000e+08) (8, -1.07528072000000000000e+08) (9, -1.32358054400000000000e+09) (0, -2.45689620000000000000e+07) (1, -1.92301520000000000000e+07) (2, 2.44295350000000000000e+06) (3, 1.94041425000000000000e+06) (4, -3.06333340000000000000e+07) (5, 5.02580840000000000000e+07) (6, -5.25360350000000000000e+06) (7, -1.92757824000000000000e+08) (8, 4.31867104000000000000e+08) (9, 1.21474777600000000000e+09) (0, 2.56294040000000000000e+07) (1, 2.53490460000000000000e+07) (2, -1.92436380000000000000e+07) (3, -3.55272875000000000000e+06) (4, 7.46633700000000000000e+06) (5, -4.65953150000000000000e+06) (6, -5.17234100000000000000e+06) (7, -6.05533350000000000000e+06) (8, -1.54073420800000000000e+09) (9, -7.41998848000000000000e+08) (0, 1.16129840000000000000e+07) (1, 3.92124880000000000000e+07) (2, -1.56538400000000000000e+07) (3, -1.56196625000000000000e+06) (4, 1.63919150000000000000e+07) (5, -3.92080160000000000000e+07) (6, -2.00393580000000000000e+07) (7, 3.49595232000000000000e+08) (8, 1.41855436800000000000e+09) (9, -1.14244838400000000000e+09) (0, -4.98588800000000000000e+06) (1, 9.41254600000000000000e+06) (2, -1.89493660000000000000e+07) (3, -6.13904700000000000000e+06) (4, -4.94441350000000000000e+06) (5, -3.79928375000000000000e+06) (6, -1.71206300000000000000e+07) (7, 3.48772300000000000000e+06) (8, 3.72472120000000000000e+07) (9, 1.27109363200000000000e+09) (0, 1.27028360000000000000e+07) (1, 1.98253500000000000000e+07) (2, -5.46382000000000000000e+06) (3, 2.41944650000000000000e+06) (4, 5.69360390625000000000e+04) (5, 9.26101600000000000000e+06) (6, -6.56564250000000000000e+06) (7, 5.02861720000000000000e+07) (8, -1.34840016000000000000e+08) (9, -1.36055027200000000000e+09) (0, 2.91721325000000000000e+06) (1, 1.83147125000000000000e+06) (2, -1.10441630000000000000e+07) (3, -7.19731450000000000000e+06) (4, 1.33553360000000000000e+07) (5, -3.29838060000000000000e+07) (6, -5.40433850000000000000e+06) (7, 8.98010300000000000000e+06) (8, -6.44519104000000000000e+08) (9, 1.19182246400000000000e+09) (0, 2.68226080000000000000e+07) (1, 3.34505800000000000000e+07) (2, -3.08907880000000000000e+07) (3, -6.18271450000000000000e+06) (4, 5.57128750000000000000e+05) (5, 4.87953750000000000000e+06) (6, -1.45542100000000000000e+07) (7, -6.85097360000000000000e+07) (8, -2.14493465600000000000e+09) (9, -3.86326048000000000000e+08) (0, -3.71508960000000000000e+07) (1, -2.87949440000000000000e+07) (2, 6.23646200000000000000e+06) (3, 7.13921100000000000000e+06) (4, -6.29309080000000000000e+07) (5, 1.16542488000000000000e+08) (6, -9.09645100000000000000e+06) (7, -4.06766624000000000000e+08) (8, 3.48406464000000000000e+08) (9, 1.10753190400000000000e+09) (0, -5.00901150000000000000e+06) (1, 5.81307100000000000000e+06) (2, -1.56549830000000000000e+07) (3, -5.86455650000000000000e+06) (4, -2.31370350000000000000e+06) (5, -8.12401500000000000000e+06) (6, -1.31850500000000000000e+07) (7, 6.09708900000000000000e+06) (8, 2.79779760000000000000e+07) (9, 1.27240076800000000000e+09) (0, -1.13395060000000000000e+07) (1, -1.31667380000000000000e+07) (2, -7.33766450000000000000e+06) (3, -1.18054912500000000000e+06) (4, -2.96698400000000000000e+07) (5, 5.78902240000000000000e+07) (6, -6.45455300000000000000e+06) (7, -3.10413056000000000000e+08) (8, -1.04731193600000000000e+09) (9, 1.21180876800000000000e+09) (0, -3.13054900000000000000e+07) (1, -2.70228320000000000000e+07) (2, 9.82359500000000000000e+05) (3, 4.90418850000000000000e+06) (4, -6.14051400000000000000e+07) (5, 1.15370096000000000000e+08) (6, -6.53100000000000000000e+06) (7, -4.28371584000000000000e+08) (8, -9.41412800000000000000e+07) (9, 1.28684147200000000000e+09) (0, -1.98532500000000000000e+07) (1, -1.39375730000000000000e+07) (2, 2.30474825000000000000e+06) (3, 4.71266406250000000000e+04) (4, -1.35785030000000000000e+07) (5, 1.48676190000000000000e+07) (6, -4.53046600000000000000e+06) (7, -6.25894040000000000000e+07) (8, 6.83310400000000000000e+08) (9, 1.14992448000000000000e+09) (0, -7.29610400000000000000e+06) (1, -3.37050920000000000000e+07) (2, 1.07371300000000000000e+07) (3, 1.15370012500000000000e+06) (4, -1.83931040000000000000e+07) (5, 4.38134880000000000000e+07) (6, 1.79309800000000000000e+07) (7, -3.73222656000000000000e+08) (8, -1.85511795200000000000e+09) (9, 1.02074924800000000000e+09) (0, 1.41839540000000000000e+07) (1, 4.69365150000000000000e+06) (2, 1.32925630000000000000e+07) (3, 2.45646550000000000000e+06) (4, 2.85974320000000000000e+07) (5, -4.73782200000000000000e+07) (6, 1.30824970000000000000e+07) (7, 1.91786656000000000000e+08) (8, 1.85378480000000000000e+08) (9, -1.36614208000000000000e+09) (0, 6.88806600000000000000e+06) (1, -1.50793250000000000000e+06) (2, -7.40281200000000000000e+06) (3, -8.19693800000000000000e+06) (4, 2.43348060000000000000e+07) (5, -5.28506840000000000000e+07) (6, 1.95876562500000000000e+06) (7, 4.45803760000000000000e+07) (8, -8.14436288000000000000e+08) (9, 1.20991104000000000000e+09) (0, -4.98471450000000000000e+06) (1, 6.02287500000000000000e+06) (2, -1.58843560000000000000e+07) (3, -5.92793150000000000000e+06) (4, -2.45727525000000000000e+06) (5, -7.89938650000000000000e+06) (6, -1.34125670000000000000e+07) (7, 5.70963350000000000000e+06) (8, 2.44910040000000000000e+07) (9, 1.27448819200000000000e+09) (0, -7.42173750000000000000e+06) (1, 1.94130500000000000000e+05) (2, -1.06844030000000000000e+07) (3, -4.42986800000000000000e+06) (4, -4.70396700000000000000e+06) (5, -2.29772675000000000000e+06) (6, -9.52697900000000000000e+06) (7, -1.97369140000000000000e+07) (8, 7.20734640000000000000e+07) (9, 1.20996915200000000000e+09) (0, 5.05409050000000000000e+06) (1, -8.70436400000000000000e+06) (2, 1.82982960000000000000e+07) (3, 6.00556600000000000000e+06) (4, 4.76892600000000000000e+06) (5, 1.77594212500000000000e+06) (6, 1.64011880000000000000e+07) (7, -2.11596425000000000000e+06) (8, -3.51574520000000000000e+07) (9, -1.26346880000000000000e+09) (0, -1.45583700000000000000e+07) (1, -7.04253350000000000000e+06) (2, -1.20633140000000000000e+07) (3, -1.81468312500000000000e+06) (4, -3.10138120000000000000e+07) (5, 5.42598200000000000000e+07) (6, -1.22007620000000000000e+07) (7, -2.32380608000000000000e+08) (8, -3.60718400000000000000e+08) (9, 1.34120934400000000000e+09) (0, 7.46317250000000000000e+06) (1, 7.92942500000000000000e+06) (2, 3.57580375000000000000e+06) (3, 4.32391200000000000000e+06) (4, -3.43745125000000000000e+06) (5, 1.75360560000000000000e+07) (6, 5.68457250000000000000e+05) (7, 1.89644700000000000000e+06) (8, -5.44125560000000000000e+07) (9, -1.30355712000000000000e+09) (0, -5.87828450000000000000e+06) (1, -4.61030000000000000000e+06) (2, -6.81893900000000000000e+06) (3, -4.94607900000000000000e+06) (4, 2.52966750000000000000e+06) (5, -1.54266880000000000000e+07) (6, -2.86327400000000000000e+06) (7, -4.00120050000000000000e+06) (8, -2.68192600000000000000e+07) (9, 1.29836224000000000000e+09) (0, 5.06997800000000000000e+06) (1, -6.03258900000000000000e+06) (2, 1.58402810000000000000e+07) (3, 5.79340500000000000000e+06) (4, 2.87409275000000000000e+06) (5, 6.99130350000000000000e+06) (6, 1.34907900000000000000e+07) (7, -3.28254800000000000000e+06) (8, -2.30201520000000000000e+07) (9, -1.26173312000000000000e+09) (0, 1.76090340000000000000e+07) (1, 2.26909560000000000000e+07) (2, -4.34185200000000000000e+06) (3, 5.42055312500000000000e+05) (4, 1.72955840000000000000e+07) (5, -2.60400340000000000000e+07) (6, -4.20356800000000000000e+06) (7, 1.59671024000000000000e+08) (8, -4.64884160000000000000e+07) (9, -1.36488128000000000000e+09) (0, 5.38570400000000000000e+06) (1, -8.83300875000000000000e+05) (2, 1.13609360000000000000e+07) (3, 5.50848650000000000000e+06) (4, -6.94330437500000000000e+05) (5, 1.32933950000000000000e+07) (6, 8.16245850000000000000e+06) (7, -7.99981600000000000000e+06) (8, -2.55256800000000000000e+07) (9, -1.29271116800000000000e+09) (0, -2.27321180000000000000e+07) (1, -1.95955640000000000000e+07) (2, 1.08528000000000000000e+07) (3, 1.69728787500000000000e+06) (4, -8.98969500000000000000e+06) (5, 6.74471000000000000000e+06) (6, 6.92376062500000000000e+05) (7, -2.14346380000000000000e+07) (8, 1.09900185600000000000e+09) (9, 9.66651840000000000000e+08) (0, -1.02216406250000000000e+05) (1, 1.54669680000000000000e+07) (2, 2.16097300000000000000e+06) (3, 6.52189000000000000000e+05) (4, 1.79439460000000000000e+07) (5, -4.36990640000000000000e+07) (6, -4.15348300000000000000e+06) (7, 3.58535584000000000000e+08) (8, 2.29340288000000000000e+09) (9, -6.99182464000000000000e+08) (0, 4.34419050000000000000e+06) (1, -6.61952900000000000000e+06) (2, -8.22745350000000000000e+06) (3, -1.95442287500000000000e+06) (4, -1.31062060000000000000e+07) (5, 3.35364140000000000000e+07) (6, -1.58838500000000000000e+06) (7, -3.08683872000000000000e+08) (8, -2.35118515200000000000e+09) (9, 6.28426944000000000000e+08) (0, 2.79020740000000000000e+07) (1, 2.28685460000000000000e+07) (2, -2.75376125000000000000e+06) (3, -3.36260050000000000000e+06) (4, 4.22967000000000000000e+07) (5, -7.46365040000000000000e+07) (6, 5.83091850000000000000e+06) (7, 2.82066784000000000000e+08) (8, -2.60214544000000000000e+08) (9, -1.23893734400000000000e+09) (0, 1.20852600000000000000e+07) (1, 2.55273100000000000000e+06) (2, 1.26548530000000000000e+07) (3, 3.36207800000000000000e+06) (4, 1.97357720000000000000e+07) (5, -2.78654560000000000000e+07) (6, 1.21588540000000000000e+07) (7, 1.18469496000000000000e+08) (8, 2.59192740000000000000e+07) (9, -1.33810150400000000000e+09) (0, -6.11016050000000000000e+06) (1, -1.56354420000000000000e+07) (2, -5.85815300000000000000e+06) (3, -1.94383171875000000000e+05) (4, -3.15123860000000000000e+07) (5, 6.58400360000000000000e+07) (6, -9.07699000000000000000e+05) (7, -3.94811616000000000000e+08) (8, -1.92760985600000000000e+09) (9, 9.92128896000000000000e+08) (0, -4.90810050000000000000e+06) (1, 9.54271600000000000000e+06) (2, -1.90969940000000000000e+07) (3, -6.20533850000000000000e+06) (4, -4.79693550000000000000e+06) (5, -4.13146125000000000000e+06) (6, -1.72015660000000000000e+07) (7, 4.67035650000000000000e+06) (8, 3.67194000000000000000e+07) (9, 1.27520550400000000000e+09) (0, -5.06975750000000000000e+06) (1, 9.47586400000000000000e+06) (2, -1.90930280000000000000e+07) (3, -6.18366050000000000000e+06) (4, -5.11150900000000000000e+06) (5, -3.58655625000000000000e+06) (6, -1.72946900000000000000e+07) (7, 2.80435525000000000000e+06) (8, 3.75206680000000000000e+07) (9, 1.27946112000000000000e+09) (0, 1.32814950000000000000e+07) (1, -1.30044100000000000000e+07) (2, 2.93319025000000000000e+06) (3, -7.90451800000000000000e+06) (4, 3.70472360000000000000e+07) (5, -6.93497200000000000000e+07) (6, 1.84437800000000000000e+07) (7, 1.92519260000000000000e+07) (8, -1.47090713600000000000e+09) (9, 1.06423328000000000000e+09) (0, 2.85045700000000000000e+06) (1, -8.10026700000000000000e+06) (2, -8.31361400000000000000e+06) (3, -2.47212625000000000000e+06) (4, -1.65199480000000000000e+07) (5, 3.97423720000000000000e+07) (6, -8.44965687500000000000e+05) (7, -3.25894272000000000000e+08) (8, -2.25739980800000000000e+09) (9, 7.33314368000000000000e+08) (0, -5.46532950000000000000e+06) (1, 9.54167100000000000000e+06) (2, -1.93598960000000000000e+07) (3, -6.14460350000000000000e+06) (4, -5.99620700000000000000e+06) (5, -2.02292937500000000000e+06) (6, -1.78062640000000000000e+07) (7, -1.19557750000000000000e+06) (8, 4.57216440000000000000e+07) (9, 1.29156236800000000000e+09) (0, -1.71503740000000000000e+07) (1, -9.41654600000000000000e+06) (2, 1.46263090000000000000e+07) (3, 3.61811675000000000000e+06) (4, 1.78453600000000000000e+06) (5, -8.17932750000000000000e+06) (6, 3.19626000000000000000e+06) (7, 1.95316160000000000000e+08) (8, 2.49437542400000000000e+09) (9, -9.15610800000000000000e+07) (0, 7.23240050000000000000e+06) (1, 8.19928800000000000000e+06) (2, 3.50404550000000000000e+06) (3, 4.40171200000000000000e+06) (4, -3.90059725000000000000e+06) (5, 1.83223660000000000000e+07) (6, 6.57003046875000000000e+04) (7, 1.71928650000000000000e+06) (8, -3.50840000000000000000e+07) (9, -1.31678169600000000000e+09) (0, 1.89939820000000000000e+07) (1, 1.73613620000000000000e+07) (2, 7.58531687500000000000e+05) (3, 2.92707968750000000000e+05) (4, 2.48761300000000000000e+07) (5, -3.98454640000000000000e+07) (6, 3.01503775000000000000e+06) (7, 1.83681856000000000000e+08) (8, -7.44005040000000000000e+07) (9, -1.33635929600000000000e+09) (0, 6.58236450000000000000e+06) (1, 7.02715700000000000000e+06) (2, 4.48756200000000000000e+06) (3, 4.66341650000000000000e+06) (4, -4.22346750000000000000e+06) (5, 1.89961240000000000000e+07) (6, 7.41976750000000000000e+05) (7, -2.15300875000000000000e+06) (8, -1.79151060000000000000e+07) (9, -1.31420928000000000000e+09) (0, -3.37451240000000000000e+07) (1, -2.84636040000000000000e+07) (2, 1.65800837500000000000e+06) (3, 5.87451800000000000000e+06) (4, -6.71874160000000000000e+07) (5, 1.26810752000000000000e+08) (6, -7.68255900000000000000e+06) (7, -4.63431456000000000000e+08) (8, -8.25054320000000000000e+07) (9, 1.25891097600000000000e+09) (0, -1.06971740000000000000e+07) (1, 8.01531700000000000000e+06) (2, 1.57214900000000000000e+06) (3, 7.75820850000000000000e+06) (4, -3.04924820000000000000e+07) (5, 5.95487320000000000000e+07) (6, -1.11524180000000000000e+07) (7, -1.76027300000000000000e+07) (8, 1.24555264000000000000e+09) (9, -1.09564108800000000000e+09) (0, 4.95118250000000000000e+06) (1, -5.79731750000000000000e+06) (2, 1.60504200000000000000e+07) (3, 5.90014750000000000000e+06) (4, 3.06841525000000000000e+06) (5, 6.37678650000000000000e+06) (6, 1.33713610000000000000e+07) (7, 1.93226375000000000000e+06) (8, 1.28617980000000000000e+07) (9, -1.28513587200000000000e+09) (0, 6.53926600000000000000e+06) (1, 7.06115400000000000000e+06) (2, 4.46200150000000000000e+06) (3, 4.68923650000000000000e+06) (4, -4.34569700000000000000e+06) (5, 1.92204040000000000000e+07) (6, 6.66738437500000000000e+05) (7, -2.64975800000000000000e+06) (8, -1.68095240000000000000e+07) (9, -1.31604672000000000000e+09) (0, 1.30385140000000000000e+07) (1, -9.30891100000000000000e+06) (2, -5.57518562500000000000e+05) (3, -7.93330550000000000000e+06) (4, 3.25771940000000000000e+07) (5, -6.10697160000000000000e+07) (6, 1.39870510000000000000e+07) (7, 4.20364500000000000000e+06) (8, -1.49599129600000000000e+09) (9, 1.03626336000000000000e+09) (0, -1.97523080000000000000e+07) (1, -4.55683150000000000000e+06) (2, 8.39754500000000000000e+06) (3, 3.75263075000000000000e+06) (4, -9.44863400000000000000e+06) (5, 1.19931770000000000000e+07) (6, -5.50229050000000000000e+06) (7, 1.45775968000000000000e+08) (8, 2.45413120000000000000e+09) (9, -2.40974380000000000000e+07) (0, -4.63180550000000000000e+06) (1, 7.99809550000000000000e+06) (2, 6.65668300000000000000e+06) (3, 1.94501112500000000000e+06) (4, 1.09508440000000000000e+07) (5, -2.97277160000000000000e+07) (6, -2.74430843750000000000e+05) (7, 2.99336576000000000000e+08) (8, 2.33134284800000000000e+09) (9, -6.17290688000000000000e+08) (0, -1.03766620000000000000e+07) (1, -7.39018500000000000000e+05) (2, -1.24344150000000000000e+07) (3, -4.06223800000000000000e+06) (4, -1.29851950000000000000e+07) (5, 1.34694010000000000000e+07) (6, -1.21698290000000000000e+07) (7, -7.16111360000000000000e+07) (8, 3.02844920000000000000e+07) (9, 1.32631104000000000000e+09) (0, 2.44004980000000000000e+07) (1, 2.09742800000000000000e+07) (2, -4.32800450000000000000e+06) (3, -2.05229087500000000000e+06) (4, 2.82925620000000000000e+07) (5, -4.59812280000000000000e+07) (6, 3.03651800000000000000e+06) (7, 1.83915024000000000000e+08) (8, -4.48004992000000000000e+08) (9, -1.20894169600000000000e+09) (0, 5.82052150000000000000e+06) (1, 4.61998700000000000000e+06) (2, 6.76180400000000000000e+06) (3, 4.90032200000000000000e+06) (4, -2.66777525000000000000e+06) (5, 1.56455060000000000000e+07) (6, 2.85760250000000000000e+06) (7, 4.07717300000000000000e+06) (8, 3.29029900000000000000e+07) (9, -1.29647462400000000000e+09) (0, -5.09125200000000000000e+06) (1, 8.07075050000000000000e+06) (2, -1.75513580000000000000e+07) (3, -5.80908100000000000000e+06) (4, -4.59841200000000000000e+06) (5, -3.91104075000000000000e+06) (6, -1.57097120000000000000e+07) (7, 1.02998675000000000000e+06) (8, 3.51730440000000000000e+07) (9, 1.24140838400000000000e+09) (0, 1.05483070000000000000e+07) (1, -7.92083850000000000000e+06) (2, -1.71259300000000000000e+06) (3, -7.64260500000000000000e+06) (4, 2.96043420000000000000e+07) (5, -5.76601120000000000000e+07) (6, 1.07349150000000000000e+07) (7, 1.15363050000000000000e+07) (8, -1.26096793600000000000e+09) (9, 1.08317696000000000000e+09) (0, 1.13670920000000000000e+07) (1, -8.75430200000000000000e+06) (2, -8.91003125000000000000e+05) (3, -7.79697900000000000000e+06) (4, 3.17150200000000000000e+07) (5, -6.12320520000000000000e+07) (6, 1.23460880000000000000e+07) (7, 1.63892600000000000000e+07) (8, -1.30911808000000000000e+09) (9, 1.08078092800000000000e+09) (0, 9.34480500000000000000e+06) (1, -1.97532637500000000000e+06) (2, 1.43336080000000000000e+07) (3, 4.77973400000000000000e+06) (4, 1.06842400000000000000e+07) (5, -7.81201400000000000000e+06) (6, 1.39851480000000000000e+07) (7, 4.87184240000000000000e+07) (8, -5.31342400000000000000e+07) (9, -1.35037734400000000000e+09) (0, 1.53194470000000000000e+07) (1, -4.48789746093750000000e+03) (2, -6.69770900000000000000e+06) (3, -2.54875075000000000000e+06) (4, 9.14366312500000000000e+05) (5, 4.73304200000000000000e+06) (6, 5.00152550000000000000e+06) (7, -2.09308896000000000000e+08) (8, -2.49142886400000000000e+09) (9, 1.08752448000000000000e+08) (10, -1.56160359375000000000e+05) (11, 1.59941953125000000000e+05) (12, -1.35070125000000000000e+05) (13, 1.75774593750000000000e+05) (14, 1.74402796875000000000e+05) (15, -1.60754109375000000000e+05) (16, 8.39113203125000000000e+04) (17, -1.02566390625000000000e+05) (18, -2.48340527343750000000e+04) (19, 2.56612363281250000000e+04) (20, -1.28706625000000000000e+05) (21, 1.90233484375000000000e+05) (22, 1.87476796875000000000e+05) (23, -7.82618515625000000000e+04) (24, 9.88711093750000000000e+04) (25, -1.83055296875000000000e+05) (26, -1.85748375000000000000e+05) (27, -1.12015617187500000000e+05) (28, 1.73617140625000000000e+05) (29, -1.75679750000000000000e+05) (30, -1.79684718750000000000e+05) (31, -1.73002734375000000000e+05) (32, -1.74349734375000000000e+05) (33, -1.66493515625000000000e+05) (34, -1.85311687500000000000e+05) (35, -1.80182890625000000000e+05) (36, 1.83959296875000000000e+05) (37, -1.69647937500000000000e+05) (38, 1.77975765625000000000e+05) (39, -6.23774609375000000000e+04) (40, -1.73871125000000000000e+05) (41, -1.02024164062500000000e+05) (42, -1.55101593750000000000e+05) (43, -1.77844937500000000000e+05) (44, -1.93868562500000000000e+05) (45, -1.71959859375000000000e+05) (46, 1.67169296875000000000e+05) (47, -1.82876281250000000000e+05) (48, -1.85883359375000000000e+04) (49, 1.75790656250000000000e+05) (50, -1.88793437500000000000e+05) (51, 1.10971257812500000000e+05) (52, -1.75636312500000000000e+05) (53, 1.31835109375000000000e+05) (54, 1.75691640625000000000e+05) (55, 4.67876875000000000000e+04) (56, 1.19458328125000000000e+05) (57, 1.83916687500000000000e+05) (58, -2.30063535156250000000e+04) (59, -1.43674937500000000000e+05) (60, 1.06348359375000000000e+05) (61, 1.75718406250000000000e+05) (62, 1.68671125000000000000e+05) (63, -1.74720000000000000000e+05) (64, 1.18001218750000000000e+05) (65, -1.79186484375000000000e+05) (66, 1.75916671875000000000e+05) (67, -1.73945875000000000000e+05) (68, -1.69470062500000000000e+05) (69, -1.78666500000000000000e+05) (70, 1.86566875000000000000e+05) (71, 8.65843984375000000000e+04) (72, -9.52991875000000000000e+04) (73, -1.53021734375000000000e+05) (74, -1.65786062500000000000e+05) (75, -3.37030781250000000000e+04) (76, 1.76087625000000000000e+05) (77, 1.76600171875000000000e+05) (78, 4.75006953125000000000e+04) (79, -7.94881093750000000000e+04) (80, 1.78378703125000000000e+05) (81, 1.54668031250000000000e+05) (82, -1.80278187500000000000e+05) (83, -1.63479843750000000000e+05) (84, -1.79772968750000000000e+05) (85, 1.13904703125000000000e+05) (86, -6.15566250000000000000e+04) (87, -1.74788687500000000000e+05) (88, -1.80018453125000000000e+05) (89, 4.08246875000000000000e+04) (90, 1.55413093750000000000e+05) (91, 9.50949062500000000000e+04) (92, 1.74426750000000000000e+05) (93, -1.68442062500000000000e+05) (94, -1.75471171875000000000e+05) (95, 1.72275703125000000000e+05) (96, 5.88083710937500000000e+04) (97, 5.65778398437500000000e+04) (98, -1.80868703125000000000e+05) (99, -1.54164515625000000000e+05) (100, 1.84166625000000000000e+05) (10, -1.45219375000000000000e+05) (11, 1.53937234375000000000e+05) (12, -1.05649484375000000000e+05) (13, 1.73847734375000000000e+05) (14, 1.72354359375000000000e+05) (15, -1.79751140625000000000e+05) (16, 7.34849843750000000000e+04) (17, -9.26021484375000000000e+04) (18, -2.44428320312500000000e+04) (19, 8.88359062500000000000e+04) (20, -2.11039937500000000000e+05) (21, 1.90153562500000000000e+05) (22, 1.85577468750000000000e+05) (23, -7.04977656250000000000e+04) (24, 1.52478250000000000000e+05) (25, -1.94143343750000000000e+05) (26, -1.89877031250000000000e+05) (27, -7.91286406250000000000e+04) (28, 1.71810953125000000000e+05) (29, -1.55439359375000000000e+05) (30, -1.74099265625000000000e+05) (31, -1.70583343750000000000e+05) (32, -1.69472140625000000000e+05) (33, -1.49039515625000000000e+05) (34, -1.80436500000000000000e+05) (35, -1.75725484375000000000e+05) (36, 1.86830578125000000000e+05) (37, -1.70217843750000000000e+05) (38, 1.73053593750000000000e+05) (39, -8.23796875000000000000e+04) (40, -1.71897562500000000000e+05) (41, -6.95170000000000000000e+04) (42, -1.45924718750000000000e+05) (43, -1.76293078125000000000e+05) (44, -1.91766671875000000000e+05) (45, -1.90689343750000000000e+05) (46, 2.03970734375000000000e+05) (47, -1.76809093750000000000e+05) (48, -8.31589531250000000000e+04) (49, 1.73597109375000000000e+05) (50, -1.91012828125000000000e+05) (51, 1.04151085937500000000e+05) (52, -1.58382640625000000000e+05) (53, 2.12072609375000000000e+05) (54, 1.72471750000000000000e+05) (55, 1.09444140625000000000e+05) (56, 2.14209359375000000000e+05) (57, 1.92902203125000000000e+05) (58, 5.26652734375000000000e+04) (59, -1.88485265625000000000e+05) (60, 9.36325468750000000000e+04) (61, 1.72590234375000000000e+05) (62, 1.69524468750000000000e+05) (63, -1.72873062500000000000e+05) (64, 1.69722796875000000000e+05) (65, -1.74021578125000000000e+05) (66, 1.73703312500000000000e+05) (67, -1.71334390625000000000e+05) (68, -2.01327234375000000000e+05) (69, -1.74501484375000000000e+05) (70, 1.86181828125000000000e+05) (71, 3.90629726562500000000e+04) (72, -5.61310820312500000000e+04) (73, -2.09484515625000000000e+05) (74, -1.93952328125000000000e+05) (75, 4.91275781250000000000e+04) (76, 1.73779250000000000000e+05) (77, 1.74484781250000000000e+05) (78, 4.05058828125000000000e+04) (79, -3.45738828125000000000e+04) (80, 1.77058187500000000000e+05) (81, 1.26879921875000000000e+05) (82, -1.75095734375000000000e+05) (83, -2.01138796875000000000e+05) (84, -1.74185234375000000000e+05) (85, 2.15821046875000000000e+05) (86, -5.33379375000000000000e+04) (87, -1.73898234375000000000e+05) (88, -1.74338093750000000000e+05) (89, 3.74941796875000000000e+04) (90, 1.37686218750000000000e+05) (91, 5.75597265625000000000e+04) (92, 1.87449281250000000000e+05) (93, -2.02956234375000000000e+05) (94, -1.72884781250000000000e+05) (95, 1.70377718750000000000e+05) (96, 5.18330195312500000000e+04) (97, 4.89645820312500000000e+04) (98, -1.88089375000000000000e+05) (99, -1.26028367187500000000e+05) (100, 1.82494656250000000000e+05) (10, -1.91868343750000000000e+05) (11, 1.86200578125000000000e+05) (12, 6.43210937500000000000e+04) (13, 1.71717296875000000000e+05) (14, 1.70916234375000000000e+05) (15, -8.81340390625000000000e+04) (16, 2.04600328125000000000e+05) (17, -2.02984562500000000000e+05) (18, -2.01407296875000000000e+05) (19, 2.13605468750000000000e+05) (20, -1.65125062500000000000e+05) (21, 1.92353343750000000000e+05) (22, 1.67072671875000000000e+05) (23, -2.03270250000000000000e+05) (24, 2.04859531250000000000e+05) (25, -1.69453796875000000000e+05) (26, -1.92047734375000000000e+05) (27, 9.59983984375000000000e+04) (28, 1.71043531250000000000e+05) (29, -5.30297578125000000000e+04) (30, -1.81592890625000000000e+05) (31, -7.76557265625000000000e+04) (32, -1.88434625000000000000e+05) (33, -1.37797949218750000000e+04) (34, -1.85411453125000000000e+05) (35, -1.78890234375000000000e+05) (36, 1.35106281250000000000e+05) (37, -1.67467562500000000000e+05) (38, 1.80039234375000000000e+05) (39, 1.24398429687500000000e+05) (40, -1.70574515625000000000e+05) (41, 1.06775890625000000000e+05) (42, -1.88721234375000000000e+05) (43, -1.73843515625000000000e+05) (44, -1.97333531250000000000e+05) (45, -1.82809265625000000000e+05) (46, 1.78817187500000000000e+05) (47, -1.15576000000000000000e+05) (48, -2.20494093750000000000e+05) (49, 1.72038390625000000000e+05) (50, -1.92265187500000000000e+05) (51, 1.95887812500000000000e+05) (52, -6.26648789062500000000e+04) (53, 1.75358078125000000000e+05) (54, 1.73649703125000000000e+05) (55, 2.13019296875000000000e+05) (56, 1.98523718750000000000e+05) (57, 1.66026890625000000000e+05) (58, 2.05262781250000000000e+05) (59, -2.00761156250000000000e+05) (60, 2.03818281250000000000e+05) (61, 1.73783875000000000000e+05) (62, 1.66537296875000000000e+05) (63, -1.71295812500000000000e+05) (64, 2.04421546875000000000e+05) (65, -1.80242281250000000000e+05) (66, 1.83437781250000000000e+05) (67, -1.72351171875000000000e+05) (68, -1.95543234375000000000e+05) (69, -1.77419171875000000000e+05) (70, 1.44773812500000000000e+05) (71, -1.32455734375000000000e+05) (72, 1.18703867187500000000e+05) (73, -1.85158593750000000000e+05) (74, -1.88829109375000000000e+05) (75, 1.95358406250000000000e+05) (76, 1.72326171875000000000e+05) (77, 1.72835234375000000000e+05) (78, 2.08801125000000000000e+05) (79, 1.37466015625000000000e+05) (80, 1.74263546875000000000e+05) (81, -3.52397226562500000000e+04) (82, -1.81942281250000000000e+05) (83, -1.90701937500000000000e+05) (84, -1.81621453125000000000e+05) (85, 1.96522765625000000000e+05) (86, -2.05419656250000000000e+05) (87, -1.77795578125000000000e+05) (88, -1.81841718750000000000e+05) (89, 2.03975640625000000000e+05) (90, -2.68784765625000000000e+04) (91, -1.17503492187500000000e+05) (92, 1.82972500000000000000e+05) (93, -1.78349593750000000000e+05) (94, -1.83716640625000000000e+05) (95, 1.69115484375000000000e+05) (96, 2.04509546875000000000e+05) (97, 2.05652343750000000000e+05) (98, -1.83491578125000000000e+05) (99, 3.87073750000000000000e+04) (100, 1.84499140625000000000e+05) (10, -1.95211031250000000000e+05) (11, 1.88641671875000000000e+05) (12, 9.01517343750000000000e+04) (13, 1.79960375000000000000e+05) (14, 1.78834328125000000000e+05) (15, -7.37941406250000000000e+04) (16, 2.08864843750000000000e+05) (17, -2.03892250000000000000e+05) (18, -2.08120421875000000000e+05) (19, 2.20273781250000000000e+05) (20, -1.58276375000000000000e+05) (21, 1.83698625000000000000e+05) (22, 1.56107578125000000000e+05) (23, -2.07317531250000000000e+05) (24, 2.09742609375000000000e+05) (25, -1.63168468750000000000e+05) (26, -1.83210359375000000000e+05) (27, 1.11139164062500000000e+05) (28, 1.78569453125000000000e+05) (29, -2.22835332031250000000e+04) (30, -1.81007093750000000000e+05) (31, -6.08844257812500000000e+04) (32, -1.89596250000000000000e+05) (33, 1.61092666015625000000e+04) (34, -1.80899406250000000000e+05) (35, -1.82392390625000000000e+05) (36, 1.29185734375000000000e+05) (37, -1.70588718750000000000e+05) (38, 1.79986734375000000000e+05) (39, 1.11155804687500000000e+05) (40, -1.78355671875000000000e+05) (41, 1.13833812500000000000e+05) (42, -1.95482343750000000000e+05) (43, -1.82703671875000000000e+05) (44, -1.88253250000000000000e+05) (45, -1.82023859375000000000e+05) (46, 1.73910718750000000000e+05) (47, -9.97753906250000000000e+04) (48, -2.15066593750000000000e+05) (49, 1.80262125000000000000e+05) (50, -1.83382500000000000000e+05) (51, 2.01783234375000000000e+05) (52, -3.43860585937500000000e+04) (53, 1.69821578125000000000e+05) (54, 1.79756625000000000000e+05) (55, 2.18770031250000000000e+05) (56, 1.95643234375000000000e+05) (57, 1.60313546875000000000e+05) (58, 2.15681843750000000000e+05) (59, -2.05768812500000000000e+05) (60, 2.07927625000000000000e+05) (61, 1.80087531250000000000e+05) (62, 1.69534531250000000000e+05) (63, -1.79266718750000000000e+05) (64, 2.09576375000000000000e+05) (65, -1.79121781250000000000e+05) (66, 1.84291531250000000000e+05) (67, -1.78779828125000000000e+05) (68, -1.88029921875000000000e+05) (69, -1.80969484375000000000e+05) (70, 1.33912578125000000000e+05) (71, -1.40187078125000000000e+05) (72, 1.31118687500000000000e+05) (73, -1.80525843750000000000e+05) (74, -1.92891203125000000000e+05) (75, 2.18524796875000000000e+05) (76, 1.80577578125000000000e+05) (77, 1.81088718750000000000e+05) (78, 2.09299468750000000000e+05) (79, 1.47756796875000000000e+05) (80, 1.82527203125000000000e+05) (81, -6.82906250000000000000e+04) (82, -1.80797359375000000000e+05) (83, -1.86966421875000000000e+05) (84, -1.80974906250000000000e+05) (85, 1.93517640625000000000e+05) (86, -2.08037203125000000000e+05) (87, -1.84242140625000000000e+05) (88, -1.81151828125000000000e+05) (89, 2.07369265625000000000e+05) (90, -5.56668398437500000000e+04) (91, -1.28404078125000000000e+05) (92, 1.86589015625000000000e+05) (93, -1.72195390625000000000e+05) (94, -1.84570843750000000000e+05) (95, 1.76671296875000000000e+05) (96, 2.07194234375000000000e+05) (97, 2.07765265625000000000e+05) (98, -1.88311562500000000000e+05) (99, 6.53050546875000000000e+04) (100, 1.86150046875000000000e+05) 
